{"learner":{"attributes":{},"feature_names":["vdc_mean","vdc_std","pdc_mean","pdc_std","pdc_delta","pdc_slope","efficiency_norm","anomaly_lstm","health_index"],"feature_types":["float","float","float","float","float","float","float","float","float"],"gradient_booster":{"model":{"cats":{"enc":[],"feature_segments":[],"sorted_idx":[]},"gbtree_model_param":{"num_parallel_tree":"1","num_trees":"200"},"iteration_indptr":[0,1,2,3,4,5,6,7,8,9,10,11,12,13,14,15,16,17,18,19,20,21,22,23,24,25,26,27,28,29,30,31,32,33,34,35,36,37,38,39,40,41,42,43,44,45,46,47,48,49,50,51,52,53,54,55,56,57,58,59,60,61,62,63,64,65,66,67,68,69,70,71,72,73,74,75,76,77,78,79,80,81,82,83,84,85,86,87,88,89,90,91,92,93,94,95,96,97,98,99,100,101,102,103,104,105,106,107,108,109,110,111,112,113,114,115,116,117,118,119,120,121,122,123,124,125,126,127,128,129,130,131,132,133,134,135,136,137,138,139,140,141,142,143,144,145,146,147,148,149,150,151,152,153,154,155,156,157,158,159,160,161,162,163,164,165,166,167,168,169,170,171,172,173,174,175,176,177,178,179,180,181,182,183,184,185,186,187,188,189,190,191,192,193,194,195,196,197,198,199,200],"tree_info":[0,0,0,0,0,0,0,0,0,0,0,0,0,0,0,0,0,0,0,0,0,0,0,0,0,0,0,0,0,0,0,0,0,0,0,0,0,0,0,0,0,0,0,0,0,0,0,0,0,0,0,0,0,0,0,0,0,0,0,0,0,0,0,0,0,0,0,0,0,0,0,0,0,0,0,0,0,0,0,0,0,0,0,0,0,0,0,0,0,0,0,0,0,0,0,0,0,0,0,0,0,0,0,0,0,0,0,0,0,0,0,0,0,0,0,0,0,0,0,0,0,0,0,0,0,0,0,0,0,0,0,0,0,0,0,0,0,0,0,0,0,0,0,0,0,0,0,0,0,0,0,0,0,0,0,0,0,0,0,0,0,0,0,0,0,0,0,0,0,0,0,0,0,0,0,0,0,0,0,0,0,0,0,0,0,0,0,0,0,0,0,0,0,0,0,0,0,0,0,0],"trees":[{"base_weights":[9.902229E0,-1.9622327E3,1.3380818E3,-2.1735109E2,-2.8878586E3,1.5773495E3,-6.162431E2,-2.8959954E3,1.1343153E3,-3.4814106E3,-1.5515856E3,-8.352873E2,1.727751E3,-3.1681453E3,4.474322E2,1.2024907E3,-3.6735107E3,-1.6552897E3,1.6905001E3,-1.7232126E3,-4.064648E3,-1.0382001E3,-4.948977E3,-3.868936E3,1.9810068E3,2.2221482E3,1.448974E3,-1.2872697E3,-5.9494917E3,1.7383871E3,-1.8896757E3,-2.8815665E2,1.135453E2,-1.3558391E2,-2.689437E2,-1.9490528E1,-1.2969984E2,1.1686033E2,3.170429E1,-2.1256086E1,-1.15342094E2,-3.1577475E2,-1.8662888E2,-9.700851E1,1.0201625E1,-2.1292989E2,-4.0969504E2,-2.617608E2,-9.439395E1,1.1310496E2,-2.403551E2,1.149156E2,8.576107E1,6.4721825E1,1.3230695E2,-2.6560925E2,1.2916298E2,-3.330397E2,-5.9663513E1,1.0140893E2,-7.637185E0,-1.4055632E2,6.261626E1],"categories":[],"categories_nodes":[],"categories_segments":[],"categories_sizes":[],"default_left":[0,0,0,0,0,0,0,0,0,0,0,0,0,0,0,0,0,0,0,0,0,0,0,0,0,0,0,0,0,0,0,0,0,0,0,0,0,0,0,0,0,0,0,0,0,0,0,0,0,0,0,0,0,0,0,0,0,0,0,0,0,0,0],"id":0,"left_children":[1,3,5,7,9,11,13,15,17,19,21,23,25,27,29,31,33,35,37,39,41,43,45,47,49,51,53,55,57,59,61,-1,-1,-1,-1,-1,-1,-1,-1,-1,-1,-1,-1,-1,-1,-1,-1,-1,-1,-1,-1,-1,-1,-1,-1,-1,-1,-1,-1,-1,-1,-1,-1],"loss_changes":[2.1810535E11,5.4121628E10,2.3267688E10,4.2060562E10,1.7360552E10,1.6087204E10,1.4735154E10,1.2419553E10,1.1982208E10,1.5538766E10,1.1743601E10,2.2238235E10,5.748146E9,8.346834E9,1.1564815E10,4.642122E9,5.357306E9,1.5242708E9,4.396896E9,2.8612454E9,8.4845363E9,6.558428E9,1.9454689E9,3.381584E9,2.5867904E9,5.76897E8,4.933673E9,1.4875662E10,2.1707756E9,1.3534054E9,3.952572E9,0E0,0E0,0E0,0E0,0E0,0E0,0E0,0E0,0E0,0E0,0E0,0E0,0E0,0E0,0E0,0E0,0E0,0E0,0E0,0E0,0E0,0E0,0E0,0E0,0E0,0E0,0E0,0E0,0E0,0E0,0E0,0E0],"parents":[2147483647,0,0,1,1,2,2,3,3,4,4,5,5,6,6,7,7,8,8,9,9,10,10,11,11,12,12,13,13,14,14,15,15,16,16,17,17,18,18,19,19,20,20,21,21,22,22,23,23,24,24,25,25,26,26,27,27,28,28,29,29,30,30],"right_children":[2,4,6,8,10,12,14,16,18,20,22,24,26,28,30,32,34,36,38,40,42,44,46,48,50,52,54,56,58,60,62,-1,-1,-1,-1,-1,-1,-1,-1,-1,-1,-1,-1,-1,-1,-1,-1,-1,-1,-1,-1,-1,-1,-1,-1,-1,-1,-1,-1,-1,-1,-1,-1],"split_conditions":[9.98484E-1,-7.326366E-2,1.5180861E-2,1.5883682E3,2.7944064E2,-1.5492371E0,5.8019608E1,6.407944E1,9.9756414E-1,1.219308E0,1.010722E0,1.141428E3,5.641302E-2,1.9456825E2,1.5459443E3,4.170543E1,5.5963224E-1,-5.7139313E-1,-5.1468074E-1,3.334041E-1,9.9999946E-1,7.903247E2,1.3865602E3,2.7875592E2,1.9744055E-1,1.944745E-4,1.3865602E3,3.5572296E1,2.8882E2,1.7416807E0,2.7527524E2,-2.8815665E2,1.135453E2,-1.3558391E2,-2.689437E2,-1.9490528E1,-1.2969984E2,1.1686033E2,3.170429E1,-2.1256086E1,-1.15342094E2,-3.1577475E2,-1.8662888E2,-9.700851E1,1.0201625E1,-2.1292989E2,-4.0969504E2,-2.617608E2,-9.439395E1,1.1310496E2,-2.403551E2,1.149156E2,8.576107E1,6.4721825E1,1.3230695E2,-2.6560925E2,1.2916298E2,-3.330397E2,-5.9663513E1,1.0140893E2,-7.637185E0,-1.4055632E2,6.261626E1],"split_indices":[8,5,5,2,0,5,2,2,8,0,7,2,7,0,2,0,7,5,5,7,6,2,2,0,7,5,2,0,0,5,0,0,0,0,0,0,0,0,0,0,0,0,0,0,0,0,0,0,0,0,0,0,0,0,0,0,0,0,0,0,0,0,0],"split_type":[0,0,0,0,0,0,0,0,0,0,0,0,0,0,0,0,0,0,0,0,0,0,0,0,0,0,0,0,0,0,0,0,0,0,0,0,0,0,0,0,0,0,0,0,0,0,0,0,0,0,0,0,0,0,0,0,0,0,0,0,0,0,0],"sum_hessian":[8.3265E4,3.3509E4,4.9756E4,1.1615E4,2.1894E4,4.4329E4,5.427E3,3.895E3,7.72E3,1.5159E4,6.735E3,2.601E3,4.1728E4,1.596E3,3.831E3,6.21E2,3.274E3,1.283E3,6.437E3,3.777E3,1.1382E4,5.852E3,8.83E2,1.252E3,1.349E3,1.5043E4,2.6685E4,9.53E2,6.43E2,2.468E3,1.363E3,8.2E1,5.39E2,2.095E3,1.179E3,5.47E2,7.36E2,3.992E3,2.445E3,1.172E3,2.605E3,1.461E3,9.921E3,3.39E3,2.462E3,7.3E2,1.53E2,7.4E2,5.12E2,1.296E3,5.3E1,1.3075E4,1.968E3,2.3636E4,3.049E3,4.67E2,4.86E2,5.59E2,8.4E1,2.14E3,3.28E2,1.054E3,3.09E2],"tree_param":{"num_deleted":"0","num_feature":"9","num_nodes":"63","size_leaf_vector":"1"}},{"base_weights":[-1.2655937E1,1.2466509E3,-1.9083124E3,1.4811058E3,-5.5905096E2,-2.4753549E2,-2.78576E3,1.6571825E3,-1.0004825E3,-1.8219283E3,7.695241E2,6.875739E2,-2.9460457E3,-3.3856023E3,-1.4221713E3,2.1167173E3,1.397325E3,2.3078606E3,-1.919272E3,1.2863322E2,-2.2512651E3,-3.9054877E2,8.4610706E2,1.2004618E3,-3.5946992E3,2.485439E2,-3.5604402E3,-1.5277922E3,-3.9508982E3,-9.378967E2,-4.816781E3,1.1172682E2,8.4193596E1,5.218449E1,9.950839E1,1.22674034E2,8.9867165E1,-4.2573685E1,-1.5115215E2,-3.04796E2,-8.702481E1,2.1427313E1,9.837472E1,-5.3033733E0,7.9169495E1,-2.2008939E2,1.15271866E2,-3.0260483E2,8.001632E1,-1.00032E2,-2.4814268E2,-2.8238056E1,-9.954696E1,-2.956564E2,-1.8227975E2,4.7980267E1,-6.945794E1,-1.2396393E2,-2.7017896E2],"categories":[],"categories_nodes":[],"categories_segments":[],"categories_sizes":[],"default_left":[0,0,0,0,0,0,0,0,0,0,0,0,0,0,0,0,0,0,0,0,0,0,0,0,0,0,0,0,0,0,0,0,0,0,0,0,0,0,0,0,0,0,0,0,0,0,0,0,0,0,0,0,0,0,0,0,0,0,0],"id":1,"left_children":[1,3,5,7,9,11,13,15,17,19,21,23,25,27,29,31,33,35,37,-1,39,-1,41,43,45,47,49,51,53,55,57,-1,-1,-1,-1,-1,-1,-1,-1,-1,-1,-1,-1,-1,-1,-1,-1,-1,-1,-1,-1,-1,-1,-1,-1,-1,-1,-1,-1],"loss_changes":[1.9963068E11,2.1272764E10,4.864069E10,1.9433693E10,9.690855E9,2.9122085E10,1.7858953E10,4.9557996E9,8.962339E9,5.59249E9,1.856401E9,1.8829027E10,5.83022E9,1.5922545E10,1.0967023E10,7.6109414E8,5.55973E9,4.3243264E7,2.7164677E9,0E0,5.2875336E9,0E0,1.3060353E9,3.830017E9,4.37684E9,4.0978913E9,5.439095E9,1.5778043E9,6.9444895E9,5.0036664E9,1.1291832E9,0E0,0E0,0E0,0E0,0E0,0E0,0E0,0E0,0E0,0E0,0E0,0E0,0E0,0E0,0E0,0E0,0E0,0E0,0E0,0E0,0E0,0E0,0E0,0E0,0E0,0E0,0E0,0E0],"parents":[2147483647,0,0,1,1,2,2,3,3,4,4,5,5,6,6,7,7,8,8,9,9,10,10,11,11,12,12,13,13,14,14,15,15,16,16,17,17,18,18,20,20,22,22,23,23,24,24,25,25,26,26,27,27,28,28,29,29,30,30],"right_children":[2,4,6,8,10,12,14,16,18,20,22,24,26,28,30,32,34,36,38,-1,40,-1,42,44,46,48,50,52,54,56,58,-1,-1,-1,-1,-1,-1,-1,-1,-1,-1,-1,-1,-1,-1,-1,-1,-1,-1,-1,-1,-1,-1,-1,-1,-1,-1,-1,-1],"split_conditions":[2.0262234E-1,9.388369E-3,-7.326366E-2,2.309641E1,2.73442E2,3.3666658E-1,2.7944064E2,5.641302E-2,2.7021613E2,4.851971E-2,8.940767E-1,2.9591702E2,1.7998767E2,1.174844E0,1.010722E0,6.052534E-3,2.7649084E1,2.6916315E2,1.6942263E-1,1.2863322E2,2.7649084E1,-3.9054877E2,2.8704422E2,7.948494E0,-1.3360699E-1,4.170543E1,6.0410386E-1,3.4184924E-1,9.9999946E-1,2.2269504E-1,2.0177448E0,1.1172682E2,8.4193596E1,5.218449E1,9.950839E1,1.22674034E2,8.9867165E1,-4.2573685E1,-1.5115215E2,-3.04796E2,-8.702481E1,2.1427313E1,9.837472E1,-5.3033733E0,7.9169495E1,-2.2008939E2,1.15271866E2,-3.0260483E2,8.001632E1,-1.00032E2,-2.4814268E2,-2.8238056E1,-9.954696E1,-2.956564E2,-1.8227975E2,4.7980267E1,-6.945794E1,-1.2396393E2,-2.7017896E2],"split_indices":[7,5,5,3,0,7,0,7,0,7,3,0,0,0,7,3,0,0,7,0,0,0,0,3,5,0,7,7,6,7,3,0,0,0,0,0,0,0,0,0,0,0,0,0,0,0,0,0,0,0,0,0,0,0,0,0,0,0,0],"split_type":[0,0,0,0,0,0,0,0,0,0,0,0,0,0,0,0,0,0,0,0,0,0,0,0,0,0,0,0,0,0,0,0,0,0,0,0,0,0,0,0,0,0,0,0,0,0,0,0,0,0,0,0,0,0,0,0,0,0,0],"sum_hessian":[8.3623E4,5.0245E4,3.3378E4,4.4471E4,5.774E3,1.1539E4,2.1839E4,4.1525E4,2.946E3,2.96E3,2.814E3,8.57E3,2.969E3,1.5166E4,6.673E3,1.4997E4,2.6528E4,6.4E2,2.306E3,2.63E2,2.697E3,2.4E1,2.79E3,7.654E3,9.16E2,4.79E2,2.49E3,3.539E3,1.1627E4,5.841E3,8.32E2,1.1785E4,3.212E3,1.6618E4,9.91E3,4.95E2,1.45E2,1.173E3,1.133E3,3.15E2,2.382E3,2.034E3,7.56E2,1.735E3,5.919E3,8.06E2,1.1E2,8.4E1,3.95E2,1.18E3,1.31E3,1.15E3,2.389E3,1.563E3,1.0064E4,1.122E3,4.719E3,1.68E2,6.64E2],"tree_param":{"num_deleted":"0","num_feature":"9","num_nodes":"59","size_leaf_vector":"1"}},{"base_weights":[-3.1598768E0,1.1990142E3,-1.821542E3,1.4251042E3,-5.4748663E2,-2.2609824E2,-2.6706353E3,1.5878093E3,-8.516581E2,-1.7041926E3,7.0863544E2,5.940483E2,-3.4299065E3,-3.1944941E3,-1.465425E3,2.0063959E3,1.350139E3,2.1494207E3,-1.6970844E3,-5.4466533E3,-1.2568627E3,1.4540983E3,-2.3399985E2,9.064554E2,-3.0611587E3,3.1775012E2,-4.511688E3,-1.6767548E3,-3.823474E3,-9.673174E2,-4.868502E3,1.0821637E2,7.911462E1,5.0754986E1,9.545947E1,1.2310158E2,9.358773E1,7.666976E1,-1.0040107E2,5.853223E0,-3.1096292E2,-2.222534E1,-2.173402E2,-1.2731677E2,8.3154106E1,-6.526113E1,5.1014904E1,6.826885E1,-7.1084984E1,3.6010387E1,-2.4747095E2,-2.8303284E2,7.8781746E1,-1.2050237E2,-2.639274E2,-2.2473372E1,-1.07172134E2,-2.8805017E2,-1.656525E2,-1.0839269E2,-5.197541E0,-1.17605064E2,-2.7290024E2],"categories":[],"categories_nodes":[],"categories_segments":[],"categories_sizes":[],"default_left":[0,0,0,0,0,0,0,0,0,0,0,0,0,0,0,0,0,0,0,0,0,0,0,0,0,0,0,0,0,0,0,0,0,0,0,0,0,0,0,0,0,0,0,0,0,0,0,0,0,0,0,0,0,0,0,0,0,0,0,0,0,0,0],"id":2,"left_children":[1,3,5,7,9,11,13,15,17,19,21,23,25,27,29,31,33,35,37,39,41,43,45,47,49,51,53,55,57,59,61,-1,-1,-1,-1,-1,-1,-1,-1,-1,-1,-1,-1,-1,-1,-1,-1,-1,-1,-1,-1,-1,-1,-1,-1,-1,-1,-1,-1,-1,-1,-1,-1],"loss_changes":[1.825276E11,1.9849142E10,4.5018137E10,1.6487817E10,8.3731866E9,3.0334962E10,1.3688898E10,4.1296282E9,7.5365683E9,5.0154977E9,1.9418991E9,1.0499237E10,9.540839E9,1.4424687E10,1.1137172E10,1.0040115E9,4.9610547E9,5.207296E7,2.3304484E9,1.3762662E9,6.7277307E9,1.2942228E9,1.641907E9,9.050564E9,5.1730724E9,3.9795564E9,2.930176E9,2.5369375E9,1.0549953E10,5.9441193E9,1.2317553E9,0E0,0E0,0E0,0E0,0E0,0E0,0E0,0E0,0E0,0E0,0E0,0E0,0E0,0E0,0E0,0E0,0E0,0E0,0E0,0E0,0E0,0E0,0E0,0E0,0E0,0E0,0E0,0E0,0E0,0E0,0E0,0E0],"parents":[2147483647,0,0,1,1,2,2,3,3,4,4,5,5,6,6,7,7,8,8,9,9,10,10,11,11,12,12,13,13,14,14,15,15,16,16,17,17,18,18,19,19,20,20,21,21,22,22,23,23,24,24,25,25,26,26,27,27,28,28,29,29,30,30],"right_children":[2,4,6,8,10,12,14,16,18,20,22,24,26,28,30,32,34,36,38,40,42,44,46,48,50,52,54,56,58,60,62,-1,-1,-1,-1,-1,-1,-1,-1,-1,-1,-1,-1,-1,-1,-1,-1,-1,-1,-1,-1,-1,-1,-1,-1,-1,-1,-1,-1,-1,-1,-1,-1],"split_conditions":[2.0262234E-1,9.388369E-3,-7.326366E-2,2.309641E1,2.737352E2,4.593297E0,2.7944064E2,5.641302E-2,2.7021613E2,2.7649084E1,3.15961E0,2.9591702E2,1.7998767E2,2.6561326E-1,1.010722E0,4.5637485E-2,4.170543E1,2.6672986E2,1.4617041E-1,5.228626E-2,2.714667E2,1.7373148E0,2.8463205E2,3.231379E-1,1.3738198E1,4.170543E1,-3.4387348E0,2.9832065E-1,3.5572296E1,2.3045561E0,2.0177448E0,1.0821637E2,7.911462E1,5.0754986E1,9.545947E1,1.2310158E2,9.358773E1,7.666976E1,-1.0040107E2,5.853223E0,-3.1096292E2,-2.222534E1,-2.173402E2,-1.2731677E2,8.3154106E1,-6.526113E1,5.1014904E1,6.826885E1,-7.1084984E1,3.6010387E1,-2.4747095E2,-2.8303284E2,7.8781746E1,-1.2050237E2,-2.639274E2,-2.2473372E1,-1.07172134E2,-2.8805017E2,-1.656525E2,-1.0839269E2,-5.197541E0,-1.17605064E2,-2.7290024E2],"split_indices":[7,5,5,3,0,1,0,7,0,0,1,0,0,1,7,1,0,0,7,7,0,1,0,7,3,0,4,7,0,1,3,0,0,0,0,0,0,0,0,0,0,0,0,0,0,0,0,0,0,0,0,0,0,0,0,0,0,0,0,0,0,0,0],"split_type":[0,0,0,0,0,0,0,0,0,0,0,0,0,0,0,0,0,0,0,0,0,0,0,0,0,0,0,0,0,0,0,0,0,0,0,0,0,0,0,0,0,0,0,0,0,0,0,0,0,0,0,0,0,0,0,0,0,0,0,0,0,0,0],"sum_hessian":[8.3496E4,5.0265E4,3.3231E4,4.4504E4,5.761E3,1.1543E4,2.1688E4,4.1536E4,2.968E3,2.999E3,2.762E3,9.191E3,2.352E3,1.5116E4,6.572E3,1.504E4,2.6496E4,6.52E2,2.316E3,3.19E2,2.68E3,1.542E3,1.22E3,8.468E3,7.23E2,5.27E2,1.825E3,4.43E3,1.0686E4,5.734E3,8.38E2,1.0956E4,4.084E3,1.6569E4,9.927E3,3.03E2,3.49E2,2.03E2,2.113E3,3.9E1,2.8E2,2.123E3,5.57E2,7.6E1,1.466E3,6.58E2,5.62E2,7.074E3,1.394E3,2.41E2,4.82E2,9.1E1,4.36E2,4.89E2,1.336E3,1.221E3,3.209E3,2.226E3,8.46E3,2.398E3,3.336E3,1.6E2,6.78E2],"tree_param":{"num_deleted":"0","num_feature":"9","num_nodes":"63","size_leaf_vector":"1"}},{"base_weights":[3.493335E0,-1.6665667E3,1.1644995E3,-2.0661021E2,-2.4589114E3,1.370078E3,-5.2445593E2,-2.5417595E3,1.01161346E3,-1.9861202E3,-3.3428052E3,1.508728E3,-6.597125E2,-2.5477585E3,4.1686215E2,1.1863446E3,-3.3259932E3,-1.3786685E3,1.4809866E3,-2.759648E3,-4.9811716E2,-1.6655991E3,-4.437386E3,1.2717208E3,1.9297587E3,-3.5406208E3,1.8581571E3,-8.4274176E2,-5.438713E3,1.6230846E3,-1.9537528E3,-1.910302E2,9.687458E1,-1.3426067E2,-2.7597333E2,-1.5355492E2,-2.374728E1,9.9969246E1,1.8298605E1,-3.0643204E2,-1.1885292E2,-6.44811E1,6.3694733E1,-7.504447E1,-3.417242E2,-2.4283824E2,-1.24294815E2,4.7642773E1,9.1830246E1,1.0415767E2,7.615781E1,-2.0249088E2,7.6920815E1,1.8539215E1,1.12140625E2,-1.294481E2,1.0635396E2,1.13843956E2,-2.9902887E2,9.7197205E1,-3.368857E1,-1.5319725E2,1.3299149E1],"categories":[],"categories_nodes":[],"categories_segments":[],"categories_sizes":[],"default_left":[0,0,0,0,0,0,0,0,0,0,0,0,0,0,0,0,0,0,0,0,0,0,0,0,0,0,0,0,0,0,0,0,0,0,0,0,0,0,0,0,0,0,0,0,0,0,0,0,0,0,0,0,0,0,0,0,0,0,0,0,0,0,0],"id":3,"left_children":[1,3,5,7,9,11,13,15,17,19,21,23,25,27,29,31,33,35,37,39,41,43,45,47,49,51,53,55,57,59,61,-1,-1,-1,-1,-1,-1,-1,-1,-1,-1,-1,-1,-1,-1,-1,-1,-1,-1,-1,-1,-1,-1,-1,-1,-1,-1,-1,-1,-1,-1,-1,-1],"loss_changes":[1.6176079E11,3.9576707E10,1.7088442E10,3.4244635E10,9.261064E9,1.234849E10,1.0173379E10,1.2070078E10,8.877664E9,1.6631894E10,1.4178132E10,4.0957133E9,2.0360606E10,8.3552133E9,1.0428868E10,2.7077676E9,4.7780495E9,1.985346E9,3.8217226E9,1.2240683E10,6.9358797E9,2.5889618E9,3.8140068E9,4.731855E9,9.1928576E8,3.3916027E9,8.56213E8,5.544114E9,2.6433413E9,1.7825618E9,3.0319452E9,0E0,0E0,0E0,0E0,0E0,0E0,0E0,0E0,0E0,0E0,0E0,0E0,0E0,0E0,0E0,0E0,0E0,0E0,0E0,0E0,0E0,0E0,0E0,0E0,0E0,0E0,0E0,0E0,0E0,0E0,0E0,0E0],"parents":[2147483647,0,0,1,1,2,2,3,3,4,4,5,5,6,6,7,7,8,8,9,9,10,10,11,11,12,12,13,13,14,14,15,15,16,16,17,17,18,18,19,19,20,20,21,21,22,22,23,23,24,24,25,25,26,26,27,27,28,28,29,29,30,30],"right_children":[2,4,6,8,10,12,14,16,18,20,22,24,26,28,30,32,34,36,38,40,42,44,46,48,50,52,54,56,58,60,62,-1,-1,-1,-1,-1,-1,-1,-1,-1,-1,-1,-1,-1,-1,-1,-1,-1,-1,-1,-1,-1,-1,-1,-1,-1,-1,-1,-1,-1,-1,-1,-1],"split_conditions":[9.985029E-1,-7.326366E-2,9.388369E-3,1.5883682E3,1.7948635E3,2.309641E1,5.8019608E1,6.407944E1,9.9756414E-1,9.9800193E-1,3.3748704E-1,9.9957937E-1,1.1063315E3,1.3217608E1,1.5459443E3,3.4183927E0,1.0553083E1,8.9325E0,-4.54102E-1,-1.8247229E-3,7.903247E2,3.932858E-1,2.5324504E0,2.5202725E0,4.5637485E-2,6.723144E0,1.2086001E3,3.4183927E0,3.3987544E0,2.7851707E1,9.9865484E-1,-1.910302E2,9.687458E1,-1.3426067E2,-2.7597333E2,-1.5355492E2,-2.374728E1,9.9969246E1,1.8298605E1,-3.0643204E2,-1.1885292E2,-6.44811E1,6.3694733E1,-7.504447E1,-3.417242E2,-2.4283824E2,-1.24294815E2,4.7642773E1,9.1830246E1,1.0415767E2,7.615781E1,-2.0249088E2,7.6920815E1,1.8539215E1,1.12140625E2,-1.294481E2,1.0635396E2,1.13843956E2,-2.9902887E2,9.7197205E1,-3.368857E1,-1.5319725E2,1.3299149E1],"split_indices":[8,5,5,2,2,3,2,2,8,8,5,8,2,2,2,2,1,3,5,5,2,7,1,2,1,1,2,2,1,3,8,0,0,0,0,0,0,0,0,0,0,0,0,0,0,0,0,0,0,0,0,0,0,0,0,0,0,0,0,0,0,0,0],"split_type":[0,0,0,0,0,0,0,0,0,0,0,0,0,0,0,0,0,0,0,0,0,0,0,0,0,0,0,0,0,0,0,0,0,0,0,0,0,0,0,0,0,0,0,0,0,0,0,0,0,0,0,0,0,0,0,0,0,0,0,0,0,0,0],"sum_hessian":[8.3425E4,3.4212E4,4.9213E4,1.2036E4,2.2176E4,4.3873E4,5.34E3,4.126E3,7.91E3,1.445E4,7.726E3,4.1068E4,2.805E3,1.695E3,3.645E3,7.17E2,3.409E3,1.298E3,6.612E3,9.507E3,4.943E3,3.052E3,4.674E3,2.6279E4,1.4789E4,1.308E3,1.497E3,1.067E3,6.28E2,2.416E3,1.229E3,9.3E1,6.24E2,2.64E3,7.69E2,4.51E2,8.47E2,4.513E3,2.099E3,9.68E2,8.539E3,3.417E3,1.526E3,2.959E3,9.3E1,3.846E3,8.28E2,1.6799E4,9.48E3,1.0735E4,4.054E3,1.189E3,1.19E2,3.08E2,1.189E3,6.72E2,3.95E2,4.1E1,5.87E2,2.12E3,2.96E2,8.19E2,4.1E2],"tree_param":{"num_deleted":"0","num_feature":"9","num_nodes":"63","size_leaf_vector":"1"}},{"base_weights":[-6.2804446E0,1.0360427E3,-1.7139476E3,1.2692133E3,-5.922958E2,-2.3221425E2,-2.4509536E3,1.4294369E3,-8.973098E2,-2.441625E3,1.182936E2,-2.4527996E3,9.1569196E2,-2.0358591E3,-3.1964294E3,1.767885E3,1.1812893E3,-3.4166523E3,1.8479935E3,-7.6335944E2,-5.1170723E3,9.371426E2,-2.7473992E3,1.3008325E3,-2.9655024E3,1.3644406E3,-1.2571122E3,-2.6480564E3,-5.479196E2,-1.5414849E3,-4.402044E3,9.50692E1,6.687819E1,3.980952E1,8.554012E1,-1.9149348E2,6.5400635E1,8.96115E0,1.072174E2,4.887333E1,-2.0048688E2,1.2391424E2,-2.822952E2,1.0709584E2,1.9635504E1,-1.9309013E2,4.2769527E0,-2.9010492E2,9.2266754E1,-7.224954E1,-2.163171E2,9.5240074E1,2.1885954E1,-1.5964423E2,-1.1898956E1,-2.840147E2,-1.141651E2,-6.235044E1,7.139281E1,-6.79867E1,-3.1323633E2,-2.430977E2,-1.1754993E2],"categories":[],"categories_nodes":[],"categories_segments":[],"categories_sizes":[],"default_left":[0,0,0,0,0,0,0,0,0,0,0,0,0,0,0,0,0,0,0,0,0,0,0,0,0,0,0,0,0,0,0,0,0,0,0,0,0,0,0,0,0,0,0,0,0,0,0,0,0,0,0,0,0,0,0,0,0,0,0,0,0,0,0],"id":4,"left_children":[1,3,5,7,9,11,13,15,17,19,21,23,25,27,29,31,33,35,37,39,41,43,45,47,49,51,53,55,57,59,61,-1,-1,-1,-1,-1,-1,-1,-1,-1,-1,-1,-1,-1,-1,-1,-1,-1,-1,-1,-1,-1,-1,-1,-1,-1,-1,-1,-1,-1,-1,-1,-1],"loss_changes":[1.4886537E11,1.9719459E10,3.4617303E10,1.5771312E10,8.5499126E9,2.6846013E10,6.5444086E9,3.5506504E9,2.1647602E10,8.1052334E9,1.10338E10,6.910882E9,6.7714386E9,1.2387865E10,1.509707E10,1.0253599E9,4.9761997E9,3.1911854E9,7.4044774E8,6.282602E9,2.8095898E9,2.3978516E9,3.2994324E9,1.6814943E9,6.5281966E9,2.881064E9,2.3449108E9,1.0644656E10,5.4797916E9,2.731665E9,4.119257E9,0E0,0E0,0E0,0E0,0E0,0E0,0E0,0E0,0E0,0E0,0E0,0E0,0E0,0E0,0E0,0E0,0E0,0E0,0E0,0E0,0E0,0E0,0E0,0E0,0E0,0E0,0E0,0E0,0E0,0E0,0E0,0E0],"parents":[2147483647,0,0,1,1,2,2,3,3,4,4,5,5,6,6,7,7,8,8,9,9,10,10,11,11,12,12,13,13,14,14,15,15,16,16,17,17,18,18,19,19,20,20,21,21,22,22,23,23,24,24,25,25,26,26,27,27,28,28,29,29,30,30],"right_children":[2,4,6,8,10,12,14,16,18,20,22,24,26,28,30,32,34,36,38,40,42,44,46,48,50,52,54,56,58,60,62,-1,-1,-1,-1,-1,-1,-1,-1,-1,-1,-1,-1,-1,-1,-1,-1,-1,-1,-1,-1,-1,-1,-1,-1,-1,-1,-1,-1,-1,-1,-1,-1],"split_conditions":[2.0961203E-1,9.388369E-3,-1.077123E-1,2.309641E1,5.8019608E1,1.692798E3,1.7948635E3,6.270379E-2,1.141428E3,1.7128813E1,1.7112266E3,2.1325504E1,3.231379E-1,9.9800193E-1,3.3748704E-1,5.03197E-2,1.9046724E0,6.723144E0,1.2086001E3,1.0000002E0,3.2620096E0,1.8837968E2,1.1409605E0,2.954154E1,5.2417774E0,-5.1468074E-1,8.9325E0,-1.8247229E-3,8.254459E2,3.932858E-1,2.5324504E0,9.50692E1,6.687819E1,3.980952E1,8.554012E1,-1.9149348E2,6.5400635E1,8.96115E0,1.072174E2,4.887333E1,-2.0048688E2,1.2391424E2,-2.822952E2,1.0709584E2,1.9635504E1,-1.9309013E2,4.2769527E0,-2.9010492E2,9.2266754E1,-7.224954E1,-2.163171E2,9.5240074E1,2.1885954E1,-1.5964423E2,-1.1898956E1,-2.840147E2,-1.141651E2,-6.235044E1,7.139281E1,-6.79867E1,-3.1323633E2,-2.430977E2,-1.1754993E2],"split_indices":[7,5,5,3,2,2,2,7,2,2,2,2,7,8,5,1,2,1,2,6,1,2,5,1,1,5,3,5,2,7,1,0,0,0,0,0,0,0,0,0,0,0,0,0,0,0,0,0,0,0,0,0,0,0,0,0,0,0,0,0,0,0,0],"split_type":[0,0,0,0,0,0,0,0,0,0,0,0,0,0,0,0,0,0,0,0,0,0,0,0,0,0,0,0,0,0,0,0,0,0,0,0,0,0,0,0,0,0,0,0,0,0,0,0,0,0,0,0,0,0,0,0,0,0,0,0,0,0,0],"sum_hessian":[8.3633E4,5.1934E4,3.1699E4,4.5429E4,6.505E3,1.053E4,2.1169E4,4.2301E4,3.128E3,1.805E3,4.7E3,3.588E3,6.942E3,1.36E4,7.569E3,1.7892E4,2.4409E4,1.631E3,1.497E3,1.11E3,6.95E2,3.656E3,1.044E3,4.31E2,3.157E3,5.754E3,1.188E3,9.635E3,3.965E3,3.191E3,4.378E3,1.3653E4,4.239E3,1.4133E4,1.0276E4,1.5E3,1.31E2,2.26E2,1.271E3,7.23E2,3.87E2,4.5E1,6.5E2,1.137E3,2.519E3,7.49E2,2.95E2,3E1,4.01E2,1.492E3,1.665E3,3.634E3,2.12E3,4.09E2,7.79E2,1.033E3,8.602E3,2.929E3,1.036E3,3.074E3,1.17E2,3.575E3,8.03E2],"tree_param":{"num_deleted":"0","num_feature":"9","num_nodes":"63","size_leaf_vector":"1"}},{"base_weights":[-2.883656E0,-1.6606926E3,9.637312E2,-2.7176465E3,-9.406009E2,2.1402802E2,1.3390891E3,-2.9477449E3,1.289111E2,-1.8858024E3,-6.445721E2,5.4642944E2,-1.1310953E3,9.693308E2,1.6819219E3,-1.4403491E3,-3.3546443E3,1.5370951E3,-3.6407297E2,-6.401869E2,-3.2788606E3,-1.2020012E3,1.009313E3,1.7025275E2,1.252753E3,-3.1063953E3,8.256729E2,2.171975E3,7.7034406E2,1.8032678E3,1.3212452E3,2.949129E0,-8.65592E1,-2.509021E2,-1.3576115E2,9.5247574E1,-3.1947287E2,-5.4706722E1,1.307687E2,-1.1327697E2,-2.6503622E2,-7.407073E1,-4.1146235E0,7.802131E1,-3.0832264E1,-1.4976756E1,3.881055E1,-1.9037611E2,6.94656E1,-2.1389139E2,1.5853709E1,1.8600061E1,9.8641106E1,3.6789387E1,1.1327187E2,1.989364E1,8.249149E1,8.2244316E1,9.859713E1,5.5102303E1,1.1443068E2],"categories":[],"categories_nodes":[],"categories_segments":[],"categories_sizes":[],"default_left":[0,0,0,0,0,0,0,0,0,0,0,0,0,0,0,0,0,0,0,0,0,0,0,0,0,0,0,0,0,0,0,0,0,0,0,0,0,0,0,0,0,0,0,0,0,0,0,0,0,0,0,0,0,0,0,0,0,0,0,0,0],"id":5,"left_children":[1,3,5,7,9,11,13,15,17,19,21,23,25,27,29,31,33,35,-1,37,39,41,43,45,47,49,51,53,55,57,59,-1,-1,-1,-1,-1,-1,-1,-1,-1,-1,-1,-1,-1,-1,-1,-1,-1,-1,-1,-1,-1,-1,-1,-1,-1,-1,-1,-1,-1,-1],"loss_changes":[1.3366943E11,2.3380845E10,1.4827614E10,8.154333E9,5.1122534E9,7.861452E9,4.4493496E9,7.0598246E9,9.736764E9,7.559969E9,1.2832551E10,3.745661E9,1.3468935E10,4.041475E9,7.94964E8,1.06844365E9,9.632268E9,2.298184E9,0E0,3.4048812E9,4.202367E9,3.2567665E9,3.1453315E9,2.6192133E9,3.3906253E9,6.9553254E9,9.1053734E8,3.2021504E8,4.7486444E9,3.608494E8,9.7077094E8,0E0,0E0,0E0,0E0,0E0,0E0,0E0,0E0,0E0,0E0,0E0,0E0,0E0,0E0,0E0,0E0,0E0,0E0,0E0,0E0,0E0,0E0,0E0,0E0,0E0,0E0,0E0,0E0,0E0,0E0],"parents":[2147483647,0,0,1,1,2,2,3,3,4,4,5,5,6,6,7,7,8,8,9,9,10,10,11,11,12,12,13,13,14,14,15,15,16,16,17,17,19,19,20,20,21,21,22,22,23,23,24,24,25,25,26,26,27,27,28,28,29,29,30,30],"right_children":[2,4,6,8,10,12,14,16,18,20,22,24,26,28,30,32,34,36,-1,38,40,42,44,46,48,50,52,54,56,58,60,-1,-1,-1,-1,-1,-1,-1,-1,-1,-1,-1,-1,-1,-1,-1,-1,-1,-1,-1,-1,-1,-1,-1,-1,-1,-1,-1,-1,-1,-1],"split_conditions":[9.9838483E-1,9.975189E-1,9.988852E-1,3.982637E1,7.500586E2,2.3459118E1,9.9952716E-1,1.142974E0,3.2255753E1,4.4799333E0,2.798005E2,2.7944064E2,1.0750406E3,7.751516E-3,5.03197E-2,9.8398954E-1,3.5572296E1,2.820494E2,-3.6407297E2,9.72755E1,3.110082E2,1.6760698E1,9.9824655E-1,9.987379E-1,3.2255753E1,3.8511577E0,9.987703E-1,9.991774E-1,4.170543E1,9.9964553E-1,9.9974644E-1,2.949129E0,-8.65592E1,-2.509021E2,-1.3576115E2,9.5247574E1,-3.1947287E2,-5.4706722E1,1.307687E2,-1.1327697E2,-2.6503622E2,-7.407073E1,-4.1146235E0,7.802131E1,-3.0832264E1,-1.4976756E1,3.881055E1,-1.9037611E2,6.94656E1,-2.1389139E2,1.5853709E1,1.8600061E1,9.8641106E1,3.6789387E1,1.1327187E2,1.989364E1,8.249149E1,8.2244316E1,9.859713E1,5.5102303E1,1.1443068E2],"split_indices":[8,8,8,1,2,3,8,0,2,3,0,0,2,1,1,8,0,0,0,2,0,3,8,8,2,1,8,8,0,8,8,0,0,0,0,0,0,0,0,0,0,0,0,0,0,0,0,0,0,0,0,0,0,0,0,0,0,0,0,0,0],"split_type":[0,0,0,0,0,0,0,0,0,0,0,0,0,0,0,0,0,0,0,0,0,0,0,0,0,0,0,0,0,0,0,0,0,0,0,0,0,0,0,0,0,0,0,0,0,0,0,0,0,0,0,0,0,0,0,0,0,0,0,0,0],"sum_hessian":[8.3413E4,3.0722E4,5.2691E4,1.2448E4,1.8274E4,1.758E4,3.5111E4,1.1517E4,9.31E2,4.357E3,1.3917E4,1.4097E4,3.483E3,1.6894E4,1.8217E4,2.449E3,9.068E3,7.83E2,1.48E2,2.301E3,2.056E3,1.0409E4,3.508E3,9.199E3,4.898E3,1.733E3,1.75E3,2.397E3,1.4497E4,1.3628E4,4.589E3,3.98E2,2.051E3,2.516E3,6.552E3,7.49E2,3.4E1,2.02E3,2.81E2,1.371E3,6.85E2,8.33E3,2.079E3,2.62E3,8.88E2,5.182E3,4.017E3,1.28E2,4.77E3,1.291E3,4.42E2,1.255E3,4.95E2,1.47E2,2.25E3,1.0185E4,4.312E3,7.034E3,6.594E3,3.743E3,8.46E2],"tree_param":{"num_deleted":"0","num_feature":"9","num_nodes":"61","size_leaf_vector":"1"}},{"base_weights":[1.4024248E1,9.150947E2,-1.536884E3,1.5770707E3,5.4772174E2,-8.67832E2,-2.5695952E3,1.7048485E3,1.2256478E3,7.148174E2,-7.2795715E2,-1.8201653E3,-5.6771765E2,-2.7941926E3,3.6729492E1,1.1275126E3,1.7511621E3,2.1726477E3,1.0184528E3,1.9250741E3,5.990342E2,-2.8421106E3,9.3239685E2,-7.109873E2,-3.136353E3,-1.0849175E3,9.3813855E2,-2.9086777E3,1.80617E3,1.4985342E3,-3.4689426E2,8.622181E1,-5.755434E1,9.234324E1,8.052376E1,1.10800476E2,9.64654E1,4.159899E1,1.1272701E2,1.037818E2,-1.6430584E0,1.0019528E1,4.418158E1,-1.7841948E2,8.3935616E1,8.260931E1,1.7530218E1,-5.59433E1,1.2307578E2,-1.09617065E2,-2.5388911E2,-7.9389596E0,-7.228362E1,-2.9975681E1,7.11936E1,-6.7892265E1,-1.6501334E2,1.6125932E2,-1.3143733E2,9.114512E1,-3.0085867E2],"categories":[],"categories_nodes":[],"categories_segments":[],"categories_sizes":[],"default_left":[0,0,0,0,0,0,0,0,0,0,0,0,0,0,0,0,0,0,0,0,0,0,0,0,0,0,0,0,0,0,0,0,0,0,0,0,0,0,0,0,0,0,0,0,0,0,0,0,0,0,0,0,0,0,0,0,0,0,0,0,0],"id":6,"left_children":[1,3,5,7,9,11,13,15,17,19,21,23,25,27,29,31,33,35,37,39,41,43,45,47,49,51,53,55,57,59,-1,-1,-1,-1,-1,-1,-1,-1,-1,-1,-1,-1,-1,-1,-1,-1,-1,-1,-1,-1,-1,-1,-1,-1,-1,-1,-1,-1,-1,-1,-1],"loss_changes":[1.1655944E11,1.2828979E10,2.1175697E10,8.433623E8,7.2328407E9,5.315582E9,7.0538527E9,3.6715315E8,9.835653E8,4.20267E9,1.3797906E10,6.504484E9,1.1018326E10,5.8481787E9,9.767512E9,1.4002189E9,1.690706E8,5.231616E6,9.486935E8,7.721247E8,3.106391E9,5.682949E9,9.215479E8,3.134226E9,3.7239767E9,3.5179387E9,2.702352E9,6.5694106E9,1.7076472E9,1.9417508E9,0E0,0E0,0E0,0E0,0E0,0E0,0E0,0E0,0E0,0E0,0E0,0E0,0E0,0E0,0E0,0E0,0E0,0E0,0E0,0E0,0E0,0E0,0E0,0E0,0E0,0E0,0E0,0E0,0E0,0E0,0E0],"parents":[2147483647,0,0,1,1,2,2,3,3,4,4,5,5,6,6,7,7,8,8,9,9,10,10,11,11,12,12,13,13,14,14,15,15,16,16,17,17,18,18,19,19,20,20,21,21,22,22,23,23,24,24,25,25,26,26,27,27,28,28,29,29],"right_children":[2,4,6,8,10,12,14,16,18,20,22,24,26,28,30,32,34,36,38,40,42,44,46,48,50,52,54,56,58,60,-1,-1,-1,-1,-1,-1,-1,-1,-1,-1,-1,-1,-1,-1,-1,-1,-1,-1,-1,-1,-1,-1,-1,-1,-1,-1,-1,-1,-1,-1,-1],"split_conditions":[2.1411729E-1,6.4382255E-2,3.334041E-1,4.7000837E-2,2.3868217E1,7.500586E2,3.982637E1,7.91558E-1,3.3621173E-2,8.471271E-3,1.0750406E3,4.6671724E0,2.798005E2,3.3367273E2,3.2255753E1,2.893635E-3,4.96222E-2,3.320774E-2,4.170543E1,1.0908145E-1,4.170543E1,7.258915E0,1.6296038E-1,9.72755E1,3.110082E2,2.5559763E2,2.3252253E-1,1.087298E0,7.3559957E0,2.820494E2,-3.4689426E2,8.622181E1,-5.755434E1,9.234324E1,8.052376E1,1.10800476E2,9.64654E1,4.159899E1,1.1272701E2,1.037818E2,-1.6430584E0,1.0019528E1,4.418158E1,-1.7841948E2,8.3935616E1,8.260931E1,1.7530218E1,-5.59433E1,1.2307578E2,-1.09617065E2,-2.5388911E2,-7.9389596E0,-7.228362E1,-2.9975681E1,7.11936E1,-6.7892265E1,-1.6501334E2,1.6125932E2,-1.3143733E2,9.114512E1,-3.0085867E2],"split_indices":[7,7,7,1,3,2,1,0,7,1,2,3,0,0,2,3,7,7,0,7,0,1,7,2,0,0,7,0,3,0,0,0,0,0,0,0,0,0,0,0,0,0,0,0,0,0,0,0,0,0,0,0,0,0,0,0,0,0,0,0,0],"split_type":[0,0,0,0,0,0,0,0,0,0,0,0,0,0,0,0,0,0,0,0,0,0,0,0,0,0,0,0,0,0,0,0,0,0,0,0,0,0,0,0,0,0,0,0,0,0,0,0,0,0,0,0,0,0,0,0,0,0,0,0,0],"sum_hessian":[8.3405E4,5.2755E4,3.065E4,1.8827E4,3.3928E4,1.8601E4,1.2049E4,1.3804E4,5.023E3,2.9999E4,3.929E3,4.456E3,1.4145E4,1.1093E4,9.56E2,1.027E3,1.2777E4,9E2,4.123E3,2.618E3,2.7381E4,1.728E3,2.201E3,2.419E3,2.037E3,1.0529E4,3.616E3,1.0824E4,2.69E2,7.91E2,1.65E2,8.14E2,2.13E2,7.597E3,5.18E3,7.57E2,1.43E2,3.584E3,5.39E2,2.431E3,1.87E2,1.1406E4,1.5975E4,1.489E3,2.39E2,9.83E2,1.218E3,2.144E3,2.75E2,1.372E3,6.65E2,2.952E3,7.577E3,8.68E2,2.748E3,2.183E3,8.641E3,2.04E2,6.5E1,7.59E2,3.2E1],"tree_param":{"num_deleted":"0","num_feature":"9","num_nodes":"61","size_leaf_vector":"1"}},{"base_weights":[1.294393E0,-1.3241147E3,9.7998505E2,-3.916955E1,-2.0634458E3,1.1317317E3,-4.078897E2,-1.9036155E3,1.0003982E3,-2.558319E3,-9.6389655E2,1.2421973E3,-4.9604956E2,-2.7203074E3,6.7849194E2,7.230372E2,-2.618275E3,-2.6276443E2,1.6730941E3,-1.0765693E3,-3.1567622E3,-5.739751E2,-3.7065808E3,1.5211516E3,1.018929E3,-2.8496914E3,1.8172819E3,-1.02135034E3,-5.250297E3,1.4758159E3,-1.3590806E3,-2.4856961E2,8.512966E1,-2.3449722E2,-9.7340675E1,2.5518744E0,-1.2710044E2,1.4196779E1,9.975904E1,1.0993234E-1,-8.1546844E1,-2.2991948E2,-1.3891972E2,-6.921504E1,2.5339043E1,-1.5287306E2,-3.3289758E2,8.764386E1,6.965754E1,3.5005184E1,7.6359604E1,-1.9821188E2,-8.404125E1,4.406309E1,9.869936E1,-2.261638E2,1.1366204E2,-2.9827103E2,3.6198387E0,8.949706E1,-7.0132875E0,1.13157166E2,-1.6735649E2],"categories":[],"categories_nodes":[],"categories_segments":[],"categories_sizes":[],"default_left":[0,0,0,0,0,0,0,0,0,0,0,0,0,0,0,0,0,0,0,0,0,0,0,0,0,0,0,0,0,0,0,0,0,0,0,0,0,0,0,0,0,0,0,0,0,0,0,0,0,0,0,0,0,0,0,0,0,0,0,0,0,0,0],"id":7,"left_children":[1,3,5,7,9,11,13,15,17,19,21,23,25,27,29,31,33,35,37,39,41,43,45,47,49,51,53,55,57,59,61,-1,-1,-1,-1,-1,-1,-1,-1,-1,-1,-1,-1,-1,-1,-1,-1,-1,-1,-1,-1,-1,-1,-1,-1,-1,-1,-1,-1,-1,-1,-1,-1],"loss_changes":[1.0833927E11,3.3702117E10,1.0118783E10,2.5117334E10,1.2250964E10,7.7881713E9,1.1899473E10,8.710046E9,7.0701466E9,1.3766844E10,7.474267E9,2.5244058E9,1.4994586E10,6.5023293E9,5.238109E9,5.5474314E9,5.064012E9,2.0685784E9,2.4285276E9,2.6726175E9,6.020612E9,5.362131E9,1.6463821E9,5.322875E8,3.6498534E9,1.7715978E9,2.0199782E8,1.0474715E10,2.314714E9,1.1764803E9,6.5390275E9,0E0,0E0,0E0,0E0,0E0,0E0,0E0,0E0,0E0,0E0,0E0,0E0,0E0,0E0,0E0,0E0,0E0,0E0,0E0,0E0,0E0,0E0,0E0,0E0,0E0,0E0,0E0,0E0,0E0,0E0,0E0,0E0],"parents":[2147483647,0,0,1,1,2,2,3,3,4,4,5,5,6,6,7,7,8,8,9,9,10,10,11,11,12,12,13,13,14,14,15,15,16,16,17,17,18,18,19,19,20,20,21,21,22,22,23,23,24,24,25,25,26,26,27,27,28,28,29,29,30,30],"right_children":[2,4,6,8,10,12,14,16,18,20,22,24,26,28,30,32,34,36,38,40,42,44,46,48,50,52,54,56,58,60,62,-1,-1,-1,-1,-1,-1,-1,-1,-1,-1,-1,-1,-1,-1,-1,-1,-1,-1,-1,-1,-1,-1,-1,-1,-1,-1,-1,-1,-1,-1,-1,-1],"split_conditions":[9.985382E-1,-5.4716464E-2,1.5180861E-2,1.5883682E3,2.7944064E2,2.309641E1,5.8019608E1,6.736004E1,9.9782187E-1,1.388326E0,1.010722E0,6.270379E-2,1.141428E3,1.9456825E2,1.5459443E3,4.170543E1,2.798005E2,3.932858E-1,7.948494E0,3.4690636E-1,6.3851307E1,7.903247E2,1.3865602E3,2.7887495E-3,4.170543E1,2.7851707E1,1.2086001E3,3.5572296E1,2.8882E2,2.50364E1,2.714667E2,-2.4856961E2,8.512966E1,-2.3449722E2,-9.7340675E1,2.5518744E0,-1.2710044E2,1.4196779E1,9.975904E1,1.0993234E-1,-8.1546844E1,-2.2991948E2,-1.3891972E2,-6.921504E1,2.5339043E1,-1.5287306E2,-3.3289758E2,8.764386E1,6.965754E1,3.5005184E1,7.6359604E1,-1.9821188E2,-8.404125E1,4.406309E1,9.869936E1,-2.261638E2,1.1366204E2,-2.9827103E2,3.6198387E0,8.949706E1,-7.0132875E0,1.13157166E2,-1.6735649E2],"split_indices":[8,5,5,2,0,3,2,2,8,0,7,7,2,0,2,0,0,7,3,7,0,2,2,3,0,3,2,0,0,3,0,0,0,0,0,0,0,0,0,0,0,0,0,0,0,0,0,0,0,0,0,0,0,0,0,0,0,0,0,0,0,0,0],"split_type":[0,0,0,0,0,0,0,0,0,0,0,0,0,0,0,0,0,0,0,0,0,0,0,0,0,0,0,0,0,0,0,0,0,0,0,0,0,0,0,0,0,0,0,0,0,0,0,0,0,0,0,0,0,0,0,0,0,0,0,0,0,0,0],"sum_hessian":[8.3518E4,3.5475E4,4.8043E4,1.2957E4,2.2518E4,4.3308E4,4.735E3,4.638E3,8.319E3,1.5528E4,6.99E3,4.0556E4,2.752E3,1.513E3,3.222E3,9.92E2,3.646E3,2.891E3,5.428E3,4.468E3,1.106E4,6.121E3,8.69E2,1.8027E4,2.2529E4,1.364E3,1.388E3,9.06E2,6.07E2,2.316E3,9.06E2,1.45E2,8.47E2,8.91E2,2.755E3,2.542E3,3.49E2,1.022E3,4.406E3,1.517E3,2.951E3,2.297E3,8.763E3,3.498E3,2.623E3,7.14E2,1.55E2,6.41E3,1.1617E4,1.3846E4,8.683E3,6.97E2,6.67E2,2E2,1.188E3,4.39E2,4.67E2,5.35E2,7.2E1,1.939E3,3.77E2,3.21E2,5.85E2],"tree_param":{"num_deleted":"0","num_feature":"9","num_nodes":"63","size_leaf_vector":"1"}},{"base_weights":[7.645293E0,-1.2592673E3,9.4865283E2,-1.5650869E1,-1.9485326E3,1.0887856E3,-2.8638806E2,-1.8636683E3,9.5918805E2,-2.4155518E3,-9.001055E2,-3.1517853E2,1.1814723E3,-2.2264307E3,7.095171E2,1.2115634E3,-2.5816492E3,1.5353405E3,-2.9269028E2,-1.1271671E3,-3.0198098E3,-1.4219006E3,9.429662E2,-2.6927585E3,1.7222582E3,9.9629877E2,1.4823899E3,1.896639E3,-3.1410303E3,1.4974896E3,-8.6125287E2,-2.2025267E2,8.9921745E1,-2.4784566E2,-9.698519E1,8.658534E1,-9.426021E0,4.4825024E1,-5.6096832E1,1.3895147E-1,-7.908235E1,-2.5881552E2,-1.2977893E2,-5.1746155E1,-1.7569878E2,-1.125013E2,7.05571E1,3.8236202E1,-1.6480383E2,5.830237E1,9.5372E1,4.4220615E1,9.995036E1,7.886943E1,5.6507904E1,1.082694E2,1.5683266E1,-2.1201082E2,-7.3613696E0,4.3946697E1,1.1395143E2,1.1277413E2,-1.1720176E2],"categories":[],"categories_nodes":[],"categories_segments":[],"categories_sizes":[],"default_left":[0,0,0,0,0,0,0,0,0,0,0,0,0,0,0,0,0,0,0,0,0,0,0,0,0,0,0,0,0,0,0,0,0,0,0,0,0,0,0,0,0,0,0,0,0,0,0,0,0,0,0,0,0,0,0,0,0,0,0,0,0,0,0],"id":8,"left_children":[1,3,5,7,9,11,13,15,17,19,21,23,25,27,29,31,33,35,37,39,41,43,45,47,49,51,53,55,57,59,61,-1,-1,-1,-1,-1,-1,-1,-1,-1,-1,-1,-1,-1,-1,-1,-1,-1,-1,-1,-1,-1,-1,-1,-1,-1,-1,-1,-1,-1,-1,-1,-1],"loss_changes":[9.974685E10,3.0566212E10,8.309215E9,2.291171E10,1.1231527E10,5.611135E9,9.455337E9,9.700476E9,6.0057656E9,1.2353217E10,6.802524E9,1.2943411E10,2.2523126E9,6.2657464E9,4.0040876E9,2.7503875E9,5.420161E9,1.9305021E9,2.5896023E9,2.6031268E9,9.870655E9,4.458801E9,2.3366853E9,2.574512E9,1.4599296E8,2.807683E9,5.1372646E8,1.2779827E8,4.471501E9,1.039295E9,5.001064E9,0E0,0E0,0E0,0E0,0E0,0E0,0E0,0E0,0E0,0E0,0E0,0E0,0E0,0E0,0E0,0E0,0E0,0E0,0E0,0E0,0E0,0E0,0E0,0E0,0E0,0E0,0E0,0E0,0E0,0E0,0E0,0E0],"parents":[2147483647,0,0,1,1,2,2,3,3,4,4,5,5,6,6,7,7,8,8,9,9,10,10,11,11,12,12,13,13,14,14,15,15,16,16,17,17,18,18,19,19,20,20,21,21,22,22,23,23,24,24,25,25,26,26,27,27,28,28,29,29,30,30],"right_children":[2,4,6,8,10,12,14,16,18,20,22,24,26,28,30,32,34,36,38,40,42,44,46,48,50,52,54,56,58,60,62,-1,-1,-1,-1,-1,-1,-1,-1,-1,-1,-1,-1,-1,-1,-1,-1,-1,-1,-1,-1,-1,-1,-1,-1,-1,-1,-1,-1,-1,-1,-1,-1],"split_conditions":[9.985382E-1,-7.326366E-2,9.388369E-3,1.5201234E3,2.7944064E2,-1.4990841E0,5.8019608E1,6.407944E1,2.941364E-1,3.4698355E-1,9.983211E-1,1.141428E3,9.995701E-1,5.228626E-2,1.4738792E3,4.170543E1,2.7906265E2,-2.2891249E-1,-5.7139313E-1,2.941364E-1,2.7649084E1,1.010722E0,1.7971562E0,5.7527295E2,1.2614216E3,1.3865602E3,5.6845672E-2,4.851971E-2,1.59779625E1,9.139743E2,2.714667E2,-2.2025267E2,8.9921745E1,-2.4784566E2,-9.698519E1,8.658534E1,-9.426021E0,4.4825024E1,-5.6096832E1,1.3895147E-1,-7.908235E1,-2.5881552E2,-1.2977893E2,-5.1746155E1,-1.7569878E2,-1.125013E2,7.05571E1,3.8236202E1,-1.6480383E2,5.830237E1,9.5372E1,4.4220615E1,9.995036E1,7.886943E1,5.6507904E1,1.082694E2,1.5683266E1,-2.1201082E2,-7.3613696E0,4.3946697E1,1.1395143E2,1.1277413E2,-1.1720176E2],"split_indices":[8,5,5,2,0,5,2,2,7,1,8,2,8,7,2,0,0,5,5,7,0,7,1,2,2,2,1,7,1,2,0,0,0,0,0,0,0,0,0,0,0,0,0,0,0,0,0,0,0,0,0,0,0,0,0,0,0,0,0,0,0,0,0],"split_type":[0,0,0,0,0,0,0,0,0,0,0,0,0,0,0,0,0,0,0,0,0,0,0,0,0,0,0,0,0,0,0,0,0,0,0,0,0,0,0,0,0,0,0,0,0,0,0,0,0,0,0,0,0,0,0,0,0,0,0,0,0,0,0],"sum_hessian":[8.3666E4,3.5658E4,4.8008E4,1.2716E4,2.2942E4,4.3116E4,4.892E3,4.391E3,8.325E3,1.5871E4,7.071E3,2.67E3,4.0446E4,1.659E3,3.233E3,8.31E2,3.56E3,5.701E3,2.624E3,5.068E3,1.0803E4,5.511E3,1.56E3,1.232E3,1.438E3,2.5041E4,1.5405E4,3.01E2,1.358E3,2.153E3,1.08E3,7.8E1,7.53E2,7.56E2,2.804E3,5.118E3,5.83E2,1.078E3,1.546E3,1.454E3,3.614E3,1.774E3,9.029E3,4.652E3,8.59E2,1.99E2,1.361E3,1.83E2,1.049E3,3.61E2,1.077E3,2.2529E4,2.512E3,1.213E4,3.275E3,2.57E2,4.4E1,9.93E2,3.65E2,1.203E3,9.5E2,3.48E2,7.32E2],"tree_param":{"num_deleted":"0","num_feature":"9","num_nodes":"63","size_leaf_vector":"1"}},{"base_weights":[-1.1614642E1,8.5350446E2,-1.2586215E3,1.0197163E3,-5.3897003E2,-9.205781E1,-1.8904818E3,1.1203236E3,-4.478815E2,-2.4133142E3,2.5750574E2,-1.9911941E3,8.548003E2,-2.3390554E3,-8.7323865E2,1.4296843E3,9.583863E2,-2.6921294E3,1.4524039E3,-8.610801E2,-4.7502085E3,1.2477136E3,-1.6764155E3,8.719173E2,-2.5881191E3,1.7867152E3,1.4663547E2,-1.2072101E3,-2.8783374E3,-4.5810516E2,-3.2231775E3,7.735424E1,5.6510536E1,3.5716717E1,7.040273E1,-1.9250017E2,-5.099523E1,1.2112072E1,8.877571E1,-1.9995128E2,1.0458872E2,9.561168E1,-2.6102087E2,7.5950424E1,-3.3668728E1,-2.3580467E1,-1.6626427E2,-2.2864026E2,8.21581E1,-9.923497E1,-2.2951814E2,9.126313E1,-2.8482565E2,5.1602203E1,-3.7646156E1,-9.421224E0,-8.263268E1,-2.4829515E2,-1.231542E2,-7.484109E1,2.1857655E1,-1.3414336E2,-3.076984E2],"categories":[],"categories_nodes":[],"categories_segments":[],"categories_sizes":[],"default_left":[0,0,0,0,0,0,0,0,0,0,0,0,0,0,0,0,0,0,0,0,0,0,0,0,0,0,0,0,0,0,0,0,0,0,0,0,0,0,0,0,0,0,0,0,0,0,0,0,0,0,0,0,0,0,0,0,0,0,0,0,0,0,0],"id":9,"left_children":[1,3,5,7,9,11,13,15,17,19,21,23,25,27,29,31,33,35,37,39,41,43,45,47,49,51,53,55,57,59,61,-1,-1,-1,-1,-1,-1,-1,-1,-1,-1,-1,-1,-1,-1,-1,-1,-1,-1,-1,-1,-1,-1,-1,-1,-1,-1,-1,-1,-1,-1,-1,-1],"loss_changes":[9.0137756E10,1.1417768E10,2.5225777E10,6.507483E9,7.85461E9,2.1625207E10,1.0127557E10,2.0647854E9,1.2064515E10,5.6873114E9,7.0741284E9,6.8402176E9,5.295832E9,9.399484E9,6.627305E9,4.9641062E8,2.9702697E9,2.5073572E9,5.986061E8,8.755372E9,1.9710792E9,1.2742684E9,2.4836285E9,2.9091704E9,3.991216E9,1.0099077E9,3.6335084E9,2.2564936E9,9.031811E9,5.3718697E9,1.5986985E9,0E0,0E0,0E0,0E0,0E0,0E0,0E0,0E0,0E0,0E0,0E0,0E0,0E0,0E0,0E0,0E0,0E0,0E0,0E0,0E0,0E0,0E0,0E0,0E0,0E0,0E0,0E0,0E0,0E0,0E0,0E0,0E0],"parents":[2147483647,0,0,1,1,2,2,3,3,4,4,5,5,6,6,7,7,8,8,9,9,10,10,11,11,12,12,13,13,14,14,15,15,16,16,17,17,18,18,19,19,20,20,21,21,22,22,23,23,24,24,25,25,26,26,27,27,28,28,29,29,30,30],"right_children":[2,4,6,8,10,12,14,16,18,20,22,24,26,28,30,32,34,36,38,40,42,44,46,48,50,52,54,56,58,60,62,-1,-1,-1,-1,-1,-1,-1,-1,-1,-1,-1,-1,-1,-1,-1,-1,-1,-1,-1,-1,-1,-1,-1,-1,-1,-1,-1,-1,-1,-1,-1,-1],"split_conditions":[1.9868313E-1,1.5180861E-2,-7.326366E-2,2.309641E1,5.8019608E1,1.5201234E3,2.7944064E2,5.4577533E-2,1.1063315E3,1.9456825E2,1.5459443E3,6.407944E1,2.5830373E-1,3.4698355E-1,7.6685804E-1,4.5637485E-2,4.170543E1,2.7875592E2,1.2086001E3,3.5572296E1,3.3987544E0,2.7851707E1,2.1788304E0,4.170543E1,1.0553083E1,3.6080376E1,-5.4287475E-1,3.1688896E-1,2.7649084E1,2.4135098E0,1.3865602E3,7.735424E1,5.6510536E1,3.5716717E1,7.040273E1,-1.9250017E2,-5.099523E1,1.2112072E1,8.877571E1,-1.9995128E2,1.0458872E2,9.561168E1,-2.6102087E2,7.5950424E1,-3.3668728E1,-2.3580467E1,-1.6626427E2,-2.2864026E2,8.21581E1,-9.923497E1,-2.2951814E2,9.126313E1,-2.8482565E2,5.1602203E1,-3.7646156E1,-9.421224E0,-8.263268E1,-2.4829515E2,-1.231542E2,-7.484109E1,2.1857655E1,-1.3414336E2,-3.076984E2],"split_indices":[7,5,5,3,2,2,0,7,2,0,2,2,7,1,7,1,0,0,2,0,1,3,1,0,1,3,5,7,0,1,2,0,0,0,0,0,0,0,0,0,0,0,0,0,0,0,0,0,0,0,0,0,0,0,0,0,0,0,0,0,0,0,0],"split_type":[0,0,0,0,0,0,0,0,0,0,0,0,0,0,0,0,0,0,0,0,0,0,0,0,0,0,0,0,0,0,0,0,0,0,0,0,0,0,0,0,0,0,0,0,0,0,0,0,0,0,0,0,0,0,0,0,0,0,0,0,0,0,0],"sum_hessian":[8.3551E4,4.9329E4,3.4222E4,4.4069E4,5.26E3,1.2024E4,2.2198E4,4.1242E4,2.827E3,1.568E3,3.692E3,4E3,8.024E3,1.5404E4,6.794E3,1.4168E4,2.7074E4,1.296E3,1.531E3,9.43E2,6.25E2,2.442E3,1.25E3,6.9E2,3.31E3,3.464E3,4.56E3,4.972E3,1.0432E4,5.775E3,1.019E3,1.0175E4,3.993E3,1.7551E4,9.523E3,7.65E2,5.31E2,3.23E2,1.208E3,4.57E2,4.86E2,4.1E1,5.84E2,2.14E3,3.02E2,7.23E2,5.27E2,8.5E1,6.05E2,2.545E3,7.65E2,3.447E3,1.7E1,2.298E3,2.262E3,1.513E3,3.459E3,1.729E3,8.703E3,2.673E3,3.102E3,8.62E2,1.57E2],"tree_param":{"num_deleted":"0","num_feature":"9","num_nodes":"63","size_leaf_vector":"1"}},{"base_weights":[-9.118779E0,-1.152291E3,8.417132E2,-3.367641E1,-1.770249E3,9.728616E2,-3.139756E2,5.0408707E2,-2.4471873E3,-2.194526E3,-8.177028E2,1.0713018E3,-4.8952365E2,-3.5211484E3,5.934806E1,7.391763E2,-2.0498875E3,-3.2409214E3,1.4981004E2,-8.437423E2,-2.6404473E3,-1.7701813E3,1.5793495E2,8.857678E2,1.3022634E3,1.5823679E3,-1.0965173E3,-2.3450562E3,-3.130126E2,-6.666785E2,7.108846E2,-4.5214016E1,5.1557964E1,-2.1516597E2,1.4083941E1,-2.1823967E2,-1.137099E2,8.018317E1,-1.7242526E2,-1.7343563E0,-6.434557E1,-1.4168634E2,5.082939E1,-2.6538358E2,-7.54692E1,-7.299678E1,3.4539932E1,3.0858967E1,6.568756E1,7.00248E1,4.9598717E1,7.209694E1,1.7302733E2,-7.063047E1,1.0872776E2,3.044779E1,-1.4779398E2,2.6995594E1,-2.4155496E2,8.0216324E1,-1.2376564E1],"categories":[],"categories_nodes":[],"categories_segments":[],"categories_sizes":[],"default_left":[0,0,0,0,0,0,0,0,0,0,0,0,0,0,0,0,0,0,0,0,0,0,0,0,0,0,0,0,0,0,0,0,0,0,0,0,0,0,0,0,0,0,0,0,0,0,0,0,0,0,0,0,0,0,0,0,0,0,0,0,0],"id":10,"left_children":[1,3,5,7,9,11,13,15,17,19,21,23,25,27,29,31,33,35,37,39,41,43,45,47,49,51,53,55,-1,57,59,-1,-1,-1,-1,-1,-1,-1,-1,-1,-1,-1,-1,-1,-1,-1,-1,-1,-1,-1,-1,-1,-1,-1,-1,-1,-1,-1,-1,-1,-1],"loss_changes":[8.109059E10,2.4590717E10,7.2447365E9,1.6432621E10,9.259147E9,6.180045E9,5.8335196E9,6.21818E9,4.755966E9,9.546719E9,6.56374E9,1.7222779E9,3.407384E9,1.6218107E9,2.0652623E9,4.5509775E9,4.587976E9,1.9098706E9,2.83573E9,1.4112015E9,8.426873E9,3.2892477E9,3.0097528E9,2.5632952E9,5.44639E8,1.5695322E8,2.1692178E9,6.4596365E8,0E0,1.0378717E10,1.9707177E9,0E0,0E0,0E0,0E0,0E0,0E0,0E0,0E0,0E0,0E0,0E0,0E0,0E0,0E0,0E0,0E0,0E0,0E0,0E0,0E0,0E0,0E0,0E0,0E0,0E0,0E0,0E0,0E0,0E0,0E0],"parents":[2147483647,0,0,1,1,2,2,3,3,4,4,5,5,6,6,7,7,8,8,9,9,10,10,11,11,12,12,13,13,14,14,15,15,16,16,17,17,18,18,19,19,20,20,21,21,22,22,23,23,24,24,25,25,26,26,27,27,29,29,30,30],"right_children":[2,4,6,8,10,12,14,16,18,20,22,24,26,28,30,32,34,36,38,40,42,44,46,48,50,52,54,56,-1,58,60,-1,-1,-1,-1,-1,-1,-1,-1,-1,-1,-1,-1,-1,-1,-1,-1,-1,-1,-1,-1,-1,-1,-1,-1,-1,-1,-1,-1,-1,-1],"split_conditions":[9.985382E-1,-7.326366E-2,9.388369E-3,5.0047197E0,2.7944064E2,2.309641E1,3.5572296E1,2.968514E2,3.4402027E1,1.219308E0,9.9800193E-1,9.9952716E-1,2.7021613E2,7.2331685E-1,2.737352E2,9.9756414E-1,2.264695E0,2.8757703E2,8.536287E0,3.4690636E-1,2.954154E1,1.7678E0,1.7231449E0,2.7649084E1,5.03197E-2,4.1179466E1,2.8661337E2,5.228626E-2,-3.130126E2,2.714667E2,3.15961E0,-4.5214016E1,5.1557964E1,-2.1516597E2,1.4083941E1,-2.1823967E2,-1.137099E2,8.018317E1,-1.7242526E2,-1.7343563E0,-6.434557E1,-1.4168634E2,5.082939E1,-2.6538358E2,-7.54692E1,-7.299678E1,3.4539932E1,3.0858967E1,6.568756E1,7.00248E1,4.9598717E1,7.209694E1,1.7302733E2,-7.063047E1,1.0872776E2,3.044779E1,-1.4779398E2,2.6995594E1,-2.4155496E2,8.0216324E1,-1.2376564E1],"split_indices":[8,5,5,1,0,3,0,0,1,0,8,8,0,3,0,8,1,0,3,7,1,1,1,0,1,3,0,7,0,0,1,0,0,0,0,0,0,0,0,0,0,0,0,0,0,0,0,0,0,0,0,0,0,0,0,0,0,0,0,0,0],"split_type":[0,0,0,0,0,0,0,0,0,0,0,0,0,0,0,0,0,0,0,0,0,0,0,0,0,0,0,0,0,0,0,0,0,0,0,0,0,0,0,0,0,0,0,0,0,0,0,0,0,0,0,0,0,0,0,0,0,0,0,0,0],"sum_hessian":[8.3369E4,3.5573E4,4.7796E4,1.2659E4,2.2914E4,4.2925E4,4.871E3,1.0353E4,2.306E3,1.5852E4,7.062E3,4.0218E4,2.707E3,5.07E2,4.364E3,9.481E3,8.72E2,1.766E3,5.4E2,3.935E3,1.1917E4,3.573E3,3.489E3,2.2305E4,1.7913E4,6.13E2,2.094E3,3.56E2,1.51E2,2.064E3,2.3E3,1.43E3,8.051E3,4.43E2,4.29E2,8.15E2,9.51E2,3.85E2,1.55E2,1.393E3,2.542E3,1.1319E4,5.98E2,2.44E2,3.329E3,8.64E2,2.625E3,1.3706E4,8.599E3,1.3603E4,4.31E3,5.72E2,4.1E1,1.91E3,1.84E2,6.1E1,2.95E2,1.601E3,4.63E2,1.19E3,1.11E3],"tree_param":{"num_deleted":"0","num_feature":"9","num_nodes":"61","size_leaf_vector":"1"}},{"base_weights":[7.567884E-1,-1.0754554E3,7.9929346E2,-5.704796E2,-2.0199336E3,3.6457193E2,1.0751094E3,-9.0519214E2,4.101809E1,-2.2068386E3,2.4831308E2,-5.6889282E1,1.1748278E3,1.8206713E3,9.824749E2,-4.9188498E2,-1.337234E3,-7.820384E2,1.3970349E3,-1.5752931E3,-2.8619028E3,1.4964773E3,-2.9970447E2,3.984337E2,-2.2585696E3,1.8230029E3,5.442141E2,1.9414463E3,1.3599568E3,-2.5154373E3,1.0468295E3,-5.7608242E1,-3.3590734E0,-1.183766E2,-3.3579735E1,-1.2510116E2,-1.1937016E0,-1.6463113E2,7.455396E1,-8.696388E1,1.3099348E2,-7.304226E1,-1.6799457E2,9.133138E1,-2.5208257E2,-2.5388644E0,5.968063E1,-1.400447E2,1.9618301E1,9.403713E1,-2.9306355E1,-1.540906E2,5.9832306E1,7.802023E1,9.987151E1,-1.4044703E1,1.0023364E2,-2.9386423E2,-2.4145615E1,3.714345E1,6.434365E1],"categories":[],"categories_nodes":[],"categories_segments":[],"categories_sizes":[],"default_left":[0,0,0,0,0,0,0,0,0,0,0,0,0,0,0,0,0,0,0,0,0,0,0,0,0,0,0,0,0,0,0,0,0,0,0,0,0,0,0,0,0,0,0,0,0,0,0,0,0,0,0,0,0,0,0,0,0,0,0,0,0],"id":11,"left_children":[1,3,5,7,9,11,13,15,17,19,21,23,25,27,29,31,33,35,37,39,41,43,-1,45,47,49,51,53,55,57,59,-1,-1,-1,-1,-1,-1,-1,-1,-1,-1,-1,-1,-1,-1,-1,-1,-1,-1,-1,-1,-1,-1,-1,-1,-1,-1,-1,-1,-1,-1],"loss_changes":[7.151885E10,1.6904892E10,5.727738E9,4.727846E9,5.2358636E9,6.3333673E9,2.0168356E9,2.6649764E9,9.121686E9,4.71543E9,7.3408123E9,1.2232105E10,2.5929236E9,1.7703014E8,5.855406E9,2.139832E9,5.003428E9,6.6322417E9,1.3663867E9,4.0021842E9,3.9015752E9,1.7036827E9,0E0,3.6117407E9,3.0072596E9,4.3635405E8,7.6166257E9,5.140787E7,7.135762E8,3.2086897E9,1.8618778E9,0E0,0E0,0E0,0E0,0E0,0E0,0E0,0E0,0E0,0E0,0E0,0E0,0E0,0E0,0E0,0E0,0E0,0E0,0E0,0E0,0E0,0E0,0E0,0E0,0E0,0E0,0E0,0E0,0E0,0E0],"parents":[2147483647,0,0,1,1,2,2,3,3,4,4,5,5,6,6,7,7,8,8,9,9,10,10,11,11,12,12,13,13,14,14,15,15,16,16,17,17,18,18,19,19,20,20,21,21,23,23,24,24,25,25,26,26,27,27,28,28,29,29,30,30],"right_children":[2,4,6,8,10,12,14,16,18,20,22,24,26,28,30,32,34,36,38,40,42,44,-1,46,48,50,52,54,56,58,60,-1,-1,-1,-1,-1,-1,-1,-1,-1,-1,-1,-1,-1,-1,-1,-1,-1,-1,-1,-1,-1,-1,-1,-1,-1,-1,-1,-1,-1,-1],"split_conditions":[9.985382E-1,3.2905996E-1,9.9919605E-1,2.798005E2,3.982637E1,1.1762045E3,6.6847E-1,2.6364243E2,1.0451709E3,7.044396E-1,3.2255753E1,2.5914304E2,2.714667E2,1.6712813E-3,5.242334E-2,9.9794143E-1,2.6990417E2,1.8520695E0,3.537577E0,3.3367273E2,1.234946E0,2.816576E2,-2.9970447E2,5.8019608E1,1.1063315E3,1.9273855E-1,2.730261E2,4.7568135E-2,1.0135713E-2,1.1478301E-2,9.9958843E-1,-5.7608242E1,-3.3590734E0,-1.183766E2,-3.3579735E1,-1.2510116E2,-1.1937016E0,-1.6463113E2,7.455396E1,-8.696388E1,1.3099348E2,-7.304226E1,-1.6799457E2,9.133138E1,-2.5208257E2,-2.5388644E0,5.968063E1,-1.400447E2,1.9618301E1,9.403713E1,-2.9306355E1,-1.540906E2,5.9832306E1,7.802023E1,9.987151E1,-1.4044703E1,1.0023364E2,-2.9386423E2,-2.4145615E1,3.714345E1,6.434365E1],"split_indices":[8,7,8,0,1,2,0,0,2,7,2,2,0,3,2,8,0,1,3,0,0,0,0,2,2,7,0,2,1,1,8,0,0,0,0,0,0,0,0,0,0,0,0,0,0,0,0,0,0,0,0,0,0,0,0,0,0,0,0,0,0],"split_type":[0,0,0,0,0,0,0,0,0,0,0,0,0,0,0,0,0,0,0,0,0,0,0,0,0,0,0,0,0,0,0,0,0,0,0,0,0,0,0,0,0,0,0,0,0,0,0,0,0,0,0,0,0,0,0,0,0,0,0,0,0],"sum_hessian":[8.3218E4,3.5446E4,4.7772E4,2.3098E4,1.2348E4,1.8545E4,2.9227E4,1.4927E4,8.171E3,1.1408E4,9.4E2,1.22E4,6.345E3,3.228E3,2.5999E4,7.63E3,7.297E3,5.085E3,3.086E3,5.81E3,5.598E3,7.84E2,1.56E2,1.011E4,2.09E3,3.128E3,3.217E3,2.555E3,6.73E2,4.69E2,2.553E4,2.986E3,4.644E3,2.863E3,4.434E3,1.555E3,3.53E3,6E1,3.026E3,5.592E3,2.18E2,1.469E3,4.129E3,7.47E2,3.7E1,6.461E3,3.649E3,1.735E3,3.55E2,3.055E3,7.3E1,4.9E2,2.727E3,3.31E2,2.224E3,1.9E2,4.83E2,1.76E2,2.93E2,1.1267E4,1.4263E4],"tree_param":{"num_deleted":"0","num_feature":"9","num_nodes":"61","size_leaf_vector":"1"}},{"base_weights":[1.85426E0,6.54855E2,-1.2182869E3,8.473779E2,-5.373168E2,-6.823579E1,-1.74486E3,9.655563E2,-6.7758466E2,-1.6602308E3,5.748107E2,6.0401984E2,-2.3885476E3,-3.239246E2,-1.8995247E3,8.8609644E2,1.7088568E3,-2.5210835E3,1.4025984E3,-1.2867289E3,-4.747193E3,-2.9204617E3,8.826703E2,9.8722925E2,-9.453164E2,1.1925287E3,-3.1730137E3,-1.7013737E3,4.9899777E2,-2.296038E3,-1.1752397E3,4.8545525E1,-8.7480385E1,8.870199E1,-4.2446526E1,-1.4238701E2,6.4156364E1,7.731777E1,-1.4744456E2,2.3989437E1,-9.774926E1,1.8978532E2,-2.6829025E2,-2.6696884E2,-7.357574E1,5.7172405E1,-1.474379E2,5.8438457E1,-1.4827873E2,-1.7333145E2,7.348935E-1,-1.4022006E2,7.327684E1,-2.483177E2,-9.883408E1,-1.9782979E2,2.0846229E0,-2.1129883E2,4.9762245E1,-8.509615E1,-1.5764389E2,-2.4054251E2,-4.038859E1],"categories":[],"categories_nodes":[],"categories_segments":[],"categories_sizes":[],"default_left":[0,0,0,0,0,0,0,0,0,0,0,0,0,0,0,0,0,0,0,0,0,0,0,0,0,0,0,0,0,0,0,0,0,0,0,0,0,0,0,0,0,0,0,0,0,0,0,0,0,0,0,0,0,0,0,0,0,0,0,0,0,0,0],"id":12,"left_children":[1,3,5,7,9,11,13,15,17,19,21,23,25,27,29,31,33,35,37,39,41,43,45,47,49,51,53,55,57,59,61,-1,-1,-1,-1,-1,-1,-1,-1,-1,-1,-1,-1,-1,-1,-1,-1,-1,-1,-1,-1,-1,-1,-1,-1,-1,-1,-1,-1,-1,-1,-1,-1],"loss_changes":[6.6555965E10,1.2489355E10,1.7635152E10,8.443486E9,9.449554E9,1.4269324E10,4.3892613E9,2.5664676E9,1.2926863E10,4.334886E9,4.0937308E9,4.2121912E9,5.7767567E9,2.2248422E9,5.170725E9,8.782981E9,7.014134E8,2.2243062E9,9.954427E8,3.9673723E9,2.165971E9,1.07164595E9,3.4954063E9,4.0844073E9,3.4056888E9,4.0785174E8,3.60738E9,2.8855201E9,2.8859092E9,5.9201085E9,8.5129257E9,0E0,0E0,0E0,0E0,0E0,0E0,0E0,0E0,0E0,0E0,0E0,0E0,0E0,0E0,0E0,0E0,0E0,0E0,0E0,0E0,0E0,0E0,0E0,0E0,0E0,0E0,0E0,0E0,0E0,0E0,0E0,0E0],"parents":[2147483647,0,0,1,1,2,2,3,3,4,4,5,5,6,6,7,7,8,8,9,9,10,10,11,11,12,12,13,13,14,14,15,15,16,16,17,17,18,18,19,19,20,20,21,21,22,22,23,23,24,24,25,25,26,26,27,27,28,28,29,29,30,30],"right_children":[2,4,6,8,10,12,14,16,18,20,22,24,26,28,30,32,34,36,38,40,42,44,46,48,50,52,54,56,58,60,62,-1,-1,-1,-1,-1,-1,-1,-1,-1,-1,-1,-1,-1,-1,-1,-1,-1,-1,-1,-1,-1,-1,-1,-1,-1,-1,-1,-1,-1,-1,-1,-1],"split_conditions":[2.2151044E-1,9.388369E-3,-1.4345552E-1,2.309641E1,2.737352E2,4.810417E0,6.0990386E-2,1.3865602E3,1.141428E3,1.8825215E3,5.465707E1,3.231379E-1,2.1325504E1,9.9469626E-1,2.5511463E0,2.990997E2,-1.246813E-1,7.258915E0,2.9509027E2,2.160499E0,4.976326E0,2.8320743E2,1.7303433E3,2.978232E2,8.9325E0,3.4402027E1,3.4139975E2,5.4229926E-3,2.7178006E-2,3.530331E-1,3.5572296E1,4.8545525E1,-8.7480385E1,8.870199E1,-4.2446526E1,-1.4238701E2,6.4156364E1,7.731777E1,-1.4744456E2,2.3989437E1,-9.774926E1,1.8978532E2,-2.6829025E2,-2.6696884E2,-7.357574E1,5.7172405E1,-1.474379E2,5.8438457E1,-1.4827873E2,-1.7333145E2,7.348935E-1,-1.4022006E2,7.327684E1,-2.483177E2,-9.883408E1,-1.9782979E2,2.0846229E0,-2.1129883E2,4.9762245E1,-8.509615E1,-1.5764389E2,-2.4054251E2,-4.038859E1],"split_indices":[7,5,5,3,0,1,2,2,2,2,2,7,2,8,1,2,5,1,0,1,3,0,2,0,3,1,2,3,1,5,0,0,0,0,0,0,0,0,0,0,0,0,0,0,0,0,0,0,0,0,0,0,0,0,0,0,0,0,0,0,0,0,0],"split_type":[0,0,0,0,0,0,0,0,0,0,0,0,0,0,0,0,0,0,0,0,0,0,0,0,0,0,0,0,0,0,0,0,0,0,0,0,0,0,0,0,0,0,0,0,0,0,0,0,0,0,0,0,0,0,0,0,0,0,0,0,0,0,0],"sum_hessian":[8.3532E4,5.4412E4,2.912E4,4.6847E4,7.565E3,9.146E3,1.9974E4,4.3478E4,3.369E3,3.764E3,3.801E3,7.092E3,2.054E3,1.961E3,1.8013E4,3.9281E4,4.197E3,1.786E3,1.583E3,3.359E3,4.05E2,3.07E2,3.494E3,5.686E3,1.406E3,3.69E2,1.685E3,7.33E2,1.228E3,1.1639E4,6.374E3,3.8057E4,1.224E3,4.093E3,1.04E2,1.645E3,1.41E2,1.533E3,5E1,9.22E2,2.437E3,2.7E1,3.78E2,1.14E2,1.93E2,3.272E3,2.22E2,5.437E3,2.49E2,3.87E2,1.019E3,2.3E1,3.46E2,6.73E2,1.012E3,3.19E2,4.14E2,1.16E2,1.112E3,6.875E3,4.764E3,5.84E2,5.79E3],"tree_param":{"num_deleted":"0","num_feature":"9","num_nodes":"63","size_leaf_vector":"1"}},{"base_weights":[4.2114563E0,-9.6446497E2,7.202248E2,5.7486748E1,-1.5349554E3,8.378861E2,-3.3008838E2,5.350503E2,-2.1176404E3,-1.92452E3,-6.7313153E2,9.200298E2,-3.7522116E2,-3.6638113E3,2.2474995E1,7.4093787E2,-1.7442042E3,2.8345544E2,-2.8250479E3,-9.413946E2,-2.392135E3,-3.6040842E2,-2.9474587E3,1.1289922E3,7.513848E2,1.4272946E3,-8.91505E2,-2.53288E3,-3.0074683E2,2.04983E3,-2.3592947E2,5.057687E1,-3.8928837E1,-1.9443427E2,3.512986E1,-1.2712032E2,6.7587425E1,-1.8476532E2,-1.03351616E2,-4.6631618E0,-7.179544E1,-1.2960855E2,4.4813442E1,-6.97352E1,1.7193027E1,-3.750474E1,-1.7462453E2,6.185321E1,4.1618435E1,2.4623722E1,5.8072216E1,6.504874E1,1.6991197E2,-5.799237E1,9.876105E1,-1.6470493E2,1.2909372E1,5.46527E1,1.086203E2,1.5322284E1,-1.18151855E2],"categories":[],"categories_nodes":[],"categories_segments":[],"categories_sizes":[],"default_left":[0,0,0,0,0,0,0,0,0,0,0,0,0,0,0,0,0,0,0,0,0,0,0,0,0,0,0,0,0,0,0,0,0,0,0,0,0,0,0,0,0,0,0,0,0,0,0,0,0,0,0,0,0,0,0,0,0,0,0,0,0],"id":13,"left_children":[1,3,5,7,9,11,13,15,17,19,21,23,25,27,29,31,33,35,37,39,41,43,45,47,49,51,53,55,-1,57,59,-1,-1,-1,-1,-1,-1,-1,-1,-1,-1,-1,-1,-1,-1,-1,-1,-1,-1,-1,-1,-1,-1,-1,-1,-1,-1,-1,-1,-1,-1],"loss_changes":[5.7706295E10,2.0616045E10,5.912279E9,1.3161202E10,7.6175565E9,4.2872463E9,5.665262E9,4.876541E9,3.8752E9,7.1823196E9,5.0245217E9,1.4190612E9,2.5409068E9,1.2105462E9,2.2845898E9,3.9189212E9,4.520502E9,1.573238E9,1.1547003E9,2.1132877E9,6.96841E9,4.526167E9,1.020159E9,5.757645E8,2.3669893E9,1.4695245E8,1.6346692E9,6.658541E8,0E0,5.5443456E7,4.4631987E9,0E0,0E0,0E0,0E0,0E0,0E0,0E0,0E0,0E0,0E0,0E0,0E0,0E0,0E0,0E0,0E0,0E0,0E0,0E0,0E0,0E0,0E0,0E0,0E0,0E0,0E0,0E0,0E0,0E0,0E0],"parents":[2147483647,0,0,1,1,2,2,3,3,4,4,5,5,6,6,7,7,8,8,9,9,10,10,11,11,12,12,13,13,14,14,15,15,16,16,17,17,18,18,19,19,20,20,21,21,22,22,23,23,24,24,25,25,26,26,27,27,29,29,30,30],"right_children":[2,4,6,8,10,12,14,16,18,20,22,24,26,28,30,32,34,36,38,40,42,44,46,48,50,52,54,56,-1,58,60,-1,-1,-1,-1,-1,-1,-1,-1,-1,-1,-1,-1,-1,-1,-1,-1,-1,-1,-1,-1,-1,-1,-1,-1,-1,-1,-1,-1,-1,-1],"split_conditions":[9.985382E-1,-7.326366E-2,1.5180861E-2,5.0047197E0,2.7944064E2,2.309641E1,3.5572296E1,2.968514E2,1.7998767E2,3.4698355E-1,1.010722E0,6.270379E-2,2.7021613E2,7.2331685E-1,1.9456825E2,3.231379E-1,2.315009E0,9.999996E-1,2.8757703E2,3.4690636E-1,2.954154E1,2.3045561E0,2.0177448E0,4.5637485E-2,4.170543E1,4.1179466E1,2.8661337E2,1.0065029E1,-3.0074683E2,5.428312E0,6.2724867E0,5.057687E1,-3.8928837E1,-1.9443427E2,3.512986E1,-1.2712032E2,6.7587425E1,-1.8476532E2,-1.03351616E2,-4.6631618E0,-7.179544E1,-1.2960855E2,4.4813442E1,-6.97352E1,1.7193027E1,-3.750474E1,-1.7462453E2,6.185321E1,4.1618435E1,2.4623722E1,5.8072216E1,6.504874E1,1.6991197E2,-5.799237E1,9.876105E1,-1.6470493E2,1.2909372E1,5.46527E1,1.086203E2,1.5322284E1,-1.18151855E2],"split_indices":[8,5,5,1,0,3,0,0,0,1,7,7,0,3,0,7,1,6,0,7,1,1,3,1,0,3,0,1,0,1,1,0,0,0,0,0,0,0,0,0,0,0,0,0,0,0,0,0,0,0,0,0,0,0,0,0,0,0,0,0,0],"split_type":[0,0,0,0,0,0,0,0,0,0,0,0,0,0,0,0,0,0,0,0,0,0,0,0,0,0,0,0,0,0,0,0,0,0,0,0,0,0,0,0,0,0,0,0,0,0,0,0,0,0,0,0,0,0,0,0,0,0,0,0,0],"sum_hessian":[8.3198E4,3.536E4,4.7838E4,1.2668E4,2.2692E4,4.3019E4,4.819E3,1.0388E4,2.28E3,1.5627E4,7.065E3,4.0291E4,2.728E3,4.6E2,4.359E3,9.528E3,8.6E2,5.19E2,1.761E3,5.038E3,1.0589E4,6.212E3,8.53E2,1.7992E4,2.2299E4,6.07E2,2.121E3,3.12E2,1.48E2,4.92E2,3.867E3,8.088E3,1.44E3,4.58E2,4.02E2,1.42E2,3.77E2,8.18E2,9.43E2,1.856E3,3.182E3,9.982E3,6.07E2,2.516E3,3.696E3,1.7E2,6.83E2,1.3185E4,4.807E3,1.367E4,8.629E3,5.72E2,3.5E1,1.94E3,1.81E2,2.45E2,6.7E1,5.7E1,4.35E2,3.082E3,7.85E2],"tree_param":{"num_deleted":"0","num_feature":"9","num_nodes":"61","size_leaf_vector":"1"}},{"base_weights":[-9.049894E0,-1.0972961E3,5.8173486E2,-7.645093E1,-1.576503E3,7.6631683E2,-5.257365E2,4.916799E2,-2.0986072E3,-1.8502416E3,-9.5418555E2,-4.8337048E2,8.6938934E2,-1.5023396E3,4.7654282E2,6.653535E2,-2.3019736E3,1.0068975E3,-2.8323254E3,-1.2670385E3,-2.8888408E3,-4.4208984E3,-6.0229126E2,-2.3776423E3,1.2960789E3,7.9827625E2,1.5919802E3,-1.1269594E3,-4.347671E3,-3.1177158E3,8.0343726E2,5.9150063E1,-1.734992E1,-3.1593182E2,-1.894934E0,-1.6091473E2,6.877884E1,-2.2570052E2,-8.4573715E1,-1.0108424E2,-1.8202581E1,-7.001162E1,-1.8004146E2,-2.3996037E2,-5.8155926E1,-1.8309708E1,-2.1591478E2,1.3797393E1,-1.4553911E2,7.147381E1,-1.14243095E2,4.4070435E1,-8.970304E1,8.2688194E1,-4.735191E1,2.9756733E1,-9.008309E1,2.970146E1,-2.6290878E2,1.1682806E2,-1.8252777E2,5.2367756E1,-1.440137E2],"categories":[],"categories_nodes":[],"categories_segments":[],"categories_sizes":[],"default_left":[0,0,0,0,0,0,0,0,0,0,0,0,0,0,0,0,0,0,0,0,0,0,0,0,0,0,0,0,0,0,0,0,0,0,0,0,0,0,0,0,0,0,0,0,0,0,0,0,0,0,0,0,0,0,0,0,0,0,0,0,0,0,0],"id":14,"left_children":[1,3,5,7,9,11,13,15,17,19,21,23,25,27,29,31,33,35,37,39,41,43,45,47,49,51,53,55,57,59,61,-1,-1,-1,-1,-1,-1,-1,-1,-1,-1,-1,-1,-1,-1,-1,-1,-1,-1,-1,-1,-1,-1,-1,-1,-1,-1,-1,-1,-1,-1,-1,-1],"loss_changes":[5.3787267E10,1.440034E10,1.1084831E10,1.080596E10,3.410903E9,5.9871805E9,7.5837046E9,3.5642368E9,4.703533E9,8.423039E9,7.4656655E9,1.1942318E10,2.2050775E9,4.1862523E9,4.495488E9,3.6236347E9,3.9101914E9,6.1973466E8,3.1944264E9,6.0715377E9,5.2964393E9,6.895176E8,4.8755395E9,2.4284856E9,8.7600154E8,8.426193E9,6.0488704E8,4.030545E9,2.0593674E9,9.356252E8,3.1532372E9,0E0,0E0,0E0,0E0,0E0,0E0,0E0,0E0,0E0,0E0,0E0,0E0,0E0,0E0,0E0,0E0,0E0,0E0,0E0,0E0,0E0,0E0,0E0,0E0,0E0,0E0,0E0,0E0,0E0,0E0,0E0,0E0],"parents":[2147483647,0,0,1,1,2,2,3,3,4,4,5,5,6,6,7,7,8,8,9,9,10,10,11,11,12,12,13,13,14,14,15,15,16,16,17,17,18,18,19,19,20,20,21,21,22,22,23,23,24,24,25,25,26,26,27,27,28,28,29,29,30,30],"right_children":[2,4,6,8,10,12,14,16,18,20,22,24,26,28,30,32,34,36,38,40,42,44,46,48,50,52,54,56,58,60,62,-1,-1,-1,-1,-1,-1,-1,-1,-1,-1,-1,-1,-1,-1,-1,-1,-1,-1,-1,-1,-1,-1,-1,-1,-1,-1,-1,-1,-1,-1,-1,-1],"split_conditions":[9.9834067E-1,-1.3360699E-1,5.215851E-3,5.0047197E0,2.6034164E0,-1.4450248E0,2.737352E2,2.978232E2,2.1325504E1,3.530331E-1,3.5572296E1,1.141428E3,1.3865602E3,1.8692771E3,5.465707E1,2.9627708E-1,2.495771E0,3.4402027E1,3.4139975E2,9.9746144E-1,1.7790857E3,2.9889027E-2,1.7274632E1,5.7527295E2,2.9591702E2,2.5914304E2,-1.1610328E-1,2.160499E0,1.8838754E-1,3.2620096E0,1.7303433E3,5.9150063E1,-1.734992E1,-3.1593182E2,-1.894934E0,-1.6091473E2,6.877884E1,-2.2570052E2,-8.4573715E1,-1.0108424E2,-1.8202581E1,-7.001162E1,-1.8004146E2,-2.3996037E2,-5.8155926E1,-1.8309708E1,-2.1591478E2,1.3797393E1,-1.4553911E2,7.147381E1,-1.14243095E2,4.4070435E1,-8.970304E1,8.2688194E1,-4.735191E1,2.9756733E1,-9.008309E1,2.970146E1,-2.6290878E2,1.1682806E2,-1.8252777E2,5.2367756E1,-1.440137E2],"split_indices":[8,5,5,1,1,5,0,0,2,5,0,2,2,2,2,7,1,1,2,8,2,5,5,2,0,2,5,1,5,1,2,0,0,0,0,0,0,0,0,0,0,0,0,0,0,0,0,0,0,0,0,0,0,0,0,0,0,0,0,0,0,0,0],"split_type":[0,0,0,0,0,0,0,0,0,0,0,0,0,0,0,0,0,0,0,0,0,0,0,0,0,0,0,0,0,0,0,0,0,0,0,0,0,0,0,0,0,0,0,0,0,0,0,0,0,0,0,0,0,0,0,0,0,0,0,0,0,0,0],"sum_hessian":[8.3659E4,2.9436E4,5.4223E4,9.404E3,2.0032E4,4.6477E4,7.746E3,7.342E3,2.062E3,1.3911E4,6.121E3,3.541E3,4.2936E4,3.923E3,3.823E3,6.913E3,4.29E2,3.94E2,1.668E3,8.91E3,5.001E3,5.63E2,5.558E3,1.715E3,1.826E3,3.9091E4,3.845E3,3.467E3,4.56E2,3.18E2,3.505E3,4.574E3,2.339E3,1.54E2,2.75E2,3.1E1,3.63E2,6.73E2,9.95E2,4.853E3,4.057E3,1.619E3,3.382E3,5.04E2,5.9E1,5.227E3,3.31E2,2.87E2,1.428E3,1.761E3,6.5E1,3.7877E4,1.214E3,3.754E3,9.1E1,9.76E2,2.491E3,7.1E1,3.85E2,2.8E1,2.9E2,3.288E3,2.17E2],"tree_param":{"num_deleted":"0","num_feature":"9","num_nodes":"63","size_leaf_vector":"1"}},{"base_weights":[2.9257493E0,-1.0348008E3,5.683931E2,-1.7148647E1,-1.4983104E3,7.342068E2,-4.5997488E2,5.507711E2,-2.093301E3,-1.5597153E3,1.0607096E3,8.36477E2,-5.6283295E2,-9.796549E2,5.095694E2,-4.093186E2,9.1136115E2,4.4187323E2,-2.71304E3,-1.3083334E3,-2.4059177E3,1.9395908E3,-2.9136142E2,-4.2184167E2,8.662388E2,2.919025E2,-1.3900693E3,1.7332281E3,-1.1529812E3,1.8983994E3,1.5497102E2,4.260551E0,-2.102712E2,2.5100987E0,5.458858E1,5.3616962E1,-2.7132263E2,-4.597408E1,-1.6964937E2,-7.39067E1,4.161903E1,-5.4325054E1,-1.5264433E2,5.955528E1,1.5667555E2,1.2331011E1,-4.1547128E2,4.065388E1,7.521334E1,-1.2614919E1,6.2989452E1,-7.5492E1,1.0758943E2,9.880079E1,1.906645E1,-4.8682583E1,-1.7651259E2,1.028997E2,7.856397E1,-1.0565021E1,9.908431E1],"categories":[],"categories_nodes":[],"categories_segments":[],"categories_sizes":[],"default_left":[0,0,0,0,0,0,0,0,0,0,0,0,0,0,0,0,0,0,0,0,0,0,0,0,0,0,0,0,0,0,0,0,0,0,0,0,0,0,0,0,0,0,0,0,0,0,0,0,0,0,0,0,0,0,0,0,0,0,0,0,0],"id":15,"left_children":[1,3,5,7,9,11,13,15,17,19,21,23,25,27,29,31,33,35,37,39,41,43,-1,45,47,49,51,53,55,57,59,-1,-1,-1,-1,-1,-1,-1,-1,-1,-1,-1,-1,-1,-1,-1,-1,-1,-1,-1,-1,-1,-1,-1,-1,-1,-1,-1,-1,-1,-1],"loss_changes":[4.90219E10,1.3898836E10,9.221073E9,1.0874701E10,3.1828828E9,6.1775135E9,3.7839299E9,2.5075448E9,3.113641E9,4.202537E9,2.8868001E9,1.616851E9,2.4072663E9,2.3008753E9,1.2904877E9,3.7136312E9,8.179272E8,1.4487332E9,1.9383644E9,5.542703E9,3.8610248E9,3.733801E8,0E0,5.2640527E9,1.4290104E9,8.8258176E8,7.371323E8,9.574451E7,1.9559071E9,2.4592384E7,1.3981135E9,0E0,0E0,0E0,0E0,0E0,0E0,0E0,0E0,0E0,0E0,0E0,0E0,0E0,0E0,0E0,0E0,0E0,0E0,0E0,0E0,0E0,0E0,0E0,0E0,0E0,0E0,0E0,0E0,0E0,0E0],"parents":[2147483647,0,0,1,1,2,2,3,3,4,4,5,5,6,6,7,7,8,8,9,9,10,10,11,11,12,12,13,13,14,14,15,15,16,16,17,17,18,18,19,19,20,20,21,21,23,23,24,24,25,25,26,26,27,27,28,28,29,29,30,30],"right_children":[2,4,6,8,10,12,14,16,18,20,22,24,26,28,30,32,34,36,38,40,42,44,-1,46,48,50,52,54,56,58,60,-1,-1,-1,-1,-1,-1,-1,-1,-1,-1,-1,-1,-1,-1,-1,-1,-1,-1,-1,-1,-1,-1,-1,-1,-1,-1,-1,-1,-1,-1],"split_conditions":[9.9834067E-1,-1.4345552E-1,9.388369E-3,5.0047197E0,5.1905342E1,2.309641E1,1.0892597E0,8.9325E0,1E0,7.044396E-1,1.0438041E1,9.999987E-1,1.6942263E-1,5.228626E-2,1.6200969E-1,3.3666658E-1,-1.5975376E0,8.536287E0,-3.4387348E0,2.2348814E0,2.6561326E-1,9.7463214E-1,-2.9136142E2,3.4923247E-1,4.000339E0,2.8580927E1,9.195636E0,4.851971E-2,1.0000002E0,1.5643927E-1,4.181824E0,4.260551E0,-2.102712E2,2.5100987E0,5.458858E1,5.3616962E1,-2.7132263E2,-4.597408E1,-1.6964937E2,-7.39067E1,4.161903E1,-5.4325054E1,-1.5264433E2,5.955528E1,1.5667555E2,1.2331011E1,-4.1547128E2,4.065388E1,7.521334E1,-1.2614919E1,6.2989452E1,-7.5492E1,1.0758943E2,9.880079E1,1.906645E1,-4.8682583E1,-1.7651259E2,1.028997E2,7.856397E1,-1.0565021E1,9.908431E1],"split_indices":[8,5,5,1,1,3,5,3,6,7,3,6,7,7,7,7,5,3,4,5,1,8,0,3,1,3,1,7,6,7,1,0,0,0,0,0,0,0,0,0,0,0,0,0,0,0,0,0,0,0,0,0,0,0,0,0,0,0,0,0,0],"split_type":[0,0,0,0,0,0,0,0,0,0,0,0,0,0,0,0,0,0,0,0,0,0,0,0,0,0,0,0,0,0,0,0,0,0,0,0,0,0,0,0,0,0,0,0,0,0,0,0,0,0,0,0,0,0,0,0,0,0,0,0,0],"sum_hessian":[8.3539E4,2.9465E4,5.4074E4,9.221E3,2.0244E4,4.6566E4,7.508E3,7.241E3,1.98E3,1.977E4,4.74E2,4.3163E4,3.403E3,4.888E3,2.62E3,1.977E3,5.264E3,3.89E2,1.591E3,1.5244E4,4.526E3,4.21E2,5.3E1,9.97E2,4.2166E4,1.674E3,1.729E3,2.93E2,4.595E3,5.32E2,2.088E3,1.75E3,2.27E2,9.12E2,4.352E3,3.52E2,3.7E1,4.38E2,1.153E3,1.4124E4,1.12E3,1.49E3,3.036E3,2.6E2,1.61E2,9.2E2,7.7E1,3.8925E4,3.241E3,1.072E3,6.02E2,1.673E3,5.6E1,2.48E2,4.5E1,4.274E3,3.21E2,3.54E2,1.78E2,1.74E3,3.48E2],"tree_param":{"num_deleted":"0","num_feature":"9","num_nodes":"61","size_leaf_vector":"1"}},{"base_weights":[-3.3735816E0,-9.889588E2,5.3167773E2,-1.6355411E3,-5.15552E2,4.5107605E1,7.924956E2,-1.8211211E3,7.2022186E2,-4.1934225E2,-3.92968E3,-3.3841272E2,5.0266824E2,6.167605E2,1.0469489E3,-8.384515E2,-2.4613318E3,1.3331638E3,-2.3587366E2,-8.3911755E2,8.307588E2,-6.310178E2,-5.0915083E3,4.1312662E2,-2.4047476E3,-1.2253479E2,9.71182E2,1.5136366E3,4.792845E2,9.963471E2,1.5530945E3,-2.2596252E2,-3.6954796E1,-2.0289018E2,-9.630752E1,-2.3817862E2,7.4233665E1,-3.6667904E1,-2.702498E2,5.3226135E1,-5.468931E1,1.4738156E2,-2.7525577E2,-1.6923549E2,-2.665678E2,-2.3369093E1,5.328599E1,-1.5585394E2,6.1041138E1,3.252433E1,-2.9859842E1,6.441966E1,2.2563944E1,7.954036E1,-3.6033573E1,1.1981116E1,5.832608E1,5.6687275E1,3.045142E1,7.107087E1,8.257665E1],"categories":[],"categories_nodes":[],"categories_segments":[],"categories_sizes":[],"default_left":[0,0,0,0,0,0,0,0,0,0,0,0,0,0,0,0,0,0,0,0,0,0,0,0,0,0,0,0,0,0,0,0,0,0,0,0,0,0,0,0,0,0,0,0,0,0,0,0,0,0,0,0,0,0,0,0,0,0,0,0,0],"id":16,"left_children":[1,3,5,7,9,11,13,15,17,19,21,23,25,27,29,31,33,35,-1,37,39,41,43,45,47,49,51,53,55,57,59,-1,-1,-1,-1,-1,-1,-1,-1,-1,-1,-1,-1,-1,-1,-1,-1,-1,-1,-1,-1,-1,-1,-1,-1,-1,-1,-1,-1,-1,-1],"loss_changes":[4.3957363E10,8.976966E9,6.856327E9,5.421062E9,5.5607045E9,3.308917E9,1.5721636E9,7.227732E9,3.0259796E9,8.644044E9,1.7750569E9,1.5930968E10,2.518613E9,2.5647555E9,3.6641792E8,1.655145E9,5.937115E9,7.5989875E8,0E0,5.9504916E9,1.8641551E9,2.1442344E9,1.2236902E8,4.323318E9,7.069818E9,1.3521361E9,8.099958E8,4.7789517E8,2.971488E9,6.945362E8,1.4555136E7,0E0,0E0,0E0,0E0,0E0,0E0,0E0,0E0,0E0,0E0,0E0,0E0,0E0,0E0,0E0,0E0,0E0,0E0,0E0,0E0,0E0,0E0,0E0,0E0,0E0,0E0,0E0,0E0,0E0,0E0],"parents":[2147483647,0,0,1,1,2,2,3,3,4,4,5,5,6,6,7,7,8,8,9,9,10,10,11,11,12,12,13,13,14,14,15,15,16,16,17,17,19,19,20,20,21,21,22,22,23,23,24,24,25,25,26,26,27,27,28,28,29,29,30,30],"right_children":[2,4,6,8,10,12,14,16,18,20,22,24,26,28,30,32,34,36,-1,38,40,42,44,46,48,50,52,54,56,58,60,-1,-1,-1,-1,-1,-1,-1,-1,-1,-1,-1,-1,-1,-1,-1,-1,-1,-1,-1,-1,-1,-1,-1,-1,-1,-1,-1,-1,-1,-1],"split_conditions":[9.9834067E-1,7.500586E2,9.988852E-1,3.982637E1,8.231893E0,1.141428E3,9.9958843E-1,3.4698355E-1,3.2255753E1,1.980498E1,7.258915E0,2.5914304E2,1.6478937E1,8.471271E-3,9.997496E-1,2.663837E-2,1.9872105E0,2.2701612E0,-2.3587366E2,3.932858E-1,2.1478176E3,1.8124945E3,1.0090254E3,5.465707E1,4.181824E0,2.049478E0,2.1524136E0,1.15241416E-1,3.4183927E0,4.5637485E-2,5.03197E-2,-2.2596252E2,-3.6954796E1,-2.0289018E2,-9.630752E1,-2.3817862E2,7.4233665E1,-3.6667904E1,-2.702498E2,5.3226135E1,-5.468931E1,1.4738156E2,-2.7525577E2,-1.6923549E2,-2.665678E2,-2.3369093E1,5.328599E1,-1.5585394E2,6.1041138E1,3.252433E1,-2.9859842E1,6.441966E1,2.2563944E1,7.954036E1,-3.6033573E1,1.1981116E1,5.832608E1,5.6687275E1,3.045142E1,7.107087E1,8.257665E1],"split_indices":[8,2,8,1,7,2,8,1,2,3,1,2,3,1,8,1,1,3,0,7,2,2,2,2,1,1,1,7,2,1,1,0,0,0,0,0,0,0,0,0,0,0,0,0,0,0,0,0,0,0,0,0,0,0,0,0,0,0,0,0,0],"split_type":[0,0,0,0,0,0,0,0,0,0,0,0,0,0,0,0,0,0,0,0,0,0,0,0,0,0,0,0,0,0,0,0,0,0,0,0,0,0,0,0,0,0,0,0,0,0,0,0,0,0,0,0,0,0,0,0,0,0,0,0,0],"sum_hessian":[8.3355E4,2.9329E4,5.4026E4,1.2396E4,1.6933E4,1.8854E4,3.5172E4,1.1491E4,9.05E2,1.647E4,4.63E2,1.0257E4,8.597E3,2.0806E4,1.4366E4,4.534E3,6.957E3,8.14E2,9.1E1,1.233E4,4.14E3,1.21E2,3.42E2,7.522E3,2.735E3,3.683E3,4.914E3,2.764E3,1.8042E4,1.3063E4,1.303E3,1.18E2,4.416E3,1.745E3,5.212E3,1.9E1,7.95E2,1.2052E4,2.78E2,3.692E3,4.48E2,7E1,5.1E1,4.4E1,2.98E2,3.202E3,4.32E3,2.286E3,4.49E2,1.401E3,2.282E3,3.051E3,1.863E3,2.672E3,9.2E1,1.3378E4,4.664E3,9.641E3,3.422E3,5.64E2,7.39E2],"tree_param":{"num_deleted":"0","num_feature":"9","num_nodes":"61","size_leaf_vector":"1"}},{"base_weights":[3.1183524E0,-9.570963E2,5.149018E2,-4.9692508E2,-1.5754205E3,6.2064617E1,7.619607E2,-1.5073853E3,-2.0286586E2,-1.83293E3,-4.9596494E2,-1.6108629E2,8.2891547E2,9.57397E2,5.509596E2,-3.835355E2,-2.6952441E3,-6.55409E2,1.1621715E3,-6.355288E2,-2.2091138E3,-8.908029E1,-4.195479E3,-6.43249E2,3.1235474E2,-1.1045913E3,1.3358877E3,1.1440525E3,8.225527E2,1.408584E3,3.8504797E2,-3.5549282E1,1.3877464E2,-2.2122888E2,-8.891101E1,-4.438958E1,1.4484447E1,-3.8373108E1,7.860218E1,-2.7628279E1,-2.7447925E2,-1.17758644E2,1.20735374E2,5.5536987E1,-4.3583183E1,-2.579464E2,-1.2116235E2,-8.571965E-1,-1.1728701E2,-1.314609E1,4.4833443E1,-1.9356541E2,6.2199444E1,-1.5291978E2,7.474448E1,7.443423E1,5.4720287E1,-1.1026841E2,4.2915207E1,7.634976E1,-1.524914E1,-5.3806618E1,2.6879597E1],"categories":[],"categories_nodes":[],"categories_segments":[],"categories_sizes":[],"default_left":[0,0,0,0,0,0,0,0,0,0,0,0,0,0,0,0,0,0,0,0,0,0,0,0,0,0,0,0,0,0,0,0,0,0,0,0,0,0,0,0,0,0,0,0,0,0,0,0,0,0,0,0,0,0,0,0,0,0,0,0,0,0,0],"id":17,"left_children":[1,3,5,7,9,11,13,15,17,19,21,23,25,27,29,31,33,35,37,39,41,43,45,47,49,51,53,55,57,59,61,-1,-1,-1,-1,-1,-1,-1,-1,-1,-1,-1,-1,-1,-1,-1,-1,-1,-1,-1,-1,-1,-1,-1,-1,-1,-1,-1,-1,-1,-1,-1,-1],"loss_changes":[4.094577E10,8.241912E9,6.080716E9,4.935108E9,3.4348032E9,3.2834796E9,1.4496215E9,4.9971123E9,7.9491994E9,4.493564E9,3.5851924E9,3.3930614E9,4.2409884E9,4.5852774E8,2.405864E9,1.9932403E9,2.8783616E9,2.1227067E9,2.5352591E9,9.5823174E8,5.1336274E9,2.0169137E9,3.904581E8,7.8495314E9,2.521302E9,5.846388E9,2.399014E9,1.293312E8,1.149587E9,5.5663E8,3.1594353E9,0E0,0E0,0E0,0E0,0E0,0E0,0E0,0E0,0E0,0E0,0E0,0E0,0E0,0E0,0E0,0E0,0E0,0E0,0E0,0E0,0E0,0E0,0E0,0E0,0E0,0E0,0E0,0E0,0E0,0E0,0E0,0E0],"parents":[2147483647,0,0,1,1,2,2,3,3,4,4,5,5,6,6,7,7,8,8,9,9,10,10,11,11,12,12,13,13,14,14,15,15,16,16,17,17,18,18,19,19,20,20,21,21,22,22,23,23,24,24,25,25,26,26,27,27,28,28,29,29,30,30],"right_children":[2,4,6,8,10,12,14,16,18,20,22,24,26,28,30,32,34,36,38,40,42,44,46,48,50,52,54,56,58,60,62,-1,-1,-1,-1,-1,-1,-1,-1,-1,-1,-1,-1,-1,-1,-1,-1,-1,-1,-1,-1,-1,-1,-1,-1,-1,-1,-1,-1,-1,-1,-1,-1],"split_conditions":[9.9832976E-1,3.2905996E-1,9.988852E-1,7.500586E2,1.7511839E1,2.856673E2,6.270379E-2,4.6671724E0,2.798005E2,1.142974E0,4.848996E2,1.1762045E3,1.8258381E0,3.0303125E-3,4.8634E-1,9.72755E1,1.9978274E0,1.6760698E1,2.3252253E-1,6.3798103E0,3.3367273E2,1.9100157E1,3.03616E2,2.5914304E2,1.6760698E1,1.141428E3,3.2255753E1,1.7095146E-3,7.83752E-1,1.7095146E-3,5.242334E-2,-3.5549282E1,1.3877464E2,-2.2122888E2,-8.891101E1,-4.438958E1,1.4484447E1,-3.8373108E1,7.860218E1,-2.7628279E1,-2.7447925E2,-1.17758644E2,1.20735374E2,5.5536987E1,-4.3583183E1,-2.579464E2,-1.2116235E2,-8.571965E-1,-1.1728701E2,-1.314609E1,4.4833443E1,-1.9356541E2,6.2199444E1,-1.5291978E2,7.474448E1,7.443423E1,5.4720287E1,-1.1026841E2,4.2915207E1,7.634976E1,-1.524914E1,-5.3806618E1,2.6879597E1],"split_indices":[8,7,8,2,1,0,7,3,0,0,3,2,1,3,0,2,1,3,7,7,0,2,0,2,3,2,2,3,0,3,2,0,0,0,0,0,0,0,0,0,0,0,0,0,0,0,0,0,0,0,0,0,0,0,0,0,0,0,0,0,0,0,0],"split_type":[0,0,0,0,0,0,0,0,0,0,0,0,0,0,0,0,0,0,0,0,0,0,0,0,0,0,0,0,0,0,0,0,0,0,0,0,0,0,0,0,0,0,0,0,0,0,0,0,0,0,0,0,0,0,0,0,0,0,0,0,0,0,0],"sum_hessian":[8.3319E4,2.8968E4,5.4351E4,1.6609E4,1.2359E4,1.9186E4,3.5165E4,3.743E3,1.2866E4,9.978E3,2.381E3,1.4862E4,4.324E3,1.8254E4,1.6911E4,1.924E3,1.819E3,9.663E3,3.203E3,2.386E3,7.592E3,2.146E3,2.35E2,7.363E3,7.499E3,8.98E2,3.426E3,7.653E3,1.0601E4,2.74E3,1.4171E4,1.744E3,1.8E2,6.29E2,1.19E3,7.756E3,1.907E3,5.61E2,2.642E3,2.347E3,3.9E1,7.36E3,2.32E2,8.47E2,1.299E3,1.51E2,8.4E1,5.384E3,1.979E3,3.779E3,3.72E3,4.12E2,4.86E2,1.19E2,3.307E3,9.6E2,6.693E3,1.23E2,1.0478E4,2.563E3,1.77E2,1.339E3,1.2832E4],"tree_param":{"num_deleted":"0","num_feature":"9","num_nodes":"63","size_leaf_vector":"1"}},{"base_weights":[5.201884E0,-7.484922E2,5.650659E2,7.955769E1,-1.2227421E3,6.6510034E2,-3.003967E2,4.4210925E2,-1.718262E3,-1.558674E3,-4.7637674E2,7.3351184E2,-1.7364653E2,-3.5951047E3,-7.83283E1,6.681891E2,-1.4382427E3,-1.6754662E2,-2.1871768E3,-1.078512E3,-2.5222083E3,-2.2174467E2,-2.5011646E3,9.3620074E2,6.1087445E2,1.1073638E3,-6.59736E2,1.2855918E3,-4.312307E3,-6.74033E2,5.305909E2,4.6159393E1,-3.8333213E0,-9.966026E1,9.484267E1,-1.3620749E2,5.2042065E1,-2.7037207E2,-7.913412E1,-2.5156187E1,-7.869791E1,-1.5601903E2,-5.06561E1,4.325571E1,-2.7860937E1,-3.6795574E1,-1.4720586E2,5.7846954E1,4.244514E1,2.024837E1,5.0731018E1,1.9786125E2,4.632241E1,-4.7446728E1,6.883879E1,-2.031578E2,1.4584503E2,-2.7918344E2,-1.430539E2,1.3114435E1,-2.1064177E2,-2.8426764E2,2.9374273E1],"categories":[],"categories_nodes":[],"categories_segments":[],"categories_sizes":[],"default_left":[0,0,0,0,0,0,0,0,0,0,0,0,0,0,0,0,0,0,0,0,0,0,0,0,0,0,0,0,0,0,0,0,0,0,0,0,0,0,0,0,0,0,0,0,0,0,0,0,0,0,0,0,0,0,0,0,0,0,0,0,0,0,0],"id":18,"left_children":[1,3,5,7,9,11,13,15,17,19,21,23,25,27,29,31,33,35,37,39,41,43,45,47,49,51,53,55,57,59,61,-1,-1,-1,-1,-1,-1,-1,-1,-1,-1,-1,-1,-1,-1,-1,-1,-1,-1,-1,-1,-1,-1,-1,-1,-1,-1,-1,-1,-1,-1,-1,-1],"loss_changes":[3.529325E10,1.399955E10,4.1550705E9,8.463109E9,5.682508E9,2.4685568E9,3.6382164E9,4.59427E9,1.5841004E9,7.2290017E9,3.6275523E9,9.8812314E8,2.0213454E9,1.1046845E9,1.6907075E9,1.8322058E9,2.1507704E9,1.5691452E9,3.2481577E9,2.9736694E9,4.6890394E9,2.280042E9,6.124257E8,2.8791296E8,2.0599859E9,4.5675072E8,1.3871206E9,3.6959568E8,4.8956467E8,7.807611E9,8.18512E8,0E0,0E0,0E0,0E0,0E0,0E0,0E0,0E0,0E0,0E0,0E0,0E0,0E0,0E0,0E0,0E0,0E0,0E0,0E0,0E0,0E0,0E0,0E0,0E0,0E0,0E0,0E0,0E0,0E0,0E0,0E0,0E0],"parents":[2147483647,0,0,1,1,2,2,3,3,4,4,5,5,6,6,7,7,8,8,9,9,10,10,11,11,12,12,13,13,14,14,15,15,16,16,17,17,18,18,19,19,20,20,21,21,22,22,23,23,24,24,25,25,26,26,27,27,28,28,29,29,30,30],"right_children":[2,4,6,8,10,12,14,16,18,20,22,24,26,28,30,32,34,36,38,40,42,44,46,48,50,52,54,56,58,60,62,-1,-1,-1,-1,-1,-1,-1,-1,-1,-1,-1,-1,-1,-1,-1,-1,-1,-1,-1,-1,-1,-1,-1,-1,-1,-1,-1,-1,-1,-1,-1,-1],"split_conditions":[9.985382E-1,-6.42568E-2,9.388369E-3,4.0560448E-1,2.7944064E2,2.1543562E1,2.7649084E1,2.968514E2,1.6261421E2,3.7656954E-1,1.0963202E0,5.641302E-2,2.7047278E2,5.228626E-2,2.737352E2,2.941364E-1,-1.3360699E-1,9.999996E-1,1.9176472E1,3.334041E-1,1.838672E1,2.2151044E-1,2.0177448E0,2.645097E-3,4.170543E1,-2.6898088E0,2.8661337E2,1.0000008E0,9.7988985E-2,2.714667E2,8.940767E-1,4.6159393E1,-3.8333213E0,-9.966026E1,9.484267E1,-1.3620749E2,5.2042065E1,-2.7037207E2,-7.913412E1,-2.5156187E1,-7.869791E1,-1.5601903E2,-5.06561E1,4.325571E1,-2.7860937E1,-3.6795574E1,-1.4720586E2,5.7846954E1,4.244514E1,2.024837E1,5.0731018E1,1.9786125E2,4.632241E1,-4.7446728E1,6.883879E1,-2.031578E2,1.4584503E2,-2.7918344E2,-1.430539E2,1.3114435E1,-2.1064177E2,-2.8426764E2,2.9374273E1],"split_indices":[8,5,5,7,0,3,0,0,0,5,7,7,0,7,0,7,5,6,3,7,3,7,3,3,0,5,0,6,7,0,3,0,0,0,0,0,0,0,0,0,0,0,0,0,0,0,0,0,0,0,0,0,0,0,0,0,0,0,0,0,0,0,0],"split_type":[0,0,0,0,0,0,0,0,0,0,0,0,0,0,0,0,0,0,0,0,0,0,0,0,0,0,0,0,0,0,0,0,0,0,0,0,0,0,0,0,0,0,0,0,0,0,0,0,0,0,0,0,0,0,0,0,0,0,0,0,0,0,0],"sum_hessian":[8.3638E4,3.5648E4,4.799E4,1.2982E4,2.2666E4,4.3018E4,4.972E3,1.0804E4,2.178E3,1.563E4,7.036E3,3.9774E4,3.244E3,3.13E2,4.659E3,9.645E3,1.159E3,5.06E2,1.672E3,1.0433E4,5.197E3,6.251E3,7.85E2,1.4991E4,2.4783E4,8.92E2,2.352E3,4E1,2.73E2,2.355E3,2.304E3,7.185E3,2.46E3,9.94E2,1.65E2,1.62E2,3.44E2,2.63E2,1.409E3,4.828E3,5.605E3,3.721E3,1.476E3,1.474E3,4.777E3,1.58E2,6.27E2,4.245E3,1.0746E4,1.6414E4,8.369E3,5.2E1,8.4E2,2.06E3,2.92E2,9E0,3.1E1,1.44E2,1.29E2,1.863E3,4.92E2,2E1,2.284E3],"tree_param":{"num_deleted":"0","num_feature":"9","num_nodes":"63","size_leaf_vector":"1"}},{"base_weights":[-1.333679E0,-1.0756976E3,3.4902286E2,-8.0307385E2,-1.9241128E3,5.911367E2,-6.654279E2,-1.5695227E3,-6.9792816E1,-2.5999631E3,-7.115042E2,4.5899545E2,1.2520077E3,-6.9182755E1,-1.9320847E3,-1.8223867E3,3.1510855E1,-5.0027054E2,5.788048E2,-2.8963916E3,2.1614524E3,-3.0272708E3,2.591798E2,6.3233386E2,-1.7651721E3,1.2669651E3,-5.8250776E3,-1.7665259E3,5.346266E2,-2.4183635E3,1.3845852E3,-3.515431E1,-1.2679209E2,5.4817974E1,-8.4476814E1,-1.5781647E1,-1.2736767E2,-2.8190274E2,3.443169E1,-2.1691649E2,-1.1441616E2,1.3610631E2,-2.5006804E2,1.3328323E2,-1.7951288E2,-9.4955284E1,1.2068141E2,4.1857467E0,3.6534485E1,-1.4403802E2,-1.0856193E1,6.7940186E1,5.674183E0,6.893096E1,-3.6788623E2,-3.451672E1,-1.9679907E2,7.847842E1,7.3406177E0,-1.4109953E2,5.084956E1,1.034257E2,-2.5965646E2],"categories":[],"categories_nodes":[],"categories_segments":[],"categories_sizes":[],"default_left":[0,0,0,0,0,0,0,0,0,0,0,0,0,0,0,0,0,0,0,0,0,0,0,0,0,0,0,0,0,0,0,0,0,0,0,0,0,0,0,0,0,0,0,0,0,0,0,0,0,0,0,0,0,0,0,0,0,0,0,0,0,0,0],"id":19,"left_children":[1,3,5,7,9,11,13,15,17,19,21,23,25,27,29,31,33,35,37,39,41,43,45,47,49,51,53,55,57,59,61,-1,-1,-1,-1,-1,-1,-1,-1,-1,-1,-1,-1,-1,-1,-1,-1,-1,-1,-1,-1,-1,-1,-1,-1,-1,-1,-1,-1,-1,-1,-1,-1],"loss_changes":[3.1355742E10,4.736596E9,1.5429038E10,8.714049E9,4.0802877E9,4.428196E9,9.141265E9,3.0691779E9,2.2130038E9,4.519981E9,4.0109983E9,1.6295691E10,9.0185216E8,8.436663E9,6.251438E9,5.226459E9,1.89865E9,1.7998377E9,2.1628685E9,2.6301071E9,7.6862285E8,1.6986301E9,5.854176E9,2.1157069E9,5.2770396E9,8.931891E8,2.0887648E8,5.0403425E9,2.436859E9,4.6881976E9,2.2420913E9,0E0,0E0,0E0,0E0,0E0,0E0,0E0,0E0,0E0,0E0,0E0,0E0,0E0,0E0,0E0,0E0,0E0,0E0,0E0,0E0,0E0,0E0,0E0,0E0,0E0,0E0,0E0,0E0,0E0,0E0,0E0,0E0],"parents":[2147483647,0,0,1,1,2,2,3,3,4,4,5,5,6,6,7,7,8,8,9,9,10,10,11,11,12,12,13,13,14,14,15,15,16,16,17,17,18,18,19,19,20,20,21,21,22,22,23,23,24,24,25,25,26,26,27,27,28,28,29,29,30,30],"right_children":[2,4,6,8,10,12,14,16,18,20,22,24,26,28,30,32,34,36,38,40,42,44,46,48,50,52,54,56,58,60,62,-1,-1,-1,-1,-1,-1,-1,-1,-1,-1,-1,-1,-1,-1,-1,-1,-1,-1,-1,-1,-1,-1,-1,-1,-1,-1,-1,-1,-1,-1,-1,-1],"split_conditions":[9.9801487E-1,3.530331E-1,5.215851E-3,9.9703497E-1,3.8576653E1,1.2614216E3,1.7112266E3,2.954154E1,8.536287E0,5.1905342E1,9.786899E-1,5.7527295E2,4.785505E1,5.8019608E1,2.6034164E0,2.6561326E-1,1.9100157E1,2.3185771E3,2.990997E2,9.975189E-1,3.001779E1,7.258915E0,6.721983E2,9.9881023E-1,1.0451709E3,-2.147858E-1,2.6034164E0,3.001779E1,1.8837968E2,1.980498E1,9.98484E-1,-3.515431E1,-1.2679209E2,5.4817974E1,-8.4476814E1,-1.5781647E1,-1.2736767E2,-2.8190274E2,3.443169E1,-2.1691649E2,-1.1441616E2,1.3610631E2,-2.5006804E2,1.3328323E2,-1.7951288E2,-9.4955284E1,1.2068141E2,4.1857467E0,3.6534485E1,-1.4403802E2,-1.0856193E1,6.7940186E1,5.674183E0,6.893096E1,-3.6788623E2,-3.451672E1,-1.9679907E2,7.847842E1,7.3406177E0,-1.4109953E2,5.084956E1,1.034257E2,-2.5965646E2],"split_indices":[8,5,5,8,3,2,2,1,3,1,8,2,3,2,1,1,2,2,2,8,2,1,2,8,2,5,1,2,2,3,8,0,0,0,0,0,0,0,0,0,0,0,0,0,0,0,0,0,0,0,0,0,0,0,0,0,0,0,0,0,0,0,0],"split_type":[0,0,0,0,0,0,0,0,0,0,0,0,0,0,0,0,0,0,0,0,0,0,0,0,0,0,0,0,0,0,0,0,0,0,0,0,0,0,0,0,0,0,0,0,0,0,0,0,0,0,0,0,0,0,0,0,0,0,0,0,0,0,0],"sum_hessian":[8.33E4,2.0484E4,6.2816E4,1.5504E4,4.98E3,5.0713E4,1.2103E4,7.58E3,7.924E3,3.197E3,1.783E3,4.2264E4,8.449E3,8.23E3,3.873E3,6.546E3,1.034E3,4.763E3,3.161E3,3.01E3,1.87E2,5.26E2,1.257E3,3.9209E4,3.055E3,8.432E3,1.7E1,2.159E3,6.071E3,3.378E3,4.95E2,2.549E3,3.997E3,6.39E2,3.95E2,4.37E3,3.93E2,5.4E1,3.107E3,8.91E2,2.119E3,1.74E2,1.3E1,4.7E1,4.79E2,6.28E2,6.29E2,5.961E3,3.3248E4,1.775E3,1.28E3,7.81E3,6.22E2,3E0,1.4E1,1.444E3,7.15E2,1.654E3,4.417E3,3.023E3,3.55E2,4.49E2,4.6E1],"tree_param":{"num_deleted":"0","num_feature":"9","num_nodes":"63","size_leaf_vector":"1"}},{"base_weights":[1.3511302E0,-6.5890314E2,5.1519965E2,1.2362408E2,-1.1082888E3,6.311537E2,1.1422902E1,4.8307443E2,-1.5467526E3,-1.4336895E3,-3.7928958E2,1.2850945E3,5.3910626E2,-2.1650589E2,1.30648E3,6.5081464E2,-1.1454928E3,-2.1676528E3,7.5269905E1,-1.5969806E2,-1.8054155E3,-1.024353E3,2.6443985E2,-3.626901E2,1.2957218E3,6.1878876E2,-9.9712616E2,-1.1516029E3,4.2001507E1,-2.596362E2,1.385526E3,4.85253E1,-2.574108E0,-1.8235834E2,2.221593E1,-1.6645338E2,-6.3191017E1,5.8271187E1,-1.01846756E2,-1.3303918E2,-2.8079488E0,-9.715478E1,4.858314E1,-6.3902435E1,8.030289E1,-6.290536E1,2.7489918E1,4.8724083E1,7.2023254E1,-2.0629183E1,3.443243E1,-2.2871732E2,-4.933755E0,-9.9769424E1,-1.50053625E1,-1.9625458E1,1.512413E1,7.619609E1,-7.488722E1],"categories":[],"categories_nodes":[],"categories_segments":[],"categories_sizes":[],"default_left":[0,0,0,0,0,0,0,0,0,0,0,0,0,0,0,0,0,0,0,0,0,0,0,0,0,0,0,0,0,0,0,0,0,0,0,0,0,0,0,0,0,0,0,0,0,0,0,0,0,0,0,0,0,0,0,0,0,0,0],"id":20,"left_children":[1,3,5,7,9,11,13,15,17,19,21,23,25,27,29,31,33,35,37,39,41,43,45,-1,47,49,51,53,55,-1,57,-1,-1,-1,-1,-1,-1,-1,-1,-1,-1,-1,-1,-1,-1,-1,-1,-1,-1,-1,-1,-1,-1,-1,-1,-1,-1,-1,-1],"loss_changes":[2.8304333E10,1.2839822E10,2.7405312E9,7.998308E9,5.501225E9,2.294911E9,2.591675E9,2.9953027E9,2.3759457E9,7.5935007E9,2.9730196E9,4.363561E8,4.0931779E9,1.8048009E9,6.822441E8,2.2315364E9,4.0742625E9,1.786623E9,1.5082929E9,9.3806304E8,4.7479726E9,2.388402E9,1.5578382E9,0E0,2.1713357E8,2.2904433E9,5.2993644E9,1.1611828E9,6.622324E8,0E0,5.2062566E8,0E0,0E0,0E0,0E0,0E0,0E0,0E0,0E0,0E0,0E0,0E0,0E0,0E0,0E0,0E0,0E0,0E0,0E0,0E0,0E0,0E0,0E0,0E0,0E0,0E0,0E0,0E0,0E0],"parents":[2147483647,0,0,1,1,2,2,3,3,4,4,5,5,6,6,7,7,8,8,9,9,10,10,11,11,12,12,13,13,14,14,15,15,16,16,17,17,18,18,19,19,20,20,21,21,22,22,24,24,25,25,26,26,27,27,28,28,30,30],"right_children":[2,4,6,8,10,12,14,16,18,20,22,24,26,28,30,32,34,36,38,40,42,44,46,-1,48,50,52,54,56,-1,58,-1,-1,-1,-1,-1,-1,-1,-1,-1,-1,-1,-1,-1,-1,-1,-1,-1,-1,-1,-1,-1,-1,-1,-1,-1,-1,-1,-1],"split_conditions":[9.9856704E-1,-6.42568E-2,2.7021613E2,5.0047197E0,2.798005E2,-4.611435E-2,2.8661337E2,2.9591702E2,2.954154E1,1.142974E0,9.9800193E-1,1.6781094E1,4.000339E0,9.986842E-1,8.940767E-1,-4.54102E-1,1.9872105E0,2.8757703E2,8.536287E0,2.414331E-2,2.954154E1,3.3367273E2,1.6083338E0,-3.626901E2,2.2159657E0,-2.3593742E-4,2.7649084E1,2.7875592E2,-8.090111E-1,-2.596362E2,1.659316E0,4.85253E1,-2.574108E0,-1.8235834E2,2.221593E1,-1.6645338E2,-6.3191017E1,5.8271187E1,-1.01846756E2,-1.3303918E2,-2.8079488E0,-9.715478E1,4.858314E1,-6.3902435E1,8.030289E1,-6.290536E1,2.7489918E1,4.8724083E1,7.2023254E1,-2.0629183E1,3.443243E1,-2.2871732E2,-4.933755E0,-9.9769424E1,-1.50053625E1,-1.9625458E1,1.512413E1,7.619609E1,-7.488722E1],"split_indices":[8,5,0,1,0,5,0,0,1,0,8,0,1,8,3,5,1,0,3,1,1,0,1,0,1,5,0,0,5,0,5,0,0,0,0,0,0,0,0,0,0,0,0,0,0,0,0,0,0,0,0,0,0,0,0,0,0,0,0],"split_type":[0,0,0,0,0,0,0,0,0,0,0,0,0,0,0,0,0,0,0,0,0,0,0,0,0,0,0,0,0,0,0,0,0,0,0,0,0,0,0,0,0,0,0,0,0,0,0,0,0,0,0,0,0,0,0,0,0,0,0],"sum_hessian":[8.3425E4,3.6511E4,4.6914E4,1.3319E4,2.3192E4,3.8136E4,8.778E3,1.0961E4,2.358E3,1.6034E4,7.158E3,4.704E3,3.3432E4,7.465E3,1.313E3,9.938E3,1.023E3,1.705E3,6.53E2,3.622E3,1.2412E4,3.575E3,3.583E3,5E0,4.699E3,3.1784E4,1.648E3,1.616E3,5.849E3,1.5E1,1.298E3,6.829E3,3.109E3,3.97E2,6.26E2,7.45E2,9.6E2,4.31E2,2.22E2,1.43E2,3.479E3,1.1826E4,5.86E2,3.261E3,3.14E2,5.65E2,3.018E3,1.462E3,3.237E3,2.016E3,2.9768E4,3.3E2,1.318E3,8.11E2,8.05E2,2.192E3,3.657E3,1.239E3,5.9E1],"tree_param":{"num_deleted":"0","num_feature":"9","num_nodes":"59","size_leaf_vector":"1"}},{"base_weights":[-6.7885146E0,3.161128E2,-9.921707E2,5.40447E2,-6.086347E2,-6.876954E2,-1.597363E3,4.276503E2,1.1963304E3,-1.3425577E2,-1.8417585E3,-2.745817E2,-1.8064753E3,-1.8800121E3,-1.2427359E2,5.7825E2,-1.0633492E3,1.2165995E3,-6.3812954E3,-1.6628469E3,3.865238E2,-2.2541736E3,1.5595121E3,-6.139633E2,3.939146E2,-2.5084917E3,6.7252893E2,-7.1727924E2,-2.3450442E3,9.3792664E2,-2.842159E3,3.5077587E1,1.2082056E1,-1.3093887E2,7.442065E0,6.588738E1,3.7687767E0,4.675148E1,-3.6230835E2,-1.5822112E1,-1.7693129E2,7.2845474E1,-3.2104203E-1,-3.0702307E1,-1.4033052E2,-5.3991524E1,1.7989282E2,-4.900383E1,3.7712605E1,-2.447805E2,2.825509E1,-2.0213654E1,-1.4714447E2,-1.4041533E2,1.2058575E2,-1.5025854E2,-4.333866E0,-1.5277927E2,-7.351205E1,6.552677E1,-9.739181E1,-5.8535686E1,-2.206449E2],"categories":[],"categories_nodes":[],"categories_segments":[],"categories_sizes":[],"default_left":[0,0,0,0,0,0,0,0,0,0,0,0,0,0,0,0,0,0,0,0,0,0,0,0,0,0,0,0,0,0,0,0,0,0,0,0,0,0,0,0,0,0,0,0,0,0,0,0,0,0,0,0,0,0,0,0,0,0,0,0,0,0,0],"id":21,"left_children":[1,3,5,7,9,11,13,15,17,19,21,23,25,27,29,31,33,35,37,39,41,43,45,47,49,51,53,55,57,59,61,-1,-1,-1,-1,-1,-1,-1,-1,-1,-1,-1,-1,-1,-1,-1,-1,-1,-1,-1,-1,-1,-1,-1,-1,-1,-1,-1,-1,-1,-1,-1,-1],"loss_changes":[2.660567E10,1.3065688E10,3.8017884E9,3.7492419E9,7.19252E9,6.346204E9,2.8756132E9,9.711925E9,1.1500237E9,7.0704425E9,4.795257E9,2.2758019E9,6.4460237E9,3.1317217E9,3.2158282E9,1.630209E9,7.4819564E9,8.5618074E8,1.3332896E8,5.699064E9,2.7864996E9,2.7590646E9,1.9944442E9,3.333372E9,3.0615414E9,2.6368102E9,4.958798E9,2.3903744E9,2.5682432E9,8.6383635E8,8.165852E8,0E0,0E0,0E0,0E0,0E0,0E0,0E0,0E0,0E0,0E0,0E0,0E0,0E0,0E0,0E0,0E0,0E0,0E0,0E0,0E0,0E0,0E0,0E0,0E0,0E0,0E0,0E0,0E0,0E0,0E0,0E0,0E0],"parents":[2147483647,0,0,1,1,2,2,3,3,4,4,5,5,6,6,7,7,8,8,9,9,10,10,11,11,12,12,13,13,14,14,15,15,16,16,17,17,18,18,19,19,20,20,21,21,22,22,23,23,24,24,25,25,26,26,27,27,28,28,29,29,30,30],"right_children":[2,4,6,8,10,12,14,16,18,20,22,24,26,28,30,32,34,36,38,40,42,44,46,48,50,52,54,56,58,60,62,-1,-1,-1,-1,-1,-1,-1,-1,-1,-1,-1,-1,-1,-1,-1,-1,-1,-1,-1,-1,-1,-1,-1,-1,-1,-1,-1,-1,-1,-1,-1,-1],"split_conditions":[2.6327416E-1,5.215851E-3,6.504289E-1,1.3865602E3,1.7790857E3,3.530331E-1,3.4402027E1,5.7527295E2,4.1179466E1,5.8019608E1,2.6296246E0,8.9325E0,3.8576653E1,1.248516E0,3.9000362E1,1.0908145E-1,1.0451709E3,-2.147858E-1,2.6617096E2,1.9100157E1,2.1289687E2,3.530331E-1,2.0234666E3,2.798005E2,2.990997E2,2.5435735E2,6.371042E2,5.4229926E-3,4.4352947E1,2.780866E2,3.982637E1,3.5077587E1,1.2082056E1,-1.3093887E2,7.442065E0,6.588738E1,3.7687767E0,4.675148E1,-3.6230835E2,-1.5822112E1,-1.7693129E2,7.2845474E1,-3.2104203E-1,-3.0702307E1,-1.4033052E2,-5.3991524E1,1.7989282E2,-4.900383E1,3.7712605E1,-2.447805E2,2.825509E1,-2.0213654E1,-1.4714447E2,-1.4041533E2,1.2058575E2,-1.5025854E2,-4.333866E0,-1.5277927E2,-7.351205E1,6.552677E1,-9.739181E1,-5.8535686E1,-2.206449E2],"split_indices":[7,5,7,2,2,5,1,2,3,2,1,3,3,0,2,7,2,5,0,2,2,5,2,0,2,0,2,3,3,0,1,0,0,0,0,0,0,0,0,0,0,0,0,0,0,0,0,0,0,0,0,0,0,0,0,0,0,0,0,0,0,0,0],"split_type":[0,0,0,0,0,0,0,0,0,0,0,0,0,0,0,0,0,0,0,0,0,0,0,0,0,0,0,0,0,0,0,0,0,0,0,0,0,0,0,0,0,0,0,0,0,0,0,0,0,0,0,0,0,0,0,0,0,0,0,0,0,0,0],"sum_hessian":[8.3616E4,6.2979E4,2.0637E4,5.0684E4,1.2295E4,1.3731E4,6.906E3,4.3248E4,7.436E3,8.88E3,3.415E3,1.0029E4,3.702E3,5.794E3,1.112E3,3.9281E4,3.967E3,7.417E3,1.9E1,2.256E3,6.624E3,3.046E3,3.69E2,6.652E3,3.377E3,2.885E3,8.17E2,1.656E3,4.138E3,8E2,3.12E2,2.8749E4,1.0532E4,1.737E3,2.23E3,6.813E3,6.04E2,2E0,1.7E1,1.314E3,9.42E2,1.778E3,4.846E3,7.68E2,2.278E3,1.61E2,2.08E2,5.248E3,1.404E3,1.05E2,3.272E3,4.94E2,2.391E3,2.72E2,5.45E2,3.57E2,1.299E3,2.282E3,1.856E3,7.09E2,9.1E1,1.52E2,1.6E2],"tree_param":{"num_deleted":"0","num_feature":"9","num_nodes":"63","size_leaf_vector":"1"}},{"base_weights":[9.946691E-1,3.0272427E2,-9.4516376E2,5.135382E2,-5.6347253E2,-6.448525E2,-1.5793225E3,-4.0571414E2,5.8737274E2,-5.866111E1,-1.6414711E3,-2.4968272E2,-1.7667941E3,-1.9224641E3,-4.5110464E2,-1.6954589E3,1.0282017E3,4.9711307E2,1.1301205E3,-1.5645117E3,4.7726752E2,-2.067938E3,1.3523165E3,-3.192427E2,3.0204895E3,-2.4178574E3,9.0229926E2,-8.134591E2,-2.4201477E3,1.02302124E3,-1.6492848E3,4.3540844E1,-1.1744442E2,5.7221905E1,-1.3317822E2,2.8254293E1,-6.3559742E1,6.256913E1,-2.9778917E0,-2.3378042E1,-1.8249873E2,-6.415453E1,3.3687805E1,-1.1926776E2,6.586642E1,-2.777937E2,9.956181E1,-4.6881435E1,4.472669E-1,1.5862343E2,6.58865E1,-2.332213E1,-1.4435718E2,-6.9254814E1,1.2062219E2,-8.0623314E1,5.5456432E1,-1.60183E2,-8.7814766E1,3.0563665E1,1.5291698E2,1.8475272E2,-9.971978E1],"categories":[],"categories_nodes":[],"categories_segments":[],"categories_sizes":[],"default_left":[0,0,0,0,0,0,0,0,0,0,0,0,0,0,0,0,0,0,0,0,0,0,0,0,0,0,0,0,0,0,0,0,0,0,0,0,0,0,0,0,0,0,0,0,0,0,0,0,0,0,0,0,0,0,0,0,0,0,0,0,0,0,0],"id":22,"left_children":[1,3,5,7,9,11,13,15,17,19,21,23,25,27,29,31,33,35,37,39,41,43,45,47,49,51,53,55,57,59,61,-1,-1,-1,-1,-1,-1,-1,-1,-1,-1,-1,-1,-1,-1,-1,-1,-1,-1,-1,-1,-1,-1,-1,-1,-1,-1,-1,-1,-1,-1,-1,-1],"loss_changes":[2.3817077E10,1.1551053E10,3.840639E9,3.453189E9,6.7380137E9,6.069564E9,2.5085635E9,6.9979684E9,2.306392E9,6.8072253E9,5.044687E9,2.3043566E9,6.198994E9,2.7411415E9,2.674051E9,3.3423913E9,7.720274E8,4.854148E9,9.6865536E8,5.0631516E9,2.152648E9,3.7178337E9,2.187056E9,2.0124296E9,5.042304E7,2.624171E9,2.4213501E9,2.3690132E9,1.7784402E9,5.6715846E8,1.5474345E9,0E0,0E0,0E0,0E0,0E0,0E0,0E0,0E0,0E0,0E0,0E0,0E0,0E0,0E0,0E0,0E0,0E0,0E0,0E0,0E0,0E0,0E0,0E0,0E0,0E0,0E0,0E0,0E0,0E0,0E0,0E0,0E0],"parents":[2147483647,0,0,1,1,2,2,3,3,4,4,5,5,6,6,7,7,8,8,9,9,10,10,11,11,12,12,13,13,14,14,15,15,16,16,17,17,18,18,19,19,20,20,21,21,22,22,23,23,24,24,25,25,26,26,27,27,28,28,29,29,30,30],"right_children":[2,4,6,8,10,12,14,16,18,20,22,24,26,28,30,32,34,36,38,40,42,44,46,48,50,52,54,56,58,60,62,-1,-1,-1,-1,-1,-1,-1,-1,-1,-1,-1,-1,-1,-1,-1,-1,-1,-1,-1,-1,-1,-1,-1,-1,-1,-1,-1,-1,-1,-1,-1,-1],"split_conditions":[2.6497847E-1,5.215851E-3,7.044396E-1,-1.4990841E0,1.7112266E3,3.530331E-1,2.5040354E1,1.141428E3,1.3865602E3,5.8019608E1,2.6034164E0,3.3367273E2,2.2348814E0,1.26748E0,1.9100157E1,-2.3679316E0,2.9591702E2,2.5914304E2,-2.147858E-1,3.001779E1,1.6083338E0,1.3421421E0,2.013334E-1,3.4139975E2,7.881385E1,2.5498853E2,7.095186E2,2.1200993E0,2.6513297E2,3.3748704E-1,-3.6098515E1,4.3540844E1,-1.1744442E2,5.7221905E1,-1.3317822E2,2.8254293E1,-6.3559742E1,6.256913E1,-2.9778917E0,-2.3378042E1,-1.8249873E2,-6.415453E1,3.3687805E1,-1.1926776E2,6.586642E1,-2.777937E2,9.956181E1,-4.6881435E1,4.472669E-1,1.5862343E2,6.58865E1,-2.332213E1,-1.4435718E2,-6.9254814E1,1.2062219E2,-8.0623314E1,5.5456432E1,-1.60183E2,-8.7814766E1,3.0563665E1,1.5291698E2,1.8475272E2,-9.971978E1],"split_indices":[7,5,7,5,2,5,1,2,2,2,1,0,5,0,2,5,0,2,5,2,1,5,7,2,2,0,2,7,0,5,4,0,0,0,0,0,0,0,0,0,0,0,0,0,0,0,0,0,0,0,0,0,0,0,0,0,0,0,0,0,0,0,0],"split_type":[0,0,0,0,0,0,0,0,0,0,0,0,0,0,0,0,0,0,0,0,0,0,0,0,0,0,0,0,0,0,0,0,0,0,0,0,0,0,0,0,0,0,0,0,0,0,0,0,0,0,0,0,0,0,0,0,0,0,0,0,0,0,0],"sum_hessian":[8.3425E4,6.3254E4,2.0171E4,5.0873E4,1.2381E4,1.369E4,6.481E3,3.782E3,4.7091E4,8.433E3,3.948E3,1.0125E4,3.565E3,4.969E3,1.512E3,1.991E3,1.791E3,4.0378E4,6.713E3,2.213E3,6.22E3,3.456E3,4.92E2,9.915E3,2.1E2,2.866E3,6.99E2,1.54E3,3.429E3,6.78E2,8.34E2,4.04E2,1.587E3,1.737E3,5.4E1,3.8884E4,1.494E3,6.092E3,6.21E2,1.451E3,7.62E2,6.24E2,5.596E3,3.16E3,2.96E2,4.1E1,4.51E2,3.437E3,6.478E3,1.92E2,1.8E1,5.56E2,2.31E3,2.78E2,4.21E2,1.088E3,4.52E2,1.571E3,1.858E3,5.65E2,1.13E2,5E1,7.84E2],"tree_param":{"num_deleted":"0","num_feature":"9","num_nodes":"63","size_leaf_vector":"1"}},{"base_weights":[-8.675975E-1,-5.933378E2,4.375246E2,-1.4532164E3,-3.8796268E2,6.910373E2,2.2100026E2,-1.8284017E3,-4.8847916E2,-6.293054E2,5.761689E1,3.7976648E2,8.447537E2,5.7584267E1,7.1658636E2,-6.633404E2,-2.4109077E3,-6.3395027E1,-3.418325E3,8.145979E2,-7.476615E2,-1.5042964E3,3.2985693E2,9.654456E2,-3.7342062E2,-4.2891156E2,8.840033E2,2.6321573E2,-1.6196062E3,1.2686517E3,1.9976619E2,-1.282015E2,8.124322E-1,-1.493731E2,-7.630041E1,4.3285995E1,-4.0842644E1,-2.188861E2,-8.545287E1,-9.803999E1,6.1523476E1,-8.324822E1,-2.612597E1,-1.8052306E2,3.3933256E0,2.0883327E1,-1.3944873E2,-4.0917545E1,6.0940132E1,-1.3585846E2,-4.452482E0,9.252714E0,-1.4898679E2,6.857467E1,4.01589E1,-6.242267E0,3.6406384E1,-1.16740395E2,-1.0220574E0,-5.284682E1,6.6055275E1,-1.3701817E2,3.7439972E1],"categories":[],"categories_nodes":[],"categories_segments":[],"categories_sizes":[],"default_left":[0,0,0,0,0,0,0,0,0,0,0,0,0,0,0,0,0,0,0,0,0,0,0,0,0,0,0,0,0,0,0,0,0,0,0,0,0,0,0,0,0,0,0,0,0,0,0,0,0,0,0,0,0,0,0,0,0,0,0,0,0,0,0],"id":23,"left_children":[1,3,5,7,9,11,13,15,17,19,21,23,25,27,29,31,33,35,37,39,41,43,45,47,49,51,53,55,57,59,61,-1,-1,-1,-1,-1,-1,-1,-1,-1,-1,-1,-1,-1,-1,-1,-1,-1,-1,-1,-1,-1,-1,-1,-1,-1,-1,-1,-1,-1,-1,-1,-1],"loss_changes":[2.168548E10,6.2697144E9,2.6338232E9,2.4766904E9,3.0822728E9,1.0572984E9,2.0960564E9,3.3428142E9,2.38852E9,3.1778831E9,4.2828398E9,3.2245504E9,7.400448E8,6.713577E9,1.8309204E9,2.1235766E9,1.671422E9,1.1739892E9,3.9100544E8,1.6286932E9,3.54803E9,4.95054E9,2.350091E9,1.8593633E9,2.1312059E9,6.9434195E8,5.644677E8,3.128473E9,2.431512E9,3.7991885E8,5.354835E9,0E0,0E0,0E0,0E0,0E0,0E0,0E0,0E0,0E0,0E0,0E0,0E0,0E0,0E0,0E0,0E0,0E0,0E0,0E0,0E0,0E0,0E0,0E0,0E0,0E0,0E0,0E0,0E0,0E0,0E0,0E0,0E0],"parents":[2147483647,0,0,1,1,2,2,3,3,4,4,5,5,6,6,7,7,8,8,9,9,10,10,11,11,12,12,13,13,14,14,15,15,16,16,17,17,18,18,19,19,20,20,21,21,22,22,23,23,24,24,25,25,26,26,27,27,28,28,29,29,30,30],"right_children":[2,4,6,8,10,12,14,16,18,20,22,24,26,28,30,32,34,36,38,40,42,44,46,48,50,52,54,56,58,60,62,-1,-1,-1,-1,-1,-1,-1,-1,-1,-1,-1,-1,-1,-1,-1,-1,-1,-1,-1,-1,-1,-1,-1,-1,-1,-1,-1,-1,-1,-1,-1,-1],"split_conditions":[9.985382E-1,9.9509597E-1,4.071978E-2,1.903457E1,2.798005E2,8.24976E-1,1.1762045E3,1.26748E0,4.848996E2,6.0990386E-2,1.7231449E0,6.8086E-1,5.4926436E-2,2.5914304E2,2.714667E2,9.1806464E-2,4.1179466E1,1.9100157E1,3.03616E2,2.7178006E-2,1.141428E3,7.500586E2,2.22538E3,9.99154E-1,1.1196276E-2,1.05318E0,6.4887464E-2,3.5572296E1,2.9348562E1,9.9854565E-1,2.730261E2,-1.282015E2,8.124322E-1,-1.493731E2,-7.630041E1,4.3285995E1,-4.0842644E1,-2.188861E2,-8.545287E1,-9.803999E1,6.1523476E1,-8.324822E1,-2.612597E1,-1.8052306E2,3.3933256E0,2.0883327E1,-1.3944873E2,-4.0917545E1,6.0940132E1,-1.3585846E2,-4.452482E0,9.252714E0,-1.4898679E2,6.857467E1,4.01589E1,-6.242267E0,3.6406384E1,-1.16740395E2,-1.0220574E0,-5.284682E1,6.6055275E1,-1.3701817E2,3.7439972E1],"split_indices":[8,8,1,1,0,0,2,0,3,2,1,0,2,2,0,1,3,2,0,1,2,2,2,8,1,0,2,0,3,8,0,0,0,0,0,0,0,0,0,0,0,0,0,0,0,0,0,0,0,0,0,0,0,0,0,0,0,0,0,0,0,0,0],"split_type":[0,0,0,0,0,0,0,0,0,0,0,0,0,0,0,0,0,0,0,0,0,0,0,0,0,0,0,0,0,0,0,0,0,0,0,0,0,0,0,0,0,0,0,0,0,0,0,0,0,0,0,0,0,0,0,0,0,0,0,0,0,0,0],"sum_hessian":[8.3489E4,3.5505E4,4.7984E4,6.844E3,2.8661E4,2.2103E4,2.5881E4,4.927E3,1.917E3,1.8591E4,1.007E4,7.308E3,1.4795E4,1.9464E4,6.417E3,1.643E3,3.284E3,1.675E3,2.42E2,1.408E3,1.7183E4,1.494E3,8.576E3,4.111E3,3.197E3,4.42E2,1.4353E4,1.7339E4,2.125E3,3.102E3,3.315E3,4.32E2,1.211E3,1.987E3,1.297E3,7.5E2,9.25E2,1.54E2,8.8E1,1.83E2,1.225E3,3.385E3,1.3798E4,6.38E2,8.56E2,8.342E3,2.34E2,5.11E2,3.6E3,3.45E2,2.852E3,3.57E2,8.5E1,2.039E3,1.2314E4,9.451E3,7.888E3,1.468E3,6.57E2,6.8E1,3.034E3,5.21E2,2.794E3],"tree_param":{"num_deleted":"0","num_feature":"9","num_nodes":"63","size_leaf_vector":"1"}},{"base_weights":[-6.135881E0,-5.6053815E2,4.2504245E2,9.858992E1,-9.4544763E2,2.4674995E2,7.045521E2,-1.0086164E3,6.267209E2,-1.228114E3,-3.1431058E2,1.1394194E3,1.5448642E2,6.609003E2,1.2679738E3,5.552843E2,-1.5455195E3,7.0255295E1,1.2490012E3,-7.547396E2,-2.0090289E3,-9.567371E2,5.1288336E2,-2.178306E3,1.1915919E3,-8.1729114E2,2.7301987E2,7.2590485E2,9.2495384E1,1.1862538E3,8.4162506E1,-1.7461024E2,5.168841E1,-1.3004935E2,-3.889763E1,-4.2881016E1,2.7927114E1,6.3212055E1,-2.716029E2,-6.3715057E1,-5.863012E0,-1.2470083E2,-3.1357855E1,1.7935537E1,-1.3419472E2,6.710845E1,-6.859997E1,-4.0527997E0,-2.7906354E2,3.1406076E1,6.602337E1,-2.3151838E1,-1.9533E2,4.8052948E1,7.4024057E0,4.472005E1,3.0504242E1,5.3689056E1,-2.5754812E1,5.3403034E1,6.445423E1],"categories":[],"categories_nodes":[],"categories_segments":[],"categories_sizes":[],"default_left":[0,0,0,0,0,0,0,0,0,0,0,0,0,0,0,0,0,0,0,0,0,0,0,0,0,0,0,0,0,0,0,0,0,0,0,0,0,0,0,0,0,0,0,0,0,0,0,0,0,0,0,0,0,0,0,0,0,0,0,0,0],"id":24,"left_children":[1,3,5,7,9,11,13,15,17,19,21,23,25,27,29,31,33,35,37,39,41,43,45,47,49,51,53,55,57,59,-1,-1,-1,-1,-1,-1,-1,-1,-1,-1,-1,-1,-1,-1,-1,-1,-1,-1,-1,-1,-1,-1,-1,-1,-1,-1,-1,-1,-1,-1,-1],"loss_changes":[1.9987612E10,9.280609E9,2.343741E9,7.887155E9,4.1196114E9,2.365063E9,4.4965683E8,3.658431E9,3.1621194E9,5.8946437E9,3.7974252E9,4.6821862E8,2.9984553E9,6.281385E8,4.2663296E7,2.1610476E9,2.6252662E9,2.1851804E9,4.4580454E8,3.289426E9,4.0323133E9,9.138888E9,4.884986E9,2.9929603E8,1.9153408E8,3.0953467E9,1.9947204E9,2.9719757E8,1.04155494E9,1.2028928E7,0E0,0E0,0E0,0E0,0E0,0E0,0E0,0E0,0E0,0E0,0E0,0E0,0E0,0E0,0E0,0E0,0E0,0E0,0E0,0E0,0E0,0E0,0E0,0E0,0E0,0E0,0E0,0E0,0E0,0E0,0E0],"parents":[2147483647,0,0,1,1,2,2,3,3,4,4,5,5,6,6,7,7,8,8,9,9,10,10,11,11,12,12,13,13,14,14,15,15,16,16,17,17,18,18,19,19,20,20,21,21,22,22,23,23,24,24,25,25,26,26,27,27,28,28,29,29],"right_children":[2,4,6,8,10,12,14,16,18,20,22,24,26,28,30,32,34,36,38,40,42,44,46,48,50,52,54,56,58,60,-1,-1,-1,-1,-1,-1,-1,-1,-1,-1,-1,-1,-1,-1,-1,-1,-1,-1,-1,-1,-1,-1,-1,-1,-1,-1,-1,-1,-1,-1,-1],"split_conditions":[9.9856704E-1,-5.4716464E-2,9.9952716E-1,1.2086001E3,2.7944064E2,8.471271E-3,9.997496E-1,7.072147E1,9.980523E-1,3.203481E-1,7.500586E2,9.9908894E-1,2.2061558E-2,1.944745E-4,5.215851E-3,3.5572296E1,3.0143734E1,8.739681E0,4.785505E1,9.974858E-1,2.6034164E0,2.990997E2,1.7303433E3,1.6774253E-5,9.9926066E-1,7.248536E-2,3.8457222E-2,2.7572785E-3,2.008086E0,4.5637485E-2,8.4162506E1,-1.7461024E2,5.168841E1,-1.3004935E2,-3.889763E1,-4.2881016E1,2.7927114E1,6.3212055E1,-2.716029E2,-6.3715057E1,-5.863012E0,-1.2470083E2,-3.1357855E1,1.7935537E1,-1.3419472E2,6.710845E1,-6.859997E1,-4.0527997E0,-2.7906354E2,3.1406076E1,6.602337E1,-2.3151838E1,-1.9533E2,4.8052948E1,7.4024057E0,4.472005E1,3.0504242E1,5.3689056E1,-2.5754812E1,5.3403034E1,6.445423E1],"split_indices":[8,5,8,2,0,1,8,2,8,5,2,8,1,5,5,0,3,3,3,8,1,2,2,5,8,2,1,3,0,1,0,0,0,0,0,0,0,0,0,0,0,0,0,0,0,0,0,0,0,0,0,0,0,0,0,0,0,0,0,0,0],"split_type":[0,0,0,0,0,0,0,0,0,0,0,0,0,0,0,0,0,0,0,0,0,0,0,0,0,0,0,0,0,0,0,0,0,0,0,0,0,0,0,0,0,0,0,0,0,0,0,0,0,0,0,0,0,0,0,0,0,0,0,0,0],"sum_hessian":[8.3612E4,3.6579E4,4.7033E4,1.3486E4,2.3093E4,2.8717E4,1.8316E4,4.355E3,9.131E3,1.5949E4,7.144E3,2.689E3,2.6028E4,1.7001E4,1.315E3,1.113E3,3.242E3,4.821E3,4.31E3,9.931E3,6.018E3,4.021E3,3.123E3,4.1E1,2.648E3,2.829E3,2.3199E4,1.5256E4,1.745E3,1.102E3,2.13E2,1.17E2,9.96E2,1.364E3,1.878E3,1.662E3,3.159E3,4.301E3,9E0,5.471E3,4.46E3,4.454E3,1.564E3,2.283E3,1.738E3,2.169E3,9.54E2,2.6E1,1.5E1,4.94E2,2.154E3,2.539E3,2.9E2,3.565E3,1.9634E4,6.212E3,9.044E3,6.67E2,1.078E3,5.18E2,5.84E2],"tree_param":{"num_deleted":"0","num_feature":"9","num_nodes":"61","size_leaf_vector":"1"}},{"base_weights":[-2.274128E-1,-8.513233E2,2.715678E2,-5.661739E2,-1.4073236E3,4.6535483E2,-5.219697E2,-2.007601E2,-1.6007231E3,-1.785255E3,-5.1660266E2,-2.2422977E2,5.262075E2,-1.00195746E3,2.046639E2,-4.913599E2,3.465241E2,-2.2676567E3,3.9962E2,-7.976848E2,-2.3015874E3,-1.5572485E2,-3.3088845E3,-1.3147653E3,6.735308E0,-5.063606E2,5.5176434E2,-2.2257326E2,-1.6430464E3,-6.383998E1,1.1453406E3,-2.9652143E1,1.23223076E2,2.5797318E1,-1.16760086E2,-9.537963E1,-1.6367429E2,-9.0262695E1,4.443458E1,-1.2549823E2,6.0571065E0,-1.3914091E2,-7.443656E1,-4.8631912E1,5.0778805E1,-1.4282333E2,-2.0720418E2,-2.376923E1,-1.85683E2,-3.087353E0,1.5058806E2,1.1898286E1,-3.2764648E2,3.8411957E1,2.2481659E1,4.118439E0,-1.0897327E2,-2.2706552E0,-1.0391504E2,6.751562E1,-1.4694629E1,7.8784874E1,-2.4716103E0],"categories":[],"categories_nodes":[],"categories_segments":[],"categories_sizes":[],"default_left":[0,0,0,0,0,0,0,0,0,0,0,0,0,0,0,0,0,0,0,0,0,0,0,0,0,0,0,0,0,0,0,0,0,0,0,0,0,0,0,0,0,0,0,0,0,0,0,0,0,0,0,0,0,0,0,0,0,0,0,0,0,0,0],"id":25,"left_children":[1,3,5,7,9,11,13,15,17,19,21,23,25,27,29,31,33,35,37,39,41,43,45,47,49,51,53,55,57,59,61,-1,-1,-1,-1,-1,-1,-1,-1,-1,-1,-1,-1,-1,-1,-1,-1,-1,-1,-1,-1,-1,-1,-1,-1,-1,-1,-1,-1,-1,-1,-1,-1],"loss_changes":[1.9341214E10,3.2078008E9,9.74557E9,5.0574556E9,2.3083694E9,2.1375058E9,4.33862E9,1.5727644E9,4.6595707E9,2.4539116E9,2.0601748E9,1.04050714E9,1.2354243E9,3.742547E9,1.2500687E9,1.9427575E9,1.5596046E9,9.422592E8,9.440746E8,2.604097E9,1.2327404E9,1.7348027E9,7.658163E7,1.4520436E9,7.019342E8,5.091761E9,1.0094756E9,2.0183497E9,2.8579052E9,1.2532403E9,5.6516006E8,0E0,0E0,0E0,0E0,0E0,0E0,0E0,0E0,0E0,0E0,0E0,0E0,0E0,0E0,0E0,0E0,0E0,0E0,0E0,0E0,0E0,0E0,0E0,0E0,0E0,0E0,0E0,0E0,0E0,0E0,0E0,0E0],"parents":[2147483647,0,0,1,1,2,2,3,3,4,4,5,5,6,6,7,7,8,8,9,9,10,10,11,11,12,12,13,13,14,14,15,15,16,16,17,17,18,18,19,19,20,20,21,21,22,22,23,23,24,24,25,25,26,26,27,27,28,28,29,29,30,30],"right_children":[2,4,6,8,10,12,14,16,18,20,22,24,26,28,30,32,34,36,38,40,42,44,46,48,50,52,54,56,58,60,62,-1,-1,-1,-1,-1,-1,-1,-1,-1,-1,-1,-1,-1,-1,-1,-1,-1,-1,-1,-1,-1,-1,-1,-1,-1,-1,-1,-1,-1,-1,-1,-1],"split_conditions":[9.9800193E-1,6.504289E-1,5.215851E-3,3.530331E-1,1.7511839E1,-1.4450248E0,1.6478937E1,8.739681E0,3.386908E1,2.6561326E-1,4.848996E2,1.6681805E0,9.999987E-1,2.5889432E-1,3.8511577E0,2.0628273E1,5.9924626E0,3.2905996E-1,-3.2961485E0,1.0852741E-1,4.1179466E1,2.2365408E-1,3.982637E1,1.9397677E-1,9.195636E0,2.297311E-1,-9.733831E-4,1.0000002E0,1.7712124E-1,1.6200969E-1,5.309021E1,-2.9652143E1,1.23223076E2,2.5797318E1,-1.16760086E2,-9.537963E1,-1.6367429E2,-9.0262695E1,4.443458E1,-1.2549823E2,6.0571065E0,-1.3914091E2,-7.443656E1,-4.8631912E1,5.0778805E1,-1.4282333E2,-2.0720418E2,-2.376923E1,-1.85683E2,-3.087353E0,1.5058806E2,1.1898286E1,-3.2764648E2,3.8411957E1,2.2481659E1,4.118439E0,-1.0897327E2,-2.2706552E0,-1.0391504E2,6.751562E1,-1.4694629E1,7.8784874E1,-2.4716103E0],"split_indices":[8,7,5,5,1,5,3,3,3,1,3,1,6,5,1,1,1,7,4,1,3,5,1,7,1,3,5,6,7,7,3,0,0,0,0,0,0,0,0,0,0,0,0,0,0,0,0,0,0,0,0,0,0,0,0,0,0,0,0,0,0,0,0],"split_type":[0,0,0,0,0,0,0,0,0,0,0,0,0,0,0,0,0,0,0,0,0,0,0,0,0,0,0,0,0,0,0,0,0,0,0,0,0,0,0,0,0,0,0,0,0,0,0,0,0,0,0,0,0,0,0,0,0,0,0,0,0,0,0],"sum_hessian":[8.3609E4,2.0237E4,6.3372E4,1.3378E4,6.859E3,5.0934E4,1.2438E4,9.887E3,3.491E3,4.815E3,2.044E3,4.13E3,4.6804E4,7.49E3,4.948E3,6.458E3,3.429E3,2.618E3,8.73E2,1.654E3,3.161E3,1.811E3,2.33E2,7.21E2,3.409E3,1.13E3,4.5674E4,3.381E3,4.109E3,3.85E3,1.098E3,6.244E3,2.14E2,3.226E3,2.03E2,1.93E3,6.88E2,1.58E2,7.15E2,5.77E2,1.077E3,1.984E3,1.177E3,1.067E3,7.44E2,1.54E2,7.9E1,5.35E2,1.86E2,3.334E3,7.5E1,1.007E3,1.23E2,1.4639E4,3.1035E4,2.926E3,4.55E2,8.8E2,3.229E3,5.38E2,3.312E3,8.07E2,2.91E2],"tree_param":{"num_deleted":"0","num_feature":"9","num_nodes":"63","size_leaf_vector":"1"}},{"base_weights":[6.1663413E0,-7.6328577E2,2.529213E2,-4.9999075E2,-1.2835712E3,5.4588104E2,1.4596544E1,1.0700369E3,-6.105603E2,-1.643011E3,-4.995942E2,1.1530222E3,4.7398834E2,-2.0379478E2,2.8071744E2,-9.414321E2,1.670139E3,-1.3845472E3,-3.0731134E2,-4.9545203E2,-2.2313325E3,-1.9007585E2,-3.6569827E3,1.3461252E3,9.4203827E2,-2.9960105E3,5.216082E2,1.12534035E2,-1.2089131E3,-1.7619801E2,7.9181055E2,-1.93571E1,-2.5412386E2,6.0073475E1,1.6213475E2,-8.397027E1,6.7817154E1,4.3760944E1,-3.1546446E1,-1.0912897E2,6.208595E0,-9.369254E1,-1.6853896E2,-2.3904177E1,9.5183334E1,-1.9447588E2,-6.7360985E1,6.969941E1,2.7829243E1,5.7413124E1,-2.0820087E1,-2.967767E2,-3.6727444E1,-5.6061573E1,2.7972961E1,-1.17984495E1,3.4124645E1,-9.116907E1,1.9826948E1,-2.0894161E1,5.2111053E1,3.201834E1,6.5811424E1],"categories":[],"categories_nodes":[],"categories_segments":[],"categories_sizes":[],"default_left":[0,0,0,0,0,0,0,0,0,0,0,0,0,0,0,0,0,0,0,0,0,0,0,0,0,0,0,0,0,0,0,0,0,0,0,0,0,0,0,0,0,0,0,0,0,0,0,0,0,0,0,0,0,0,0,0,0,0,0,0,0,0,0],"id":26,"left_children":[1,3,5,7,9,11,13,15,17,19,21,23,25,27,29,31,33,35,37,39,41,43,45,47,49,51,53,55,57,59,61,-1,-1,-1,-1,-1,-1,-1,-1,-1,-1,-1,-1,-1,-1,-1,-1,-1,-1,-1,-1,-1,-1,-1,-1,-1,-1,-1,-1,-1,-1,-1,-1],"loss_changes":[1.583237E10,