{"learner":{"attributes":{},"feature_names":["vdc_mean","vdc_std","pdc_mean","pdc_std","pdc_delta","pdc_slope","efficiency_norm","anomaly_lstm","health_index"],"feature_types":["float","float","float","float","float","float","float","float","float"],"gradient_booster":{"model":{"cats":{"enc":[],"feature_segments":[],"sorted_idx":[]},"gbtree_model_param":{"num_parallel_tree":"1","num_trees":"200"},"iteration_indptr":[0,1,2,3,4,5,6,7,8,9,10,11,12,13,14,15,16,17,18,19,20,21,22,23,24,25,26,27,28,29,30,31,32,33,34,35,36,37,38,39,40,41,42,43,44,45,46,47,48,49,50,51,52,53,54,55,56,57,58,59,60,61,62,63,64,65,66,67,68,69,70,71,72,73,74,75,76,77,78,79,80,81,82,83,84,85,86,87,88,89,90,91,92,93,94,95,96,97,98,99,100,101,102,103,104,105,106,107,108,109,110,111,112,113,114,115,116,117,118,119,120,121,122,123,124,125,126,127,128,129,130,131,132,133,134,135,136,137,138,139,140,141,142,143,144,145,146,147,148,149,150,151,152,153,154,155,156,157,158,159,160,161,162,163,164,165,166,167,168,169,170,171,172,173,174,175,176,177,178,179,180,181,182,183,184,185,186,187,188,189,190,191,192,193,194,195,196,197,198,199,200],"tree_info":[0,0,0,0,0,0,0,0,0,0,0,0,0,0,0,0,0,0,0,0,0,0,0,0,0,0,0,0,0,0,0,0,0,0,0,0,0,0,0,0,0,0,0,0,0,0,0,0,0,0,0,0,0,0,0,0,0,0,0,0,0,0,0,0,0,0,0,0,0,0,0,0,0,0,0,0,0,0,0,0,0,0,0,0,0,0,0,0,0,0,0,0,0,0,0,0,0,0,0,0,0,0,0,0,0,0,0,0,0,0,0,0,0,0,0,0,0,0,0,0,0,0,0,0,0,0,0,0,0,0,0,0,0,0,0,0,0,0,0,0,0,0,0,0,0,0,0,0,0,0,0,0,0,0,0,0,0,0,0,0,0,0,0,0,0,0,0,0,0,0,0,0,0,0,0,0,0,0,0,0,0,0,0,0,0,0,0,0,0,0,0,0,0,0,0,0,0,0,0,0],"trees":[{"base_weights":[5.5198317E0,-2.2300261E3,1.1573014E3,-1.3595425E3,-3.8789292E3,2.9071622E2,1.916097E3,-2.9897906E2,-2.9090803E3,-5.7229766E3,-3.1090125E3,9.45989E2,-1.5352129E3,1.9799005E3,-1.3463086E2,4.2082068E2,-1.6242031E3,-1.551253E3,-3.9934146E3,-7.1600283E3,-3.3564785E3,-6.072966E3,-2.8875583E3,5.4530554E2,2.2795464E3,-3.4685066E3,7.858657E2,2.3061921E3,1.7387046E3,-3.4614915E3,2.5055796E3,6.0496174E1,-4.331078E0,-6.61706E0,-1.22545006E2,-3.9442852E1,-1.8107762E2,-1.3314006E2,-2.4484322E2,-1.7166624E2,-3.7369812E2,-1.9760687E2,6.7929924E1,-2.241649E2,-3.5160056E2,-1.7939827E2,-8.36563E1,6.277354E1,-1.02284966E2,1.2585299E2,-8.32672E0,-1.0808722E2,-2.4757129E2,5.3122402E1,-1.4899512E2,1.2634768E2,1.0401758E2,6.484512E1,1.01799324E2,-3.2971936E2,1.3444962E2,3.684283E1,1.3277824E2],"categories":[],"categories_nodes":[],"categories_segments":[],"categories_sizes":[],"default_left":[0,0,0,0,0,0,0,0,0,0,0,0,0,0,0,0,0,0,0,0,0,0,0,0,0,0,0,0,0,0,0,0,0,0,0,0,0,0,0,0,0,0,0,0,0,0,0,0,0,0,0,0,0,0,0,0,0,0,0,0,0,0,0],"id":0,"left_children":[1,3,5,7,9,11,13,15,17,19,21,23,25,27,29,31,33,35,37,39,41,43,45,47,49,51,53,55,57,59,61,-1,-1,-1,-1,-1,-1,-1,-1,-1,-1,-1,-1,-1,-1,-1,-1,-1,-1,-1,-1,-1,-1,-1,-1,-1,-1,-1,-1,-1,-1,-1,-1],"loss_changes":[2.1440093E11,4.063358E10,3.613505E10,3.0454305E10,1.3870334E10,3.0698385E10,3.833856E9,1.0496401E10,1.1080516E10,9.770205E9,4.513452E9,1.0087524E10,3.0408851E10,2.2322545E9,7.78217E9,2.855529E9,4.776316E9,5.27685E9,5.0191237E9,2.0697006E9,3.0667203E9,6.9874074E8,5.4590874E9,2.6719971E10,2.5346417E9,7.1534264E9,3.2111237E9,5.967176E8,2.1437153E9,7.571111E9,1.2909286E8,0E0,0E0,0E0,0E0,0E0,0E0,0E0,0E0,0E0,0E0,0E0,0E0,0E0,0E0,0E0,0E0,0E0,0E0,0E0,0E0,0E0,0E0,0E0,0E0,0E0,0E0,0E0,0E0,0E0,0E0,0E0,0E0],"parents":[2147483647,0,0,1,1,2,2,3,3,4,4,5,5,6,6,7,7,8,8,9,9,10,10,11,11,12,12,13,13,14,14,15,15,16,16,17,17,18,18,19,19,20,20,21,21,22,22,23,23,24,24,25,25,26,26,27,27,28,28,29,29,30,30],"right_children":[2,4,6,8,10,12,14,16,18,20,22,24,26,28,30,32,34,36,38,40,42,44,46,48,50,52,54,56,58,60,62,-1,-1,-1,-1,-1,-1,-1,-1,-1,-1,-1,-1,-1,-1,-1,-1,-1,-1,-1,-1,-1,-1,-1,-1,-1,-1,-1,-1,-1,-1,-1,-1],"split_conditions":[9.992163E-1,2.7717164E-1,9.996598E-1,5.215851E-3,-1.8247229E-3,2.9211214E-3,2.968514E2,1.6203609E-1,2.0705054E3,3.4139975E2,9.374354E-1,1.2086001E3,2.7575183E2,2.9827315E-2,-1.3360699E-1,-3.3836535E-1,1.35802E0,3.0764108E2,3.3748704E-1,1.44759E0,3.03616E2,1.0090254E3,1.6781094E1,2.008086E0,-2.0077772E-1,1.8825215E3,1.7473123E3,3.213424E0,-9.0322705E-5,1.0750406E3,-1.077123E-1,6.0496174E1,-4.331078E0,-6.61706E0,-1.22545006E2,-3.9442852E1,-1.8107762E2,-1.3314006E2,-2.4484322E2,-1.7166624E2,-3.7369812E2,-1.9760687E2,6.7929924E1,-2.241649E2,-3.5160056E2,-1.7939827E2,-8.36563E1,6.277354E1,-1.02284966E2,1.2585299E2,-8.32672E0,-1.0808722E2,-2.4757129E2,5.3122402E1,-1.4899512E2,1.2634768E2,1.0401758E2,6.484512E1,1.01799324E2,-3.2971936E2,1.3444962E2,3.684283E1,1.3277824E2],"split_indices":[8,7,8,5,5,5,0,7,2,2,8,2,0,7,5,5,0,0,5,0,0,2,0,0,5,2,2,0,5,2,5,0,0,0,0,0,0,0,0,0,0,0,0,0,0,0,0,0,0,0,0,0,0,0,0,0,0,0,0,0,0,0,0],"split_type":[0,0,0,0,0,0,0,0,0,0,0,0,0,0,0,0,0,0,0,0,0,0,0,0,0,0,0,0,0,0,0,0,0,0,0,0,0,0,0,0,0,0,0,0,0,0,0,0,0,0,0,0,0,0,0,0,0,0,0,0,0,0,0],"sum_hessian":[8.3265E4,2.8312E4,5.4953E4,1.8531E4,9.781E3,2.5655E4,2.9298E4,1.1002E4,7.529E3,2.879E3,6.902E3,1.888E4,6.775E3,2.8414E4,8.84E2,7.13E3,3.872E3,3.344E3,4.185E3,1.79E3,1.089E3,4.78E2,6.424E3,1.4519E4,4.361E3,3.696E3,3.079E3,1.2073E4,1.6341E4,3.91E2,4.93E2,2.79E3,4.34E3,1.381E3,2.491E3,2.445E3,8.99E2,1.694E3,2.491E3,1.4E2,1.65E3,9.67E2,1.22E2,1.82E2,2.96E2,4.073E3,2.351E3,1.1396E4,3.123E3,3.975E3,3.86E2,1.966E3,1.73E3,2.869E3,2.1E2,6.1E3,5.973E3,6.575E3,9.766E3,2.59E2,1.32E2,3.9E1,4.54E2],"tree_param":{"num_deleted":"0","num_feature":"9","num_nodes":"63","size_leaf_vector":"1"}},{"base_weights":[-3.6728568E0,1.0826605E3,-2.113618E3,2.4425275E2,1.8193942E3,-1.325497E3,-3.7887817E3,8.801071E2,-1.5116301E3,1.8835999E3,-1.9389029E2,-3.967591E2,-2.708983E3,-5.521144E3,-3.02899E3,2.102783E3,6.7286694E2,-3.3726204E3,7.1276013E2,2.2115876E3,1.664716E3,-3.3825537E3,2.3637388E3,4.066766E2,-1.6775906E3,-3.0903372E3,-3.2548193E2,-6.8890947E3,-3.8559634E3,-1.9550267E3,-3.5771807E3,1.220122E2,9.147851E1,4.06097E1,-3.4906414E1,-1.9746565E2,-5.2524242E1,-4.6791683E1,5.1376137E1,1.16257286E2,8.816439E1,1.1238357E2,7.1805504E1,5.8447884E1,-2.5631854E2,2.678336E1,1.26205826E2,-7.436692E0,6.1958065E1,-2.3718225E1,-1.20344864E2,-9.078692E1,-2.0924629E2,-5.1393876E0,-3.5605905E2,-1.7862804E2,-3.582842E2,-2.8952402E2,-1.4535504E2,-9.3228935E1,-3.5934546E2,-2.792276E2,-1.1368146E2],"categories":[],"categories_nodes":[],"categories_segments":[],"categories_sizes":[],"default_left":[0,0,0,0,0,0,0,0,0,0,0,0,0,0,0,0,0,0,0,0,0,0,0,0,0,0,0,0,0,0,0,0,0,0,0,0,0,0,0,0,0,0,0,0,0,0,0,0,0,0,0,0,0,0,0,0,0,0,0,0,0,0,0],"id":1,"left_children":[1,3,5,7,9,11,13,15,17,19,21,23,25,27,29,31,33,35,37,39,41,43,45,47,49,51,53,55,57,59,61,-1,-1,-1,-1,-1,-1,-1,-1,-1,-1,-1,-1,-1,-1,-1,-1,-1,-1,-1,-1,-1,-1,-1,-1,-1,-1,-1,-1,-1,-1,-1,-1],"loss_changes":[1.9167717E11,3.4097525E10,3.7518615E10,2.8830112E10,3.798532E9,2.4835965E10,1.1951792E10,4.802054E9,2.8420542E10,2.040578E9,7.4212705E9,1.1903885E10,7.0561423E9,6.2854595E9,3.715588E9,2.4880538E8,3.0971377E9,5.0016256E9,1.6241297E9,5.7594675E8,2.273239E9,3.2204774E9,1.467049E8,3.2871777E9,3.911723E9,9.330221E9,1.6215928E9,1.3687276E9,2.2813245E9,9.98804E8,1.0938241E10,0E0,0E0,0E0,0E0,0E0,0E0,0E0,0E0,0E0,0E0,0E0,0E0,0E0,0E0,0E0,0E0,0E0,0E0,0E0,0E0,0E0,0E0,0E0,0E0,0E0,0E0,0E0,0E0,0E0,0E0,0E0,0E0],"parents":[2147483647,0,0,1,1,2,2,3,3,4,4,5,5,6,6,7,7,8,8,9,9,10,10,11,11,12,12,13,13,14,14,15,15,16,16,17,17,18,18,19,19,20,20,21,21,22,22,23,23,24,24,25,25,26,26,27,27,28,28,29,29,30,30],"right_children":[2,4,6,8,10,12,14,16,18,20,22,24,26,28,30,32,34,36,38,40,42,44,46,48,50,52,54,56,58,60,62,-1,-1,-1,-1,-1,-1,-1,-1,-1,-1,-1,-1,-1,-1,-1,-1,-1,-1,-1,-1,-1,-1,-1,-1,-1,-1,-1,-1,-1,-1,-1,-1],"split_conditions":[1.0200223E-1,9.996598E-1,3.1712836E-1,2.9211214E-3,2.968514E2,5.215851E-3,-1.8247229E-3,4.8634E-1,2.7575183E2,2.9408257E-2,-1.3360699E-1,1.6203609E-1,3.6080376E1,2.7851707E1,1.142974E0,1.4070587E-3,2.3868217E1,1.7301678E1,2.798005E2,1.086929E-4,2.7887495E-3,3.557293E-2,-1.077123E-1,7.948494E0,1.35802E0,3.530331E-1,3.210853E2,1.44759E0,2.6713498E2,6.3335495E0,1.6781094E1,1.220122E2,9.147851E1,4.06097E1,-3.4906414E1,-1.9746565E2,-5.2524242E1,-4.6791683E1,5.1376137E1,1.16257286E2,8.816439E1,1.1238357E2,7.1805504E1,5.8447884E1,-2.5631854E2,2.678336E1,1.26205826E2,-7.436692E0,6.1958065E1,-2.3718225E1,-1.20344864E2,-9.078692E1,-2.0924629E2,-5.1393876E0,-3.5605905E2,-1.7862804E2,-3.582842E2,-2.8952402E2,-1.4535504E2,-9.3228935E1,-3.5934546E2,-2.792276E2,-1.1368146E2],"split_indices":[7,8,7,5,0,5,5,0,0,7,5,7,3,3,0,3,3,3,0,5,3,7,5,3,0,5,0,0,0,7,0,0,0,0,0,0,0,0,0,0,0,0,0,0,0,0,0,0,0,0,0,0,0,0,0,0,0,0,0,0,0,0,0],"split_type":[0,0,0,0,0,0,0,0,0,0,0,0,0,0,0,0,0,0,0,0,0,0,0,0,0,0,0,0,0,0,0,0,0,0,0,0,0,0,0,0,0,0,0,0,0,0,0,0,0,0,0,0,0,0,0,0,0,0,0,0,0,0,0],"sum_hessian":[8.3623E4,5.5202E4,2.8421E4,2.582E4,2.9382E4,1.9329E4,9.092E3,1.8956E4,6.864E3,2.8474E4,9.08E2,1.1566E4,7.763E3,2.77E3,6.322E3,2.746E3,1.621E4,3.737E3,3.127E3,1.1393E4,1.7081E4,4.04E2,5.04E2,7.108E3,4.458E3,6.692E3,1.071E3,1.519E3,1.251E3,2.138E3,4.184E3,1.225E3,1.521E3,1.4715E4,1.495E3,2.993E3,7.44E2,5.01E2,2.626E3,9.087E3,2.306E3,4.809E3,1.2272E4,1.12E2,2.92E2,4.1E1,4.63E2,4.264E3,2.844E3,1.683E3,2.775E3,3.093E3,3.599E3,1.038E3,3.3E1,1.18E2,1.401E3,4.1E2,8.41E2,2.103E3,3.5E1,1.646E3,2.538E3],"tree_param":{"num_deleted":"0","num_feature":"9","num_nodes":"63","size_leaf_vector":"1"}},{"base_weights":[-1.3403553E-1,1.0298953E3,-2.0120667E3,1.7301902E3,2.2951062E2,-1.2564852E3,-3.5872322E3,1.7927456E3,-2.795022E2,8.204736E2,-1.417751E3,-3.3187976E2,-2.632994E3,-5.0277827E3,-2.8439744E3,2.0935708E3,1.5895739E3,-3.7717896E3,2.0666863E3,1.1157402E3,-2.643812E3,-3.152621E3,7.0525024E2,3.648105E1,-4.721866E3,-3.665178E3,-8.674453E2,-5.990581E3,-3.5937717E3,-3.4283472E3,-8.385115E2,1.1001443E2,8.300088E1,8.6607796E1,1.7282251E1,6.9837616E1,-2.6930795E2,8.510863E-3,1.21581665E2,-3.2001423E1,6.136554E1,-2.558637E2,-7.225298E1,-1.7183238E2,4.6838665E1,-2.0041874E1,5.2404324E1,3.6660503E1,-5.8298553E1,-3.0985007E2,-1.4424054E1,-1.1735648E2,-2.2304517E2,-2.8954147E2,-2.6567444E1,-1.4154546E2,-3.3764133E2,-2.5566618E1,-2.5176253E2,-9.6043205E1,-2.325015E2,2.008985E1,-2.7209348E2],"categories":[],"categories_nodes":[],"categories_segments":[],"categories_sizes":[],"default_left":[0,0,0,0,0,0,0,0,0,0,0,0,0,0,0,0,0,0,0,0,0,0,0,0,0,0,0,0,0,0,0,0,0,0,0,0,0,0,0,0,0,0,0,0,0,0,0,0,0,0,0,0,0,0,0,0,0,0,0,0,0,0,0],"id":2,"left_children":[1,3,5,7,9,11,13,15,17,19,21,23,25,27,29,31,33,35,37,39,41,43,45,47,49,51,53,55,57,59,61,-1,-1,-1,-1,-1,-1,-1,-1,-1,-1,-1,-1,-1,-1,-1,-1,-1,-1,-1,-1,-1,-1,-1,-1,-1,-1,-1,-1,-1,-1,-1,-1],"loss_changes":[1.7303706E11,3.0953497E10,3.3645044E10,3.7033738E9,2.5089448E10,2.4319676E10,9.798672E9,1.7425449E9,7.300067E9,1.9405087E10,2.5065933E10,1.8486847E10,1.3988987E10,4.2833838E9,7.085011E9,5.289861E8,3.02413E9,2.9946522E9,4.0197197E8,3.4247864E9,4.4105554E9,4.35302E9,1.1611725E9,8.837795E9,5.7859707E9,5.070983E9,4.686433E9,4.470223E9,5.573728E9,8.615588E9,7.8014776E9,0E0,0E0,0E0,0E0,0E0,0E0,0E0,0E0,0E0,0E0,0E0,0E0,0E0,0E0,0E0,0E0,0E0,0E0,0E0,0E0,0E0,0E0,0E0,0E0,0E0,0E0,0E0,0E0,0E0,0E0,0E0,0E0],"parents":[2147483647,0,0,1,1,2,2,3,3,4,4,5,5,6,6,7,7,8,8,9,9,10,10,11,11,12,12,13,13,14,14,15,15,16,16,17,17,18,18,19,19,20,20,21,21,22,22,23,23,24,24,25,25,26,26,27,27,28,28,29,29,30,30],"right_children":[2,4,6,8,10,12,14,16,18,20,22,24,26,28,30,32,34,36,38,40,42,44,46,48,50,52,54,56,58,60,62,-1,-1,-1,-1,-1,-1,-1,-1,-1,-1,-1,-1,-1,-1,-1,-1,-1,-1,-1,-1,-1,-1,-1,-1,-1,-1,-1,-1,-1,-1,-1,-1],"split_conditions":[1.0200223E-1,4.4276904E-2,3.1712836E-1,2.968514E2,5.215851E-3,1.8858783E-3,-9.733831E-4,2.9408257E-2,2.1695378E0,3.3987544E0,2.7601675E2,3.7044468E0,2.5751646E0,2.7290783E1,1.7511839E1,1.086929E-4,3.8511577E0,3.5033036E-2,-1.246813E-1,-1.5492371E0,1.9456825E2,1.0553083E1,2.8425067E2,1.6203609E-1,3.00059E2,3.3748704E-1,2.7649084E1,1.417846E0,7.5997972E0,1.174844E0,2.9997873E2,1.1001443E2,8.300088E1,8.6607796E1,1.7282251E1,6.9837616E1,-2.6930795E2,8.510863E-3,1.21581665E2,-3.2001423E1,6.136554E1,-2.558637E2,-7.225298E1,-1.7183238E2,4.6838665E1,-2.0041874E1,5.2404324E1,3.6660503E1,-5.8298553E1,-3.0985007E2,-1.4424054E1,-1.1735648E2,-2.2304517E2,-2.8954147E2,-2.6567444E1,-1.4154546E2,-3.3764133E2,-2.5566618E1,-2.5176253E2,-9.6043205E1,-2.325015E2,2.008985E1,-2.7209348E2],"split_indices":[7,7,7,0,5,5,5,7,1,1,0,1,1,3,1,5,1,7,5,5,0,1,0,7,0,5,0,0,1,0,3,0,0,0,0,0,0,0,0,0,0,0,0,0,0,0,0,0,0,0,0,0,0,0,0,0,0,0,0,0,0,0,0],"split_type":[0,0,0,0,0,0,0,0,0,0,0,0,0,0,0,0,0,0,0,0,0,0,0,0,0,0,0,0,0,0,0,0,0,0,0,0,0,0,0,0,0,0,0,0,0,0,0,0,0,0,0,0,0,0,0,0,0,0,0,0,0,0,0],"sum_hessian":[8.3496E4,5.5224E4,2.8272E4,2.9453E4,2.5771E4,1.9108E4,9.164E3,2.8564E4,8.89E2,1.8967E4,6.804E3,1.1431E4,7.677E3,3.117E3,6.047E3,1.1511E4,1.7053E4,3.57E2,5.32E2,1.7478E4,1.489E3,3.744E3,3.06E3,1.0547E4,8.84E2,4.844E3,2.833E3,1.863E3,1.254E3,4.682E3,1.365E3,9.234E3,2.277E3,1.5299E4,1.754E3,8.5E1,2.72E2,8E1,4.52E2,1.044E3,1.6434E4,4.85E2,1.004E3,3.501E3,2.43E2,7.24E2,2.336E3,6.678E3,3.869E3,6.63E2,2.21E2,1.825E3,3.019E3,1.8E2,2.653E3,3.63E2,1.5E3,4E2,8.54E2,2.097E3,2.585E3,1.076E3,2.89E2],"tree_param":{"num_deleted":"0","num_feature":"9","num_nodes":"63","size_leaf_vector":"1"}},{"base_weights":[-1.0663023E1,-1.7144856E3,1.0822644E3,-1.0623433E3,-3.3769956E3,1.7351687E3,4.303956E2,-1.4724063E2,-2.4418896E3,-4.9486626E3,-2.6887705E3,2.1609585E3,1.5630477E3,1.2448531E3,-2.0921848E2,1.8603464E2,-4.5397476E3,-3.2644238E3,-9.370735E2,-6.3365986E3,-2.6626802E3,-3.192426E3,-6.027546E2,2.2967773E3,2.0255134E3,1.3427522E3,2.317525E3,2.0568137E3,1.0078329E3,9.3593134E2,-9.3859595E2,3.756149E1,-5.687334E1,-2.7837378E2,-7.2329315E1,-2.7967737E2,-1.4943443E2,-2.4156958E2,-1.8934242E1,-1.592971E2,-3.2893173E2,-6.234393E1,-1.8727477E2,-8.5757286E1,-2.0509554E2,3.1309889E1,-2.4778552E2,1.16725365E2,9.6766846E1,8.629233E1,1.122912E2,7.577791E1,-9.347644E0,1.1877486E2,8.8718376E1,9.5236626E1,1.22668816E2,-5.4006985E1,5.8966774E1,-7.507806E1,1.171142E2,-2.3081648E1,-2.2878154E2],"categories":[],"categories_nodes":[],"categories_segments":[],"categories_sizes":[],"default_left":[0,0,0,0,0,0,0,0,0,0,0,0,0,0,0,0,0,0,0,0,0,0,0,0,0,0,0,0,0,0,0,0,0,0,0,0,0,0,0,0,0,0,0,0,0,0,0,0,0,0,0,0,0,0,0,0,0,0,0,0,0,0,0],"id":3,"left_children":[1,3,5,7,9,11,13,15,17,19,21,23,25,27,29,31,33,35,37,39,41,43,45,47,49,51,53,55,57,59,61,-1,-1,-1,-1,-1,-1,-1,-1,-1,-1,-1,-1,-1,-1,-1,-1,-1,-1,-1,-1,-1,-1,-1,-1,-1,-1,-1,-1,-1,-1,-1,-1],"loss_changes":[1.5535396E11,3.534327E10,2.1630788E10,2.9563146E10,9.921749E9,1.8575278E9,1.324981E10,2.0612751E10,1.1556405E10,8.854266E9,6.7116237E9,1.2976538E8,3.002921E9,2.1510697E9,1.1900634E10,9.791157E9,3.148624E9,3.8610125E9,7.1785114E9,1.3051576E9,1.6172979E9,6.908285E9,6.6579753E9,4.513587E7,2.3821824E8,3.701336E9,1.2444467E8,1.477294E8,3.1030723E9,1.9008205E10,1.5096988E10,0E0,0E0,0E0,0E0,0E0,0E0,0E0,0E0,0E0,0E0,0E0,0E0,0E0,0E0,0E0,0E0,0E0,0E0,0E0,0E0,0E0,0E0,0E0,0E0,0E0,0E0,0E0,0E0,0E0,0E0,0E0,0E0],"parents":[2147483647,0,0,1,1,2,2,3,3,4,4,5,5,6,6,7,7,8,8,9,9,10,10,11,11,12,12,13,13,14,14,15,15,16,16,17,17,18,18,19,19,20,20,21,21,22,22,23,23,24,24,25,25,26,26,27,27,28,28,29,29,30,30],"right_children":[2,4,6,8,10,12,14,16,18,20,22,24,26,28,30,32,34,36,38,40,42,44,46,48,50,52,54,56,58,60,62,-1,-1,-1,-1,-1,-1,-1,-1,-1,-1,-1,-1,-1,-1,-1,-1,-1,-1,-1,-1,-1,-1,-1,-1,-1,-1,-1,-1,-1,-1,-1,-1],"split_conditions":[9.9932146E-1,3.1712836E-1,4.000401E-2,5.215851E-3,-1.8247229E-3,2.414331E-2,1.00370236E-1,3.7044468E0,2.6034164E0,3.4139975E2,1.903457E1,2.645097E-3,1.1762045E3,8.471271E-3,-2.147858E-1,1.6203609E-1,4.7405722E2,7.500586E2,1.1759788E0,4.4812274E-1,7.258915E0,7.7738784E-2,2.9997873E2,3.8461402E-2,9.997844E-1,2.5914304E2,1.6318312E3,9.9954855E-1,5.242334E-2,1.2086001E3,1.8932993E3,3.756149E1,-5.687334E1,-2.7837378E2,-7.2329315E1,-2.7967737E2,-1.4943443E2,-2.4156958E2,-1.8934242E1,-1.592971E2,-3.2893173E2,-6.234393E1,-1.8727477E2,-8.5757286E1,-2.0509554E2,3.1309889E1,-2.4778552E2,1.16725365E2,9.6766846E1,8.629233E1,1.122912E2,7.577791E1,-9.347644E0,1.1877486E2,8.8718376E1,9.5236626E1,1.22668816E2,-5.4006985E1,5.8966774E1,-7.507806E1,1.171142E2,-2.3081648E1,-2.2878154E2],"split_indices":[8,7,7,5,5,1,2,1,1,2,1,3,2,1,5,7,2,2,3,1,1,2,3,7,8,2,2,8,2,2,2,0,0,0,0,0,0,0,0,0,0,0,0,0,0,0,0,0,0,0,0,0,0,0,0,0,0,0,0,0,0,0,0],"split_type":[0,0,0,0,0,0,0,0,0,0,0,0,0,0,0,0,0,0,0,0,0,0,0,0,0,0,0,0,0,0,0,0,0,0,0,0,0,0,0,0,0,0,0,0,0,0,0,0,0,0,0,0,0,0,0,0,0,0,0,0,0,0,0],"sum_hessian":[8.3425E4,3.2601E4,5.0824E4,2.3417E4,9.184E3,2.5391E4,2.5433E4,1.4079E4,9.338E3,2.795E3,6.389E3,7.306E3,1.8085E4,1.1187E4,1.4246E4,1.3087E4,9.92E2,6.037E3,3.301E3,1.738E3,1.057E3,5.146E3,1.243E3,3.64E3,3.666E3,1.4E4,4.085E3,2.526E3,8.661E3,5.543E3,8.703E3,9.171E3,3.916E3,7.44E2,2.48E2,6.37E2,5.4E3,4.13E2,2.888E3,1.25E2,1.613E3,4.59E2,5.98E2,1.962E3,3.184E3,9.7E2,2.73E2,3.291E3,3.49E2,1.557E3,2.109E3,1.2579E4,1.421E3,3.688E3,3.97E2,1.83E3,6.96E2,6.57E2,8.004E3,2.028E3,3.515E3,7.695E3,1.008E3],"tree_param":{"num_deleted":"0","num_feature":"9","num_nodes":"63","size_leaf_vector":"1"}},{"base_weights":[-5.7410197E0,9.285288E2,-1.8137205E3,1.6217577E2,1.5372916E3,-3.461042E3,-1.2220723E3,7.34128E2,-1.4206917E3,1.6896989E3,1.0037306E3,-4.847807E3,-2.7874907E3,-7.282875E2,-2.8061606E3,1.00124225E3,-2.443159E3,5.290641E1,-3.8750938E3,2.061889E3,1.5375342E3,-2.084909E3,1.1523925E3,-6.0841777E3,-2.9228132E3,-3.3821394E3,-9.32261E2,-4.3279E0,-1.7061646E3,-3.7035908E3,-3.0852194E2,3.2484035E1,9.940272E1,-2.2265967E2,-4.87211E1,-2.4322261E2,2.423398E1,-2.1424097E2,-2.0378939E1,1.1040749E2,9.708506E1,6.699553E1,1.10677246E2,-2.6166425E2,6.311462E1,6.632372E1,-9.296757E0,-1.6042361E2,-3.1776535E2,-1.2363777E2,-3.7155905E2,-1.0218624E2,-2.4321121E2,-3.344968E2,-8.502972E0,1.2935303E1,-1.0313043E2,-1.0498413E0,-1.035281E2,-2.0995157E2,-9.432336E1,-9.10558E1,3.9023735E1],"categories":[],"categories_nodes":[],"categories_segments":[],"categories_sizes":[],"default_left":[0,0,0,0,0,0,0,0,0,0,0,0,0,0,0,0,0,0,0,0,0,0,0,0,0,0,0,0,0,0,0,0,0,0,0,0,0,0,0,0,0,0,0,0,0,0,0,0,0,0,0,0,0,0,0,0,0,0,0,0,0,0,0],"id":4,"left_children":[1,3,5,7,9,11,13,15,17,19,21,23,25,27,29,31,33,35,37,39,41,43,45,47,49,51,53,55,57,59,61,-1,-1,-1,-1,-1,-1,-1,-1,-1,-1,-1,-1,-1,-1,-1,-1,-1,-1,-1,-1,-1,-1,-1,-1,-1,-1,-1,-1,-1,-1,-1,-1],"loss_changes":[1.4127127E11,2.5724527E10,2.7767013E10,2.2101823E10,2.4972247E9,7.019004E9,1.6397537E10,1.5222161E10,2.3437087E10,1.3504389E9,3.1384842E9,5.8370376E9,5.5901225E9,1.1316469E10,1.1165794E10,5.737893E9,4.1021875E9,8.601251E9,3.4520515E9,1.1758387E8,2.264023E9,3.3156155E9,1.5185705E9,1.1467981E9,1.9376067E9,7.6052685E9,5.4055055E9,4.973813E9,4.1756385E9,3.2915948E9,2.1724436E9,0E0,0E0,0E0,0E0,0E0,0E0,0E0,0E0,0E0,0E0,0E0,0E0,0E0,0E0,0E0,0E0,0E0,0E0,0E0,0E0,0E0,0E0,0E0,0E0,0E0,0E0,0E0,0E0,0E0,0E0,0E0,0E0],"parents":[2147483647,0,0,1,1,2,2,3,3,4,4,5,5,6,6,7,7,8,8,9,9,10,10,11,11,12,12,13,13,14,14,15,15,16,16,17,17,18,18,19,19,20,20,21,21,22,22,23,23,24,24,25,25,26,26,27,27,28,28,29,29,30,30],"right_children":[2,4,6,8,10,12,14,16,18,20,22,24,26,28,30,32,34,36,38,40,42,44,46,48,50,52,54,56,58,60,62,-1,-1,-1,-1,-1,-1,-1,-1,-1,-1,-1,-1,-1,-1,-1,-1,-1,-1,-1,-1,-1,-1,-1,-1,-1,-1,-1,-1,-1,-1,-1,-1],"split_conditions":[1.0200223E-1,9.996479E-1,9.9636424E-1,5.215851E-3,3.8461402E-2,-1.8247229E-3,3.530331E-1,3.2620096E0,1.7948635E3,2.4611695E-2,-1.5975376E0,3.4139975E2,1.7511839E1,1.6203609E-1,3.6080376E1,1.0451709E3,2.3847853E1,3.4183927E0,1.9176472E1,2.5661034E-3,1.1762045E3,1.0750406E3,4.000339E0,4.4812274E-1,1.7948635E3,2.6561326E-1,8.397927E-1,3.083844E0,4.4609136E-3,2.5511463E0,7.500586E2,3.2484035E1,9.940272E1,-2.2265967E2,-4.87211E1,-2.4322261E2,2.423398E1,-2.1424097E2,-2.0378939E1,1.1040749E2,9.708506E1,6.699553E1,1.10677246E2,-2.6166425E2,6.311462E1,6.632372E1,-9.296757E0,-1.6042361E2,-3.1776535E2,-1.2363777E2,-3.7155905E2,-1.0218624E2,-2.4321121E2,-3.344968E2,-8.502972E0,1.2935303E1,-1.0313043E2,-1.0498413E0,-1.035281E2,-2.0995157E2,-9.432336E1,-9.10558E1,3.9023735E1],"split_indices":[7,8,8,5,7,5,5,1,2,1,5,2,1,7,3,2,2,2,3,3,2,2,1,1,2,1,8,1,3,1,2,0,0,0,0,0,0,0,0,0,0,0,0,0,0,0,0,0,0,0,0,0,0,0,0,0,0,0,0,0,0,0,0],"split_type":[0,0,0,0,0,0,0,0,0,0,0,0,0,0,0,0,0,0,0,0,0,0,0,0,0,0,0,0,0,0,0,0,0,0,0,0,0,0,0,0,0,0,0,0,0,0,0,0,0,0,0,0,0,0,0,0,0,0,0,0,0,0,0],"sum_hessian":[8.3633E4,5.514E4,2.8493E4,2.4411E4,3.0729E4,7.528E3,2.0965E4,1.7932E4,6.479E3,2.39E4,6.829E3,2.459E3,5.069E3,1.5984E4,4.981E3,1.6542E4,1.39E3,4.049E3,2.43E3,6.932E3,1.6968E4,3.13E2,6.516E3,1.496E3,9.63E2,3.838E3,1.231E3,9.185E3,6.799E3,3.664E3,1.317E3,1.2198E4,4.344E3,5.86E2,8.04E2,3.26E2,3.723E3,2.173E3,2.57E2,3.119E3,3.813E3,1.3132E4,3.836E3,1.61E2,1.52E2,5.766E3,7.5E2,1.3E2,1.366E3,8.77E2,8.6E1,2.018E3,1.82E3,1.43E2,1.088E3,8.145E3,1.04E3,1.209E3,5.59E3,2.878E3,7.86E2,5.51E2,7.66E2],"tree_param":{"num_deleted":"0","num_feature":"9","num_nodes":"63","size_leaf_vector":"1"}},{"base_weights":[-2.7544987E-1,-1.4794783E3,1.0365842E3,-3.3844841E3,-1.0012839E3,4.5662842E2,1.5797852E3,-1.6967692E3,-3.8628723E3,5.268019E2,-1.3089415E3,1.1505889E3,-1.0916462E2,1.5989781E3,-1.6089379E3,-3.7678142E3,-1.1216959E3,-5.5323164E3,-2.857866E3,-8.421876E2,7.0767914E2,-2.0631946E3,-9.1279474E2,1.938163E3,9.086004E2,-1.670588E3,2.1472935E2,1.5079537E3,2.1325215E3,-3.6251474E2,1.12615234E2,3.5680706E1,-2.3813228E2,-3.3576657E2,-4.810063E1,-2.0627238E2,-3.154764E2,-3.0313263E1,-1.8559001E2,-2.7073193E2,-2.6149265E1,6.2587323E0,5.9711273E1,-1.16441666E2,-3.7878292E1,-8.511364E1,-3.0461668E1,1.003637E2,2.9228613E1,-1.4498888E2,5.496596E1,-3.7634155E1,-2.4826236E2,2.0198933E1,-1.112933E2,9.088685E1,5.4190735E1,1.0991111E2,7.9299324E1],"categories":[],"categories_nodes":[],"categories_segments":[],"categories_sizes":[],"default_left":[0,0,0,0,0,0,0,0,0,0,0,0,0,0,0,0,0,0,0,0,0,0,0,0,0,0,0,0,0,0,0,0,0,0,0,0,0,0,0,0,0,0,0,0,0,0,0,0,0,0,0,0,0,0,0,0,0,0,0],"id":5,"left_children":[1,3,5,7,9,11,13,15,17,19,21,23,25,27,29,31,33,35,37,39,41,43,45,47,49,51,53,55,57,-1,-1,-1,-1,-1,-1,-1,-1,-1,-1,-1,-1,-1,-1,-1,-1,-1,-1,-1,-1,-1,-1,-1,-1,-1,-1,-1,-1,-1,-1],"loss_changes":[1.2793573E11,3.131097E10,1.544847E10,5.5619666E9,1.2919319E10,9.313107E9,1.5523021E9,1.812053E9,8.99901E9,1.1411293E9,6.8327465E9,2.0285286E9,6.6088064E9,1.2192276E9,3.3272924E9,1.4790845E9,1.06092544E9,2.180518E9,6.450391E9,7.823992E8,1.1530678E9,2.7298345E9,3.5935498E9,2.329774E8,5.923499E9,6.785554E9,4.9998356E9,2.8237292E9,1.2815258E8,0E0,0E0,0E0,0E0,0E0,0E0,0E0,0E0,0E0,0E0,0E0,0E0,0E0,0E0,0E0,0E0,0E0,0E0,0E0,0E0,0E0,0E0,0E0,0E0,0E0,0E0,0E0,0E0,0E0,0E0],"parents":[2147483647,0,0,1,1,2,2,3,3,4,4,5,5,6,6,7,7,8,8,9,9,10,10,11,11,12,12,13,13,14,14,15,15,16,16,17,17,18,18,19,19,20,20,21,21,22,22,23,23,24,24,25,25,26,26,27,27,28,28],"right_children":[2,4,6,8,10,12,14,16,18,20,22,24,26,28,30,32,34,36,38,40,42,44,46,48,50,52,54,56,58,-1,-1,-1,-1,-1,-1,-1,-1,-1,-1,-1,-1,-1,-1,-1,-1,-1,-1,-1,-1,-1,-1,-1,-1,-1,-1,-1,-1,-1,-1],"split_conditions":[9.9936146E-1,9.95715E-1,9.996926E-1,1.156666E0,4.324238E-3,1.00370236E-1,3.00059E2,4.7632786E-3,9.725583E1,9.9798286E-1,9.98755E-1,5.10772E-1,2.0366174E2,1.2614216E3,2.1788304E0,4.016658E-2,9.512702E-1,4.4812274E-1,4.3621597E1,2.7772557E-2,2.6088005E-2,3.8576653E1,7.500586E2,1.7095146E-3,5.242334E-2,1.6261421E2,1.925593E3,3.213424E0,1.6318312E3,-3.6251474E2,1.12615234E2,3.5680706E1,-2.3813228E2,-3.3576657E2,-4.810063E1,-2.0627238E2,-3.154764E2,-3.0313263E1,-1.8559001E2,-2.7073193E2,-2.6149265E1,6.2587323E0,5.9711273E1,-1.16441666E2,-3.7878292E1,-8.511364E1,-3.0461668E1,1.003637E2,2.9228613E1,-1.4498888E2,5.496596E1,-3.7634155E1,-2.4826236E2,2.0198933E1,-1.112933E2,9.088685E1,5.4190735E1,1.0991111E2,7.9299324E1],"split_indices":[8,8,8,0,3,2,0,3,0,8,8,0,0,2,1,2,8,1,2,1,1,3,2,3,2,0,2,0,2,0,0,0,0,0,0,0,0,0,0,0,0,0,0,0,0,0,0,0,0,0,0,0,0,0,0,0,0,0,0],"split_type":[0,0,0,0,0,0,0,0,0,0,0,0,0,0,0,0,0,0,0,0,0,0,0,0,0,0,0,0,0,0,0,0,0,0,0,0,0,0,0,0,0,0,0,0,0,0,0,0,0,0,0,0,0,0,0,0,0,0,0],"sum_hessian":[8.3413E4,3.4374E4,4.9039E4,6.896E3,2.7478E4,2.3718E4,2.5321E4,1.524E3,5.372E3,4.605E3,2.2873E4,1.0652E4,1.3066E4,2.517E4,1.51E2,3.3E2,1.194E3,2.017E3,3.355E3,5.37E2,4.068E3,7.875E3,1.4998E4,2.502E3,8.15E3,2.244E3,1.0822E4,2.1505E4,3.665E3,6.1E1,9E1,6E1,2.7E2,3.2E1,1.162E3,7.2E2,1.297E3,9.23E2,2.432E3,3.4E1,5.03E2,1.852E3,2.216E3,6.543E3,1.332E3,4.164E3,1.0834E4,2.38E3,1.22E2,3.88E2,7.762E3,1.756E3,4.88E2,1.0044E4,7.78E2,1.2426E4,9.079E3,3.269E3,3.96E2],"tree_param":{"num_deleted":"0","num_feature":"9","num_nodes":"59","size_leaf_vector":"1"}},{"base_weights":[8.775147E0,8.420644E2,-1.6379415E3,1.4076904E3,1.7546336E2,-1.1356412E3,-3.2028801E3,1.7435309E3,1.2003201E3,9.807188E2,-3.9821228E2,4.288675E2,-1.4061027E3,-1.6621113E3,-3.6431184E3,1.9213247E3,1.5589038E3,1.303976E3,-3.1355972E2,1.7533624E3,7.122205E2,-8.771847E2,9.8172284E2,-1.9321094E3,6.562115E2,-9.0927997E2,-1.9039244E3,-3.2805962E3,-1.1909918E3,-5.33464E3,-2.6498164E3,9.831011E1,4.6904186E1,3.583427E1,9.6987144E1,7.236877E1,9.353294E0,-1.2327875E2,8.96214E1,1.0541609E2,7.752413E1,-8.3368355E1,4.944235E1,-1.0071793E2,-1.7687426E1,-1.4894594E1,1.2427834E2,5.8556774E1,-1.6398581E2,5.4696697E1,-1.1882319E1,-3.7659008E1,-1.4124307E2,-6.980707E1,-1.27051506E2,3.8641834E1,-1.981721E2,-5.132715E1,-2.8571844E2,-2.0181348E2,-3.0111603E2,-2.3340939E1,-1.745734E2],"categories":[],"categories_nodes":[],"categories_segments":[],"categories_sizes":[],"default_left":[0,0,0,0,0,0,0,0,0,0,0,0,0,0,0,0,0,0,0,0,0,0,0,0,0,0,0,0,0,0,0,0,0,0,0,0,0,0,0,0,0,0,0,0,0,0,0,0,0,0,0,0,0,0,0,0,0,0,0,0,0,0,0],"id":6,"left_children":[1,3,5,7,9,11,13,15,17,19,21,23,25,27,29,31,33,35,37,39,41,43,45,47,49,51,53,55,57,59,61,-1,-1,-1,-1,-1,-1,-1,-1,-1,-1,-1,-1,-1,-1,-1,-1,-1,-1,-1,-1,-1,-1,-1,-1,-1,-1,-1,-1,-1,-1,-1,-1],"loss_changes":[1.1445037E11,2.0881363E10,2.2025953E10,2.0844216E9,1.1744684E10,8.97835E9,4.612522E9,3.7236326E8,2.9075538E9,2.1929871E9,9.813998E9,1.6802342E9,4.472451E9,1.1512801E9,8.882487E9,2.5500877E8,1.7996186E9,2.7768197E9,5.388575E9,1.931136E8,5.169623E9,6.56E9,7.363267E9,1.153878E9,1.1169208E9,2.7058145E9,2.919379E9,9.469066E8,8.6817434E8,1.7239204E9,6.1313556E9,0E0,0E0,0E0,0E0,0E0,0E0,0E0,0E0,0E0,0E0,0E0,0E0,0E0,0E0,0E0,0E0,0E0,0E0,0E0,0E0,0E0,0E0,0E0,0E0,0E0,0E0,0E0,0E0,0E0,0E0,0E0,0E0],"parents":[2147483647,0,0,1,1,2,2,3,3,4,4,5,5,6,6,7,7,8,8,9,9,10,10,11,11,12,12,13,13,14,14,15,15,16,16,17,17,18,18,19,19,20,20,21,21,22,22,23,23,24,24,25,25,26,26,27,27,28,28,29,29,30,30],"right_children":[2,4,6,8,10,12,14,16,18,20,22,24,26,28,30,32,34,36,38,40,42,44,46,48,50,52,54,56,58,60,62,-1,-1,-1,-1,-1,-1,-1,-1,-1,-1,-1,-1,-1,-1,-1,-1,-1,-1,-1,-1,-1,-1,-1,-1,-1,-1,-1,-1,-1,-1,-1,-1],"split_conditions":[1.02929905E-1,4.496399E-2,5.575655E-1,2.9408257E-2,1.1441015E-1,4.4609136E-3,1.174844E0,3.213424E0,2.3459118E1,4.8634E-1,2.8425067E2,1.8081691E-2,1.5357794E-1,5.0522834E-3,9.725583E1,2.5983024E-1,1.5821718E0,3.8511577E0,1.141428E3,1.3765144E-3,5.242334E-2,7.903247E2,7.903247E2,4.4419084E-2,1.8859255E-1,3.0764108E2,2.5627054E2,4.016658E-2,6.3335495E0,4.4812274E-1,4.3621597E1,9.831011E1,4.6904186E1,3.583427E1,9.6987144E1,7.236877E1,9.353294E0,-1.2327875E2,8.96214E1,1.0541609E2,7.752413E1,-8.3368355E1,4.944235E1,-1.0071793E2,-1.7687426E1,-1.4894594E1,1.2427834E2,5.8556774E1,-1.6398581E2,5.4696697E1,-1.1882319E1,-3.7659008E1,-1.4124307E2,-6.980707E1,-1.27051506E2,3.8641834E1,-1.981721E2,-5.132715E1,-2.8571844E2,-2.0181348E2,-3.0111603E2,-2.3340939E1,-1.745734E2],"split_indices":[7,7,7,7,2,3,0,0,3,0,0,1,7,3,0,2,1,1,2,3,2,2,2,2,7,0,0,2,7,1,2,0,0,0,0,0,0,0,0,0,0,0,0,0,0,0,0,0,0,0,0,0,0,0,0,0,0,0,0,0,0,0,0],"split_type":[0,0,0,0,0,0,0,0,0,0,0,0,0,0,0,0,0,0,0,0,0,0,0,0,0,0,0,0,0,0,0,0,0,0,0,0,0,0,0,0,0,0,0,0,0,0,0,0,0,0,0,0,0,0,0,0,0,0,0,0,0,0,0],"sum_hessian":[8.3405E4,5.5381E4,2.8024E4,2.9959E4,2.5422E4,2.1216E4,6.808E3,1.1434E4,1.8525E4,1.0576E4,1.4846E4,3.127E3,1.8089E4,1.514E3,5.294E3,5.82E3,5.614E3,1.7338E4,1.187E3,2.726E3,7.85E3,1.1021E4,3.825E3,2.74E2,2.853E3,9.055E3,9.034E3,3.4E2,1.174E3,1.957E3,3.337E3,5.565E3,2.55E2,1.749E3,3.865E3,1.5365E4,1.973E3,5.87E2,6E2,9.88E2,1.738E3,8.17E2,7.033E3,3.473E3,7.548E3,2.067E3,1.758E3,8.3E1,1.91E2,1.915E3,9.38E2,8.374E3,6.81E2,5.029E3,4.005E3,4.9E1,2.91E2,1.134E3,4E1,6.8E2,1.277E3,9.29E2,2.408E3],"tree_param":{"num_deleted":"0","num_feature":"9","num_nodes":"63","size_leaf_vector":"1"}},{"base_weights":[1.2842761E1,8.155053E2,-1.5497485E3,1.9926024E2,1.3568267E3,-1.0973815E3,-3.0718684E3,6.8571796E2,-1.1778866E3,1.4096101E3,-3.4589902E2,-4.5692798E2,-2.0243666E3,-4.2688657E3,-2.4708604E3,2.8282626E2,1.8691279E3,1.1818613E2,-3.5134546E3,1.6705186E3,1.2358124E3,-3.3462722E3,1.9650801E3,3.6713318E2,-1.4478862E3,-1.0028662E3,-3.1495122E3,-5.4496914E3,-2.6073206E3,-2.305039E3,-3.3864966E2,4.3043747E1,-1.1057522E2,1.0216004E2,-3.2112954E0,-3.1159027E2,2.7001572E1,-2.4439525E2,-1.1213839E2,8.881237E1,6.201645E1,8.693407E1,5.1914898E1,-2.914471E2,1.1603467E2,1.0098091E1,1.0589778E2,-9.341326E0,5.8017056E1,-1.0960498E2,-1.0574244E1,-1.7455153E2,-2.5643188E1,-8.575329E1,-1.9089333E2,-1.1353036E2,-2.867502E2,-1.0546236E2,-3.3621036E2,-1.4539836E2,-7.267696E1],"categories":[],"categories_nodes":[],"categories_segments":[],"categories_sizes":[],"default_left":[0,0,0,0,0,0,0,0,0,0,0,0,0,0,0,0,0,0,0,0,0,0,0,0,0,0,0,0,0,0,0,0,0,0,0,0,0,0,0,0,0,0,0,0,0,0,0,0,0,0,0,0,0,0,0,0,0,0,0,0,0],"id":7,"left_children":[1,3,5,7,9,11,13,15,17,19,21,23,25,27,29,31,33,35,37,39,41,43,45,47,49,51,53,55,57,59,-1,-1,-1,-1,-1,-1,-1,-1,-1,-1,-1,-1,-1,-1,-1,-1,-1,-1,-1,-1,-1,-1,-1,-1,-1,-1,-1,-1,-1,-1,-1],"loss_changes":[1.04753594E11,1.8406035E10,1.9512394E10,1.7287518E10,2.6404987E9,1.2971815E10,4.6605476E9,9.091304E9,2.0390732E10,1.2898673E9,6.1360543E9,1.0554402E10,1.0258117E10,4.241363E9,3.069782E9,2.0515025E10,1.6300165E9,1.1610233E10,4.1876111E9,5.1576218E8,1.6970301E9,5.430171E9,1.34341E8,3.1010993E9,5.398954E9,5.7053153E9,4.066087E9,1.1361894E9,1.8374292E9,2.134569E9,0E0,0E0,0E0,0E0,0E0,0E0,0E0,0E0,0E0,0E0,0E0,0E0,0E0,0E0,0E0,0E0,0E0,0E0,0E0,0E0,0E0,0E0,0E0,0E0,0E0,0E0,0E0,0E0,0E0,0E0,0E0],"parents":[2147483647,0,0,1,1,2,2,3,3,4,4,5,5,6,6,7,7,8,8,9,9,10,10,11,11,12,12,13,13,14,14,15,15,16,16,17,17,18,18,19,19,20,20,21,21,22,22,23,23,24,24,25,25,26,26,27,27,28,28,29,29],"right_children":[2,4,6,8,10,12,14,16,18,20,22,24,26,28,30,32,34,36,38,40,42,44,46,48,50,52,54,56,58,60,-1,-1,-1,-1,-1,-1,-1,-1,-1,-1,-1,-1,-1,-1,-1,-1,-1,-1,-1,-1,-1,-1,-1,-1,-1,-1,-1,-1,-1,-1,-1],"split_conditions":[1.0200223E-1,9.996598E-1,6.1361533E-1,5.215851E-3,2.968514E2,5.118368E-4,-1.8247229E-3,8.6248663E2,1.7948635E3,2.9408257E-2,-1.3360699E-1,1.6203609E-1,2.0705054E3,3.4139975E2,1.8124945E3,2.109654E0,-2.0077772E-1,3.5572296E1,2.679442E2,1.086929E-4,2.7887495E-3,1.0750406E3,-1.077123E-1,7.948494E0,-2.882346E-4,2.7649084E1,2.5627054E2,1.388326E0,1.7948635E3,9.725583E1,-3.3864966E2,4.3043747E1,-1.1057522E2,1.0216004E2,-3.2112954E0,-3.1159027E2,2.7001572E1,-2.4439525E2,-1.1213839E2,8.881237E1,6.201645E1,8.693407E1,5.1914898E1,-2.914471E2,1.1603467E2,1.0098091E1,1.0589778E2,-9.341326E0,5.8017056E1,-1.0960498E2,-1.0574244E1,-1.7455153E2,-2.5643188E1,-8.575329E1,-1.9089333E2,-1.1353036E2,-2.867502E2,-1.0546236E2,-3.3621036E2,-1.4539836E2,-7.267696E1],"split_indices":[7,8,7,5,0,5,5,2,2,7,5,7,2,2,2,0,5,0,0,5,3,2,5,3,5,0,0,0,2,0,0,0,0,0,0,0,0,0,0,0,0,0,0,0,0,0,0,0,0,0,0,0,0,0,0,0,0,0,0,0,0],"split_type":[0,0,0,0,0,0,0,0,0,0,0,0,0,0,0,0,0,0,0,0,0,0,0,0,0,0,0,0,0,0,0,0,0,0,0,0,0,0,0,0,0,0,0,0,0,0,0,0,0,0,0,0,0,0,0,0,0,0,0,0,0],"sum_hessian":[8.3518E4,5.5176E4,2.8342E4,2.5803E4,2.9373E4,2.185E4,6.492E3,1.9068E4,6.735E3,2.849E4,8.83E2,1.2923E4,8.927E3,2.168E3,4.324E3,1.4226E4,4.842E3,4.332E3,2.403E3,1.1387E4,1.7103E4,3.84E2,4.99E2,7.056E3,5.867E3,4.68E3,4.247E3,1.266E3,9.02E2,4.165E3,1.59E2,1.155E4,2.676E3,4.442E3,4E2,2.69E2,4.063E3,1.153E3,1.25E3,9.138E3,2.249E3,4.821E3,1.2282E4,2.67E2,1.17E2,4E1,4.59E2,4.155E3,2.901E3,3.662E3,2.205E3,7.69E2,3.911E3,1.351E3,2.896E3,1.05E2,1.161E3,8.06E2,9.6E1,2.437E3,1.728E3],"tree_param":{"num_deleted":"0","num_feature":"9","num_nodes":"61","size_leaf_vector":"1"}},{"base_weights":[4.5471363E0,-1.2670189E3,8.8731006E2,-7.475314E2,-2.5624058E3,1.3614778E3,4.1676013E2,9.0934814E1,-2.0060541E3,-3.914503E3,-2.0454641E3,1.3826163E3,-1.3185532E3,1.00177106E3,-8.194233E1,3.741007E2,-3.9587273E3,-6.63043E2,-2.9479849E3,-5.2308286E3,-2.0000942E3,-2.4456228E3,-2.613123E2,1.295081E3,1.8941282E3,-6.5610977E3,2.1429377E3,1.6304517E3,7.779451E2,8.0620184E2,-6.739914E2,3.6538845E1,-3.2713665E1,-2.575233E2,-3.1298956E1,-2.3892766E2,-8.605111E0,-9.3357445E1,-1.8357262E2,-2.722859E2,-1.9981227E2,-1.2864427E2,1.0202695E2,-6.0684742E1,-1.6652132E2,2.188996E1,-2.899871E2,7.839585E1,4.615452E1,9.639327E1,5.845301E1,-3.340365E2,6.3274563E1,9.824242E1,1.4317487E2,-2.6890844E1,8.633437E1,-1.4112663E2,4.707838E1,-6.4528244E1,1.0401955E2,-8.65534E1,3.4871887E1],"categories":[],"categories_nodes":[],"categories_segments":[],"categories_sizes":[],"default_left":[0,0,0,0,0,0,0,0,0,0,0,0,0,0,0,0,0,0,0,0,0,0,0,0,0,0,0,0,0,0,0,0,0,0,0,0,0,0,0,0,0,0,0,0,0,0,0,0,0,0,0,0,0,0,0,0,0,0,0,0,0,0,0],"id":8,"left_children":[1,3,5,7,9,11,13,15,17,19,21,23,25,27,29,31,33,35,37,39,41,43,45,47,49,51,53,55,57,59,61,-1,-1,-1,-1,-1,-1,-1,-1,-1,-1,-1,-1,-1,-1,-1,-1,-1,-1,-1,-1,-1,-1,-1,-1,-1,-1,-1,-1,-1,-1,-1,-1],"loss_changes":[9.391661E10,2.3069065E10,1.1017974E10,2.582374E10,6.8508344E9,1.3952901E9,7.2318915E9,1.6844595E10,1.2376297E10,6.8262625E9,5.0690806E9,1.0902856E9,3.516435E9,1.6038676E9,7.037132E9,5.0362266E9,3.8096722E9,8.151782E9,4.4901417E9,4.045742E8,2.5673334E9,6.318039E9,5.0438564E9,2.1138637E9,8.492851E7,8.055066E7,9.387584E6,6.256717E8,4.959505E9,1.4304174E10,1.1642342E10,0E0,0E0,0E0,0E0,0E0,0E0,0E0,0E0,0E0,0E0,0E0,0E0,0E0,0E0,0E0,0E0,0E0,0E0,0E0,0E0,0E0,0E0,0E0,0E0,0E0,0E0,0E0,0E0,0E0,0E0,0E0,0E0],"parents":[2147483647,0,0,1,1,2,2,3,3,4,4,5,5,6,6,7,7,8,8,9,9,10,10,11,11,12,12,13,13,14,14,15,15,16,16,17,17,18,18,19,19,20,20,21,21,22,22,23,23,24,24,25,25,26,26,27,27,28,28,29,29,30,30],"right_children":[2,4,6,8,10,12,14,16,18,20,22,24,26,28,30,32,34,36,38,40,42,44,46,48,50,52,54,56,58,60,62,-1,-1,-1,-1,-1,-1,-1,-1,-1,-1,-1,-1,-1,-1,-1,-1,-1,-1,-1,-1,-1,-1,-1,-1,-1,-1,-1,-1,-1,-1,-1,-1],"split_conditions":[9.9936146E-1,2.7717164E-1,3.903242E-2,5.215851E-3,-2.8982577E-3,2.9871945E2,7.5747125E-2,3.7044468E0,1.9577612E3,3.4139975E2,1.903457E1,1.2614216E3,2.1788304E0,6.6847E-1,-2.147858E-1,1.6203609E-1,2.978232E2,3.5572296E1,3.3748704E-1,-7.088115E-3,3.0254028E2,1.142974E0,2.0582659E1,3.213424E0,1.6523337E3,1.0750406E3,1.0297155E2,-7.547796E-5,5.242334E-2,1.2086001E3,2.730261E2,3.6538845E1,-3.2713665E1,-2.575233E2,-3.1298956E1,-2.3892766E2,-8.605111E0,-9.3357445E1,-1.8357262E2,-2.722859E2,-1.9981227E2,-1.2864427E2,1.0202695E2,-6.0684742E1,-1.6652132E2,2.188996E1,-2.899871E2,7.839585E1,4.615452E1,9.639327E1,5.845301E1,-3.340365E2,6.3274563E1,9.824242E1,1.4317487E2,-2.6890844E1,8.633437E1,-1.4112663E2,4.707838E1,-6.4528244E1,1.0401955E2,-8.65534E1,3.4871887E1],"split_indices":[8,7,7,5,5,0,1,1,2,2,1,2,1,0,5,7,0,0,5,5,0,0,7,0,2,2,2,5,2,2,0,0,0,0,0,0,0,0,0,0,0,0,0,0,0,0,0,0,0,0,0,0,0,0,0,0,0,0,0,0,0,0,0],"split_type":[0,0,0,0,0,0,0,0,0,0,0,0,0,0,0,0,0,0,0,0,0,0,0,0,0,0,0,0,0,0,0,0,0,0,0,0,0,0,0,0,0,0,0,0,0,0,0,0,0,0,0,0,0,0,0,0,0,0,0,0,0,0,0],"sum_hessian":[8.3666E4,3.4283E4,4.9383E4,2.4471E4,9.812E3,2.4596E4,2.4787E4,1.4687E4,9.784E3,2.712E3,7.1E3,2.4404E4,1.92E2,1.1406E4,1.3381E4,1.3728E4,9.59E2,4.034E3,5.75E3,1.606E3,1.106E3,5.799E3,1.301E3,2.0841E4,3.563E3,7.6E1,1.16E2,2.993E3,8.413E3,5.352E3,8.029E3,1.0193E4,3.535E3,7.06E2,2.53E2,4.29E2,3.605E3,2.307E3,3.443E3,1.365E3,2.41E2,9.69E2,1.37E2,2.425E3,3.374E3,1.156E3,1.45E2,1.2021E4,8.82E3,3.403E3,1.6E2,7.5E1,1E0,9.6E1,2E1,1.27E2,2.866E3,3.65E2,8.048E3,2.023E3,3.329E3,4.534E3,3.495E3],"tree_param":{"num_deleted":"0","num_feature":"9","num_nodes":"63","size_leaf_vector":"1"}},{"base_weights":[-1.5035844E1,7.1432574E2,-1.4282167E3,1.1622314E3,7.9735245E1,-9.9064575E2,-2.8087378E3,1.496568E3,9.7928644E2,5.782671E2,-1.2605002E3,6.1201855E2,-1.3101625E3,-3.7685369E3,-2.2570188E3,1.6038142E3,1.1806389E3,-8.501703E2,1.0650748E3,7.925665E2,-2.090021E3,3.549686E1,-3.2936206E3,-2.1650713E3,1.4994014E3,4.542128E0,-1.7783282E3,-4.687475E3,-2.1496428E3,-2.7932573E3,-5.130861E2,8.111884E1,3.1464651E1,8.221656E1,2.9847376E1,-1.5534918E2,6.409939E1,5.9357235E1,6.9849586E0,2.165137E1,8.390431E1,-1.979503E2,-5.241418E1,-2.8160657E2,2.2027351E1,-2.3012634E2,-1.0371848E2,-1.5429832E2,3.719332E1,-2.5762724E1,8.8973854E1,-1.5355315E2,1.056464E1,-1.087264E2,-3.6817825E1,-4.1514175E1,-2.617372E2,-2.1189404E2,-5.120069E1,-7.9613815E1,-1.8162892E2,2.7620453E1,-1.9980028E2],"categories":[],"categories_nodes":[],"categories_segments":[],"categories_sizes":[],"default_left":[0,0,0,0,0,0,0,0,0,0,0,0,0,0,0,0,0,0,0,0,0,0,0,0,0,0,0,0,0,0,0,0,0,0,0,0,0,0,0,0,0,0,0,0,0,0,0,0,0,0,0,0,0,0,0,0,0,0,0,0,0,0,0],"id":9,"left_children":[1,3,5,7,9,11,13,15,17,19,21,23,25,27,29,31,33,35,37,39,41,43,45,47,49,51,53,55,57,59,61,-1,-1,-1,-1,-1,-1,-1,-1,-1,-1,-1,-1,-1,-1,-1,-1,-1,-1,-1,-1,-1,-1,-1,-1,-1,-1,-1,-1,-1,-1,-1,-1],"loss_changes":[8.611973E10,1.5664194E10,1.7178956E10,1.9745997E9,1.5237223E10,1.1061176E10,3.6161946E9,3.851776E8,3.2785674E9,9.506327E9,1.6291814E10,8.852697E9,1.1084544E10,3.704619E9,4.0655954E9,1.5321088E8,7.836424E8,4.507905E9,2.2532833E9,4.89817E9,2.4023311E9,8.67324E9,3.8317486E9,2.332875E9,1.5368223E9,3.0083773E9,5.4807675E9,3.356242E9,2.1252872E9,3.3468518E9,3.8023055E9,0E0,0E0,0E0,0E0,0E0,0E0,0E0,0E0,0E0,0E0,0E0,0E0,0E0,0E0,0E0,0E0,0E0,0E0,0E0,0E0,0E0,0E0,0E0,0E0,0E0,0E0,0E0,0E0,0E0,0E0,0E0,0E0],"parents":[2147483647,0,0,1,1,2,2,3,3,4,4,5,5,6,6,7,7,8,8,9,9,10,10,11,11,12,12,13,13,14,14,15,15,16,16,17,17,18,18,19,19,20,20,21,21,22,22,23,23,24,24,25,25,26,26,27,27,28,28,29,29,30,30],"right_children":[2,4,6,8,10,12,14,16,18,20,22,24,26,28,30,32,34,36,38,40,42,44,46,48,50,52,54,56,58,60,62,-1,-1,-1,-1,-1,-1,-1,-1,-1,-1,-1,-1,-1,-1,-1,-1,-1,-1,-1,-1,-1,-1,-1,-1,-1,-1,-1,-1,-1,-1,-1,-1],"split_conditions":[1.0200223E-1,4.8115075E-2,5.575655E-1,2.9408257E-2,5.215851E-3,-4.852879E-1,-9.733831E-4,5.4956217E-5,-1.5975376E0,3.2620096E0,1.7948635E3,1.5883682E3,9.289068E-3,3.4139975E2,2.0628273E1,2.856673E2,3.213424E0,1.0451709E3,3.8511577E0,7.903247E2,1.9456825E2,3.5572296E1,2.679442E2,3.0544662E2,2.4978348E2,-3.2615534E-4,2.7944064E2,1.205112E0,2.6713498E2,1.186556E0,1.7274632E1,8.111884E1,3.1464651E1,8.221656E1,2.9847376E1,-1.5534918E2,6.409939E1,5.9357235E1,6.9849586E0,2.165137E1,8.390431E1,-1.979503E2,-5.241418E1,-2.8160657E2,2.2027351E1,-2.3012634E2,-1.0371848E2,-1.5429832E2,3.719332E1,-2.5762724E1,8.8973854E1,-1.5355315E2,1.056464E1,-1.087264E2,-3.6817825E1,-4.1514175E1,-2.617372E2,-2.1189404E2,-5.120069E1,-7.9613815E1,-1.8162892E2,2.7620453E1,-1.9980028E2],"split_indices":[7,7,7,7,5,5,5,5,5,1,2,2,3,2,1,0,0,2,1,2,0,0,0,0,0,5,0,0,0,0,5,0,0,0,0,0,0,0,0,0,0,0,0,0,0,0,0,0,0,0,0,0,0,0,0,0,0,0,0,0,0,0,0],"split_type":[0,0,0,0,0,0,0,0,0,0,0,0,0,0,0,0,0,0,0,0,0,0,0,0,0,0,0,0,0,0,0,0,0,0,0,0,0,0,0,0,0,0,0,0,0,0,0,0,0,0,0,0,0,0,0,0,0,0,0,0,0,0,0],"sum_hessian":[8.3551E4,5.5109E4,2.8442E4,3.2306E4,2.2803E4,2.1598E4,6.844E3,1.1423E4,2.0883E4,1.6621E4,6.182E3,3.59E3,1.8008E4,2.496E3,4.348E3,8.525E3,2.898E3,9.35E2,1.9948E4,1.5386E4,1.235E3,3.776E3,2.406E3,8.69E2,2.721E3,4.729E3,1.3279E4,1.591E3,9.05E2,3.325E3,1.023E3,8.365E3,1.6E2,1.614E3,1.284E3,4.54E2,4.81E2,1.7623E4,2.325E3,1.0944E4,4.442E3,4.41E2,7.94E2,2.51E2,3.525E3,1.159E3,1.247E3,6.6E2,2.09E2,3.32E2,2.389E3,2.97E2,4.432E3,9.62E3,3.659E3,1.98E2,1.393E3,3.16E2,5.89E2,1.369E3,1.956E3,7.84E2,2.39E2],"tree_param":{"num_deleted":"0","num_feature":"9","num_nodes":"63","size_leaf_vector":"1"}},{"base_weights":[-6.964514E0,-1.2096388E3,7.6593286E2,-7.362305E2,-2.4259243E3,2.4879076E2,1.1872148E3,-3.466572E1,-1.7932551E3,-3.4873313E3,-1.8675276E3,5.681171E2,-7.8594666E2,1.2307888E3,-3.8718613E2,2.4340094E2,-3.7011982E3,-2.5222134E3,-4.8015826E2,-4.17664E3,-2.4312068E3,-2.3385872E3,-2.9370297E2,7.764889E2,-1.6429469E3,-2.5229985E3,6.061703E2,1.4396372E3,1.080344E3,-3.0889863E3,1.8993911E3,5.9795704E1,-7.820441E0,-2.4522246E2,-8.852583E-1,-1.3227805E2,1.0516381E2,-2.081127E2,-2.4923313E0,-9.114657E1,-2.3977425E2,7.1511116E0,-1.7955626E2,-6.3861805E1,-1.5862257E2,3.322242E1,-1.9040453E2,4.5551147E1,-3.75321E1,-2.0678783E2,-2.6645859E1,-1.4225516E2,6.894625E1,1.0506887E2,1.3372086E1,7.931817E1,6.414554E1,5.9315517E1,7.5254846E0,9.1093185E1,-2.0319333E2,9.8749504E1,4.890864E1],"categories":[],"categories_nodes":[],"categories_segments":[],"categories_sizes":[],"default_left":[0,0,0,0,0,0,0,0,0,0,0,0,0,0,0,0,0,0,0,0,0,0,0,0,0,0,0,0,0,0,0,0,0,0,0,0,0,0,0,0,0,0,0,0,0,0,0,0,0,0,0,0,0,0,0,0,0,0,0,0,0,0,0],"id":10,"left_children":[1,3,5,7,9,11,13,15,17,19,21,23,25,27,29,31,33,35,37,39,41,43,45,47,49,51,53,55,57,59,61,-1,-1,-1,-1,-1,-1,-1,-1,-1,-1,-1,-1,-1,-1,-1,-1,-1,-1,-1,-1,-1,-1,-1,-1,-1,-1,-1,-1,-1,-1,-1,-1],"loss_changes":[7.749699E10,1.8779066E10,1.1057103E10,1.7412035E10,5.409452E9,7.529372E9,1.919234E9,1.4390696E10,8.964809E9,2.2823076E9,4.4400886E9,8.023851E9,1.2996825E10,8.535736E8,4.663985E9,4.9965983E9,4.4099185E9,3.4419425E9,5.299773E9,2.764591E9,3.7209385E9,4.075903E9,4.6527923E9,3.270233E9,4.148435E9,3.0089984E9,1.5107424E9,2.5995674E8,1.5589786E9,1.6638753E9,2.6552064E7,0E0,0E0,0E0,0E0,0E0,0E0,0E0,0E0,0E0,0E0,0E0,0E0,0E0,0E0,0E0,0E0,0E0,0E0,0E0,0E0,0E0,0E0,0E0,0E0,0E0,0E0,0E0,0E0,0E0,0E0,0E0,0E0],"parents":[2147483647,0,0,1,1,2,2,3,3,4,4,5,5,6,6,7,7,8,8,9,9,10,10,11,11,12,12,13,13,14,14,15,15,16,16,17,17,18,18,19,19,20,20,21,21,22,22,23,23,24,24,25,25,26,26,27,27,28,28,29,29,30,30],"right_children":[2,4,6,8,10,12,14,16,18,20,22,24,26,28,30,32,34,36,38,40,42,44,46,48,50,52,54,56,58,60,62,-1,-1,-1,-1,-1,-1,-1,-1,-1,-1,-1,-1,-1,-1,-1,-1,-1,-1,-1,-1,-1,-1,-1,-1,-1,-1,-1,-1,-1,-1,-1,-1],"split_conditions":[9.9932146E-1,3.1712836E-1,9.9967104E-1,5.215851E-3,-9.733831E-4,9.388369E-3,2.968514E2,3.7044468E0,2.6034164E0,2.7851707E1,1.7511839E1,3.3987544E0,2.730261E2,2.9408257E-2,2.1695378E0,-4.852879E-1,3.00059E2,3.2524857E1,3.5572296E1,1.44759E0,7.5997972E0,1.156666E0,2.9997873E2,2.2357813E1,1.9456825E2,1.0553083E1,4.9039844E-2,3.213424E0,3.8511577E0,3.405855E-2,4.1717816E-2,5.9795704E1,-7.820441E0,-2.4522246E2,-8.852583E-1,-1.3227805E2,1.0516381E2,-2.081127E2,-2.4923313E0,-9.114657E1,-2.3977425E2,7.1511116E0,-1.7955626E2,-6.3861805E1,-1.5862257E2,3.322242E1,-1.9040453E2,4.5551147E1,-3.75321E1,-2.0678783E2,-2.6645859E1,-1.4225516E2,6.894625E1,1.0506887E2,1.3372086E1,7.931817E1,6.414554E1,5.9315517E1,7.5254846E0,9.1093185E1,-2.0319333E2,9.8749504E1,4.890864E1],"split_indices":[8,7,8,5,5,5,0,1,1,3,1,1,0,7,1,5,0,3,0,0,1,0,3,3,0,1,7,0,1,7,7,0,0,0,0,0,0,0,0,0,0,0,0,0,0,0,0,0,0,0,0,0,0,0,0,0,0,0,0,0,0,0,0],"split_type":[0,0,0,0,0,0,0,0,0,0,0,0,0,0,0,0,0,0,0,0,0,0,0,0,0,0,0,0,0,0,0,0,0,0,0,0,0,0,0,0,0,0,0,0,0,0,0,0,0,0,0,0,0,0,0,0,0,0,0,0,0,0,0],"sum_hessian":[8.3369E4,3.2616E4,5.0753E4,2.3479E4,9.137E3,2.2785E4,2.7968E4,1.4113E4,9.366E3,3.148E3,5.989E3,1.7412E4,5.373E3,2.7215E4,7.53E2,1.3119E4,9.94E2,6.022E3,3.344E3,1.903E3,1.245E3,4.609E3,1.38E3,1.5913E4,1.499E3,2.39E3,2.983E3,1.1392E4,1.5823E4,3.45E2,4.08E2,3.878E3,9.241E3,7.49E2,2.45E2,5.866E3,1.56E2,3.49E2,2.995E3,3.97E2,1.506E3,3.87E2,8.58E2,2.029E3,2.58E3,1.085E3,2.95E2,1.4625E4,1.288E3,4.61E2,1.038E3,2.208E3,1.82E2,5.5E2,2.433E3,5.879E3,5.513E3,1.4204E4,1.619E3,5.7E1,2.88E2,3.76E2,3.2E1],"tree_param":{"num_deleted":"0","num_feature":"9","num_nodes":"63","size_leaf_vector":"1"}},{"base_weights":[2.2351658E0,-1.088508E3,7.6118115E2,-6.4445337E2,-2.2067456E3,3.4561118E2,1.1922643E3,4.0433673E2,-9.984723E2,-1.0691794E3,-2.5255132E3,8.759633E2,-9.100846E1,1.1037832E3,1.6539233E3,5.777845E2,-3.9991138E2,-2.1191091E3,-6.7457275E2,-5.0029976E3,-9.7396515E2,-3.6312244E3,-1.7303125E3,1.5473334E3,6.849824E2,-1.4661951E3,1.8627919E2,1.234822E3,2.1192905E2,1.6853918E3,9.0846234E2,2.4839743E1,1.4348882E2,-1.6932285E2,-6.2922764E0,-1.1896941E2,1.564796E2,-7.12868E1,7.3330545E0,-2.927338E2,1.9165201E2,-6.4565056E1,3.5799416E1,-1.3535155E2,-2.2608269E2,-9.949885E0,-1.16185036E2,9.402059E1,6.552058E1,-1.2441625E2,4.167362E1,-3.223625E1,-2.2496446E2,1.706576E1,-9.869581E1,5.54129E1,8.6870415E1,7.507961E1,-3.4169376E1,8.1538956E1,8.900745E1,9.3295876E1,-1.4748738E2],"categories":[],"categories_nodes":[],"categories_segments":[],"categories_sizes":[],"default_left":[0,0,0,0,0,0,0,0,0,0,0,0,0,0,0,0,0,0,0,0,0,0,0,0,0,0,0,0,0,0,0,0,0,0,0,0,0,0,0,0,0,0,0,0,0,0,0,0,0,0,0,0,0,0,0,0,0,0,0,0,0,0,0],"id":11,"left_children":[1,3,5,7,9,11,13,15,17,19,21,23,25,27,29,31,33,35,37,39,41,43,45,47,49,51,53,55,57,59,61,-1,-1,-1,-1,-1,-1,-1,-1,-1,-1,-1,-1,-1,-1,-1,-1,-1,-1,-1,-1,-1,-1,-1,-1,-1,-1,-1,-1,-1,-1,-1,-1],"loss_changes":[6.889078E10,1.6954065E10,8.79096E9,9.075511E9,3.5165184E9,5.7863547E9,9.820836E8,8.607758E8,6.631553E9,7.914327E8,6.658523E9,1.445634E9,5.2266757E9,2.3623332E9,8.930099E7,9.406345E8,8.9584237E8,5.6044667E9,8.746342E9,3.9871424E8,1.1147845E9,2.5964462E9,4.0076534E9,1.9466189E8,4.1420746E9,5.727769E9,3.8209695E9,1.1192504E9,2.9927421E9,1.631744E7,5.9286E8,0E0,0E0,0E0,0E0,0E0,0E0,0E0,0E0,0E0,0E0,0E0,0E0,0E0,0E0,0E0,0E0,0E0,0E0,0E0,0E0,0E0,0E0,0E0,0E0,0E0,0E0,0E0,0E0,0E0,0E0,0E0,0E0],"parents":[2147483647,0,0,1,1,2,2,3,3,4,4,5,5,6,6,7,7,8,8,9,9,10,10,11,11,12,12,13,13,14,14,15,15,16,16,17,17,18,18,19,19,20,20,21,21,22,22,23,23,24,24,25,25,26,26,27,27,28,28,29,29,30,30],"right_children":[2,4,6,8,10,12,14,16,18,20,22,24,26,28,30,32,34,36,38,40,42,44,46,48,50,52,54,56,58,60,62,-1,-1,-1,-1,-1,-1,-1,-1,-1,-1,-1,-1,-1,-1,-1,-1,-1,-1,-1,-1,-1,-1,-1,-1,-1,-1,-1,-1,-1,-1,-1,-1],"split_conditions":[9.9936146E-1,2.7717164E-1,9.997022E-1,1.826112E0,7.7738784E-2,1.00370236E-1,1.1762045E3,1.8429759E-1,7.500586E2,9.512702E-1,9.725583E1,5.10772E-1,2.0366174E2,8.4430855E1,1.6523337E3,1.6314882E-1,2.7178006E-2,3.3367273E2,1.1425134E1,6.114069E-1,9.792746E-3,4.4812274E-1,5.8019608E1,4.53914E-1,5.242334E-2,1.6261421E2,1.925593E3,2.2468562E2,2.7630173E2,2.769174E2,2.721773E2,2.4839743E1,1.4348882E2,-1.6932285E2,-6.2922764E0,-1.1896941E2,1.564796E2,-7.12868E1,7.3330545E0,-2.927338E2,1.9165201E2,-6.4565056E1,3.5799416E1,-1.3535155E2,-2.2608269E2,-9.949885E0,-1.16185036E2,9.402059E1,6.552058E1,-1.2441625E2,4.167362E1,-3.223625E1,-2.2496446E2,1.706576E1,-9.869581E1,5.54129E1,8.6870415E1,7.507961E1,-3.4169376E1,8.1538956E1,8.900745E1,9.3295876E1,-1.4748738E2],"split_indices":[8,7,8,0,2,2,2,7,2,8,0,0,0,2,2,1,1,0,3,1,3,1,2,0,2,0,2,0,0,0,0,0,0,0,0,0,0,0,0,0,0,0,0,0,0,0,0,0,0,0,0,0,0,0,0,0,0,0,0,0,0,0,0],"split_type":[0,0,0,0,0,0,0,0,0,0,0,0,0,0,0,0,0,0,0,0,0,0,0,0,0,0,0,0,0,0,0,0,0,0,0,0,0,0,0,0,0,0,0,0,0,0,0,0,0,0,0,0,0,0,0,0,0,0,0,0,0,0,0],"sum_hessian":[8.3218E4,3.4145E4,4.9073E4,2.4441E4,9.704E3,2.4987E4,2.4086E4,6.168E3,1.8273E4,2.125E3,7.579E3,1.1282E4,1.3705E4,2.0215E4,3.871E3,5.074E3,1.094E3,4.096E3,1.4177E4,4.9E1,2.076E3,3.169E3,4.41E3,2.497E3,8.785E3,2.299E3,1.1406E4,1.7625E4,2.59E3,3.713E3,1.58E2,4.902E3,1.72E2,9.1E1,1.003E3,3.903E3,1.93E2,7.404E3,6.773E3,4.5E1,4E0,1.748E3,3.28E2,1.557E3,1.612E3,1.232E3,3.178E3,1.035E3,1.462E3,3.92E2,8.393E3,1.81E3,4.89E2,1.0643E4,7.63E2,1.4082E4,3.543E3,1.061E3,1.529E3,2.367E3,1.346E3,1.27E2,3.1E1],"tree_param":{"num_deleted":"0","num_feature":"9","num_nodes":"63","size_leaf_vector":"1"}},{"base_weights":[9.320044E0,6.3577374E2,-1.2041177E3,1.0112697E3,1.0103407E2,-2.371121E3,-8.332808E2,1.2694608E3,8.282855E2,5.3339764E2,-1.0858629E3,-3.3908748E3,-1.8638425E3,-4.3908743E2,-2.1212197E3,1.3221116E3,8.6680615E2,-1.0644977E3,9.1572925E2,1.3026204E2,1.5941044E3,8.5849E1,-2.9197324E3,-4.2989194E3,-2.066251E3,-2.3444036E3,-5.894074E2,1.2199452E2,-1.134432E3,-2.9233623E3,2.1189622E2,6.0099373E1,8.122709E1,-9.881246E1,5.3282703E1,-1.5535039E2,5.8735584E1,5.18417E1,-2.898853E0,2.1195452E1,-2.6245447E2,8.791383E1,-1.4110568E1,-2.571565E2,2.3290539E1,-1.6696019E2,2.0221792E1,-5.363058E1,-2.2439305E2,-1.2595288E2,1.0889357E2,-5.5582123E1,-1.6688193E2,-2.5385428E2,-1.8517809E-1,-1.4830525E1,5.0791397E1,1.0986167E1,-7.2796234E1,-1.3608006E2,-3.0498798E2,-5.99365E1,6.561018E1],"categories":[],"categories_nodes":[],"categories_segments":[],"categories_sizes":[],"default_left":[0,0,0,0,0,0,0,0,0,0,0,0,0,0,0,0,0,0,0,0,0,0,0,0,0,0,0,0,0,0,0,0,0,0,0,0,0,0,0,0,0,0,0,0,0,0,0,0,0,0,0,0,0,0,0,0,0,0,0,0,0,0,0],"id":12,"left_children":[1,3,5,7,9,11,13,15,17,19,21,23,25,27,29,31,33,35,37,39,41,43,45,47,49,51,53,55,57,59,61,-1,-1,-1,-1,-1,-1,-1,-1,-1,-1,-1,-1,-1,-1,-1,-1,-1,-1,-1,-1,-1,-1,-1,-1,-1,-1,-1,-1,-1,-1,-1,-1],"loss_changes":[6.3499424E10,1.1061965E10,1.2306809E10,1.5280271E9,1.166393E10,3.5413197E9,1.0957709E10,2.834002E8,3.1364352E9,7.1237524E9,1.3041115E10,2.7299308E9,2.8048364E9,6.448461E9,9.466622E9,4.292014E8,8.812027E8,3.831759E9,2.1353626E9,1.9073102E10,1.4137784E9,7.3615473E9,3.300483E9,8.181248E8,1.7888858E9,4.0699412E9,3.3013148E9,3.423146E9,3.2136458E9,2.395646E9,2.0115715E9,0E0,0E0,0E0,0E0,0E0,0E0,0E0,0E0,0E0,0E0,0E0,0E0,0E0,0E0,0E0,0E0,0E0,0E0,0E0,0E0,0E0,0E0,0E0,0E0,0E0,0E0,0E0,0E0,0E0,0E0,0E0,0E0],"parents":[2147483647,0,0,1,1,2,2,3,3,4,4,5,5,6,6,7,7,8,8,9,9,10,10,11,11,12,12,13,13,14,14,15,15,16,16,17,17,18,18,19,19,20,20,21,21,22,22,23,23,24,24,25,25,26,26,27,27,28,28,29,29,30,30],"right_children":[2,4,6,8,10,12,14,16,18,20,22,24,26,28,30,32,34,36,38,40,42,44,46,48,50,52,54,56,58,60,62,-1,-1,-1,-1,-1,-1,-1,-1,-1,-1,-1,-1,-1,-1,-1,-1,-1,-1,-1,-1,-1,-1,-1,-1,-1,-1,-1,-1,-1,-1,-1,-1],"split_conditions":[1.0200223E-1,4.8115075E-2,9.95715E-1,3.0513173E-2,9.388369E-3,-1.8247229E-3,3.530331E-1,2.769174E2,-1.5975376E0,7.903247E2,1.7948635E3,3.4139975E2,1.59779625E1,1.6203609E-1,3.8576653E1,2.1596254E2,1.6150793E0,1.0750406E3,4.000339E0,2.5914304E2,-1.8766584E-1,3.5572296E1,1.9176472E1,1.248516E0,3.03616E2,1.174844E0,8.397927E-1,8.536287E0,6.0990386E-2,3.1869897E2,7.500586E2,6.0099373E1,8.122709E1,-9.881246E1,5.3282703E1,-1.5535039E2,5.8735584E1,5.18417E1,-2.898853E0,2.1195452E1,-2.6245447E2,8.791383E1,-1.4110568E1,-2.571565E2,2.3290539E1,-1.6696019E2,2.0221792E1,-5.363058E1,-2.2439305E2,-1.2595288E2,1.0889357E2,-5.5582123E1,-1.6688193E2,-2.5385428E2,-1.8517809E-1,-1.4830525E1,5.0791397E1,1.0986167E1,-7.2796234E1,-1.3608006E2,-3.0498798E2,-5.99365E1,6.561018E1],"split_indices":[7,7,8,7,5,5,5,0,5,2,2,2,1,7,3,0,3,2,1,2,5,0,3,0,0,0,8,3,2,0,2,0,0,0,0,0,0,0,0,0,0,0,0,0,0,0,0,0,0,0,0,0,0,0,0,0,0,0,0,0,0,0,0],"split_type":[0,0,0,0,0,0,0,0,0,0,0,0,0,0,0,0,0,0,0,0,0,0,0,0,0,0,0,0,0,0,0,0,0,0,0,0,0,0,0,0,0,0,0,0,0,0,0,0,0,0,0,0,0,0,0,0,0,0,0,0,0,0,0],"sum_hessian":[8.3532E4,5.5091E4,2.8441E4,3.2364E4,2.2727E4,6.857E3,2.1584E4,1.3421E4,1.8943E4,1.6659E4,6.068E3,2.276E3,4.581E3,1.6527E4,5.057E3,1.1867E4,1.554E3,8.36E2,1.8107E4,1.2072E4,4.587E3,3.703E3,2.365E3,1.349E3,9.27E2,3.326E3,1.255E3,9.147E3,7.38E3,3.763E3,1.294E3,8.497E3,3.37E3,1.01E2,1.453E3,4.37E2,3.99E2,1.6104E4,2.003E3,1.1448E4,6.24E2,4.218E3,3.69E2,2.5E2,3.453E3,2.1E3,2.65E2,7.5E1,1.274E3,8.38E2,8.9E1,1.485E3,1.841E3,1.44E2,1.111E3,6.23E3,2.917E3,1.416E3,5.964E3,3.54E3,2.23E2,5.67E2,7.27E2],"tree_param":{"num_deleted":"0","num_feature":"9","num_nodes":"63","size_leaf_vector":"1"}},{"base_weights":[-1.0207871E0,4.1370837E2,-1.5975685E3,7.2419977E2,-6.545953E2,-2.3762551E3,-1.1636656E3,8.366844E2,-8.086136E2,1.010963E3,-1.2766775E3,-3.300335E3,-1.9516414E3,-7.093225E2,-1.9137732E3,9.08917E2,1.2961252E2,-4.1901436E3,6.193499E2,1.09332825E2,1.599723E3,-2.156524E3,1.0070339E2,-4.4248496E3,-2.3643733E3,-2.4877458E3,-5.722109E2,-1.1494894E3,1.6057114E3,-5.4027583E3,-1.368936E3,7.6468834E1,3.868054E1,8.802743E1,-3.9501717E1,-3.3294797E2,-1.6441858E2,8.206911E1,-7.1961655E1,5.0744785E1,-1.674796E2,5.136738E1,9.504951E1,-1.3643413E2,-3.33401E1,-5.4661385E1,3.8259186E1,-2.27795E2,-1.7544598E2,-1.9226204E1,-1.6601949E2,-6.582019E1,-1.6759444E2,1.7771002E1,-1.6276237E2,-1.5495758E2,-3.6524746E1,1.605839E1,1.0477522E2,-2.9341354E2,1.3726537E2,-8.2163414E1,1.0859765E2],"categories":[],"categories_nodes":[],"categories_segments":[],"categories_sizes":[],"default_left":[0,0,0,0,0,0,0,0,0,0,0,0,0,0,0,0,0,0,0,0,0,0,0,0,0,0,0,0,0,0,0,0,0,0,0,0,0,0,0,0,0,0,0,0,0,0,0,0,0,0,0,0,0,0,0,0,0,0,0,0,0,0,0],"id":13,"left_children":[1,3,5,7,9,11,13,15,17,19,21,23,25,27,29,31,33,35,37,39,41,43,45,47,49,51,53,55,57,59,61,-1,-1,-1,-1,-1,-1,-1,-1,-1,-1,-1,-1,-1,-1,-1,-1,-1,-1,-1,-1,-1,-1,-1,-1,-1,-1,-1,-1,-1,-1,-1,-1],"loss_changes":[5.508962E10,2.190721E10,5.7938084E9,8.823642E9,1.5411419E10,2.401964E9,3.753986E9,2.4347648E9,1.6898221E10,2.1470879E9,1.3123705E10,2.0219208E9,3.1104717E9,6.996271E9,7.892864E9,3.630166E9,6.6308833E9,2.2912369E9,5.180154E9,5.0119055E9,4.200028E8,5.630554E9,3.3503337E9,8.916173E7,1.9974866E9,3.062575E9,2.935532E9,4.709602E9,6.895158E8,2.143999E9,3.4966523E9,0E0,0E0,0E0,0E0,0E0,0E0,0E0,0E0,0E0,0E0,0E0,0E0,0E0,0E0,0E0,0E0,0E0,0E0,0E0,0E0,0E0,0E0,0E0,0E0,0E0,0E0,0E0,0E0,0E0,0E0,0E0,0E0],"parents":[2147483647,0,0,1,1,2,2,3,3,4,4,5,5,6,6,7,7,8,8,9,9,10,10,11,11,12,12,13,13,14,14,15,15,16,16,17,17,18,18,19,19,20,20,21,21,22,22,23,23,24,24,25,25,26,26,27,27,28,28,29,29,30,30],"right_children":[2,4,6,8,10,12,14,16,18,20,22,24,26,28,30,32,34,36,38,40,42,44,46,48,50,52,54,56,58,60,62,-1,-1,-1,-1,-1,-1,-1,-1,-1,-1,-1,-1,-1,-1,-1,-1,-1,-1,-1,-1,-1,-1,-1,-1,-1,-1,-1,-1,-1,-1,-1,-1],"split_conditions":[1.5357794E-1,1.8858783E-3,9.947941E-1,4.398763E0,4.9039844E-2,-2.8982577E-3,2.5627054E2,2.1962786E1,2.0366174E2,2.730261E2,2.7944064E2,3.8576653E1,1.59779625E1,2.504485E2,2.613471E2,-4.2261687E-1,2.721773E2,4.4592775E-2,2.766025E2,2.714667E2,2.777476E2,2.6034164E0,1.9872105E0,5.1905342E1,8.793086E0,1.186556E0,2.9997873E2,-7.088115E-3,1.6633132E-1,8.006056E0,1.903457E1,7.6468834E1,3.868054E1,8.802743E1,-3.9501717E1,-3.3294797E2,-1.6441858E2,8.206911E1,-7.1961655E1,5.0744785E1,-1.674796E2,5.136738E1,9.504951E1,-1.3643413E2,-3.33401E1,-5.4661385E1,3.8259186E1,-2.27795E2,-1.7544598E2,-1.9226204E1,-1.6601949E2,-6.582019E1,-1.6759444E2,1.7771002E1,-1.6276237E2,-1.5495758E2,-3.6524746E1,1.605839E1,1.0477522E2,-2.9341354E2,1.3726537E2,-8.2163414E1,1.0859765E2],"split_indices":[7,5,8,1,7,5,0,3,0,0,0,3,1,0,0,5,0,7,0,0,0,1,1,1,1,0,3,5,7,1,1,0,0,0,0,0,0,0,0,0,0,0,0,0,0,0,0,0,0,0,0,0,0,0,0,0,0,0,0,0,0,0,0],"split_type":[0,0,0,0,0,0,0,0,0,0,0,0,0,0,0,0,0,0,0,0,0,0,0,0,0,0,0,0,0,0,0,0,0,0,0,0,0,0,0,0,0,0,0,0,0,0,0,0,0,0,0,0,0,0,0,0,0,0,0,0,0,0,0],"sum_hessian":[8.3198E4,6.6043E4,1.7155E4,5.1171E4,1.4872E4,6.137E3,1.1018E4,4.7673E4,3.498E3,4.044E3,1.0828E4,1.93E3,4.207E3,6.863E3,4.155E3,4.3254E4,4.419E3,1.038E3,2.46E3,1.598E3,2.446E3,6.607E3,4.221E3,8.75E2,1.055E3,3.029E3,1.178E3,5.767E3,1.096E3,5.6E2,3.595E3,7.742E3,3.5512E4,1.593E3,2.826E3,2.76E2,7.62E2,1.644E3,8.16E2,1.267E3,3.31E2,8.45E2,1.601E3,4.773E3,1.834E3,1.509E3,2.712E3,7.62E2,1.13E2,3.44E2,7.11E2,1.287E3,1.742E3,8.76E2,3.02E2,1.019E3,4.748E3,3.03E2,7.93E2,5.3E2,3E1,3.337E3,2.58E2],"tree_param":{"num_deleted":"0","num_feature":"9","num_nodes":"63","size_leaf_vector":"1"}},{"base_weights":[-1.0331348E1,-9.5278656E2,6.476428E2,-6.502427E2,-2.2439548E3,1.0258223E3,2.831992E2,-2.8820248E2,-1.8078118E3,-2.1172874E3,-2.7843622E2,1.0416732E3,-1.3451088E3,8.755918E2,-5.4047695E1,1.4984862E2,-1.0662539E3,-5.431462E2,-3.023374E3,-3.0078394E3,-1.7210005E3,1.333239E3,9.2442114E2,-5.7323774E3,1.8429697E3,1.43647E3,6.82179E2,6.219009E2,-3.974676E2,5.027755E1,-1.1763499E1,1.0883669E1,-6.850192E1,-1.2059204E2,5.8063656E1,-1.7563115E2,-2.8501688E1,-1.8526688E2,-2.7788188E0,-1.0835664E2,-2.990828E1,6.7209015E1,-3.6421288E1,-3.853396E2,4.6773224E1,-2.925501E2,5.53865E1,8.108775E1,1.3747722E2,8.622515E1,6.003131E1,-1.3929318E2,4.4701763E1,-5.671942E1,8.544201E1,4.063026E0,-9.82764E1],"categories":[],"categories_nodes":[],"categories_segments":[],"categories_sizes":[],"default_left":[0,0,0,0,0,0,0,0,0,0,0,0,0,0,0,0,0,0,0,0,0,0,0,0,0,0,0,0,0,0,0,0,0,0,0,0,0,0,0,0,0,0,0,0,0,0,0,0,0,0,0,0,0,0,0,0,0],"id":14,"left_children":[1,3,5,7,9,11,13,15,17,19,-1,21,23,25,27,29,31,33,35,37,39,41,43,45,47,49,51,53,55,-1,-1,-1,-1,-1,-1,-1,-1,-1,-1,-1,-1,-1,-1,-1,-1,-1,-1,-1,-1,-1,-1,-1,-1,-1,-1,-1,-1],"loss_changes":[5.187912E10,1.3434429E10,6.789798E9,1.1678163E10,2.7378278E9,9.100124E8,5.0125916E9,7.235561E9,1.0204359E10,2.2150083E9,0E0,8.198308E8,2.2624648E9,9.864141E8,3.7118408E9,4.476472E9,2.982913E9,1.0370105E10,4.0609956E9,3.9864013E9,2.1807677E9,1.563095E8,1.6401859E9,6.1656576E7,1.4392384E7,1.564119E8,4.976588E9,1.0285613E10,7.959562E9,0E0,0E0,0E0,0E0,0E0,0E0,0E0,0E0,0E0,0E0,0E0,0E0,0E0,0E0,0E0,0E0,0E0,0E0,0E0,0E0,0E0,0E0,0E0,0E0,0E0,0E0,0E0,0E0],"parents":[2147483647,0,0,1,1,2,2,3,3,4,4,5,5,6,6,7,7,8,8,9,9,11,11,12,12,13,13,14,14,15,15,16,16,17,17,18,18,19,19,20,20,21,21,22,22,23,23,24,24,25,25,26,26,27,27,28,28],"right_children":[2,4,6,8,10,12,14,16,18,20,-1,22,24,26,28,30,32,34,36,38,40,42,44,46,48,50,52,54,56,-1,-1,-1,-1,-1,-1,-1,-1,-1,-1,-1,-1,-1,-1,-1,-1,-1,-1,-1,-1,-1,-1,-1,-1,-1,-1,-1,-1],"split_conditions":[9.9936146E-1,6.1361533E-1,3.8743965E-2,3.530331E-1,1.8124945E3,2.9871945E2,8.2744695E-2,1.6203609E-1,1.9577612E3,-2.8982577E-3,-2.7843622E2,2.414331E-2,2.1788304E0,4.8634E-1,-2.147858E-1,-3.3836535E-1,6.0990386E-2,7.500586E2,2.5324504E0,7.903247E2,1.3628158E1,3.563484E0,7.83752E-1,1.0750406E3,1.0297155E2,4.53914E-1,5.242334E-2,1.2086001E3,1.5883682E3,5.027755E1,-1.1763499E1,1.0883669E1,-6.850192E1,-1.2059204E2,5.8063656E1,-1.7563115E2,-2.8501688E1,-1.8526688E2,-2.7788188E0,-1.0835664E2,-2.990828E1,6.7209015E1,-3.6421288E1,-3.853396E2,4.6773224E1,-2.925501E2,5.53865E1,8.108775E1,1.3747722E2,8.622515E1,6.003131E1,-1.3929318E2,4.4701763E1,-5.671942E1,8.544201E1,4.063026E0,-9.82764E1],"split_indices":[8,7,7,5,2,0,2,7,2,5,0,1,1,0,5,5,2,2,1,2,1,0,0,2,2,0,2,2,2,0,0,0,0,0,0,0,0,0,0,0,0,0,0,0,0,0,0,0,0,0,0,0,0,0,0,0,0],"split_type":[0,0,0,0,0,0,0,0,0,0,0,0,0,0,0,0,0,0,0,0,0,0,0,0,0,0,0,0,0,0,0,0,0,0,0,0,0,0,0,0,0,0,0,0,0,0,0,0,0,0,0,0,0,0,0,0,0],"sum_hessian":[8.3659E4,3.4394E4,4.9265E4,2.7866E4,6.528E3,2.4176E4,2.5089E4,2.1228E4,6.638E3,6.29E3,2.38E2,2.4016E4,1.6E2,9.101E3,1.5988E4,1.3582E4,7.646E3,3.254E3,3.384E3,1.935E3,4.355E3,6.885E3,1.7131E4,6.7E1,9.3E1,2.332E3,6.769E3,5.386E3,1.0602E4,4.215E3,9.367E3,1.463E3,6.183E3,1.552E3,1.702E3,2.821E3,5.63E2,1.565E3,3.7E2,3.116E3,1.239E3,6.849E3,3.6E1,2.1E1,1.711E4,6.6E1,1E0,7.7E1,1.6E1,1.047E3,1.285E3,3.89E2,6.38E3,2.059E3,3.327E3,8.123E3,2.479E3],"tree_param":{"num_deleted":"0","num_feature":"9","num_nodes":"57","size_leaf_vector":"1"}},{"base_weights":[1.2354943E0,-8.953528E2,6.285609E2,-5.170484E2,-1.8490204E3,9.876055E2,2.737605E2,1.02009766E2,-1.4438568E3,-2.7954536E3,-1.4934812E3,1.2681262E3,8.750704E2,9.1060455E2,8.7427E0,3.437672E2,-3.3400828E3,-2.1038943E3,-2.6781613E2,-3.92051E3,-1.6589733E3,-1.8105835E3,-4.5609756E1,1.3953314E3,1.1471246E3,5.858265E2,1.109746E3,1.362667E3,6.875907E2,5.8803235E2,-2.4511478E2,5.4555225E1,1.13005124E-1,-2.2444312E2,-8.508449E1,-1.1099198E2,1.14323906E2,-1.6507433E2,7.9272294E0,-2.103334E2,-1.24250694E2,8.032832E1,-1.2824107E2,-6.129077E1,-1.2287545E2,4.2322414E1,-1.5491022E2,1.9971697E1,7.018853E1,1.5545529E1,5.9469147E1,-6.3067657E1,4.0843616E1,-1.8187277E1,5.803904E1,5.8551655E1,8.209163E1,-1.3624667E1,4.773302E1,5.985171E1,-3.6494507E1,-6.2760815E1,-1.8555325E0],"categories":[],"categories_nodes":[],"categories_segments":[],"categories_sizes":[],"default_left":[0,0,0,0,0,0,0,0,0,0,0,0,0,0,0,0,0,0,0,0,0,0,0,0,0,0,0,0,0,0,0,0,0,0,0,0,0,0,0,0,0,0,0,0,0,0,0,0,0,0,0,0,0,0,0,0,0,0,0,0,0,0,0],"id":15,"left_children":[1,3,5,7,9,11,13,15,17,19,21,23,25,27,29,31,33,35,37,39,41,43,45,47,49,51,53,55,57,59,61,-1,-1,-1,-1,-1,-1,-1,-1,-1,-1,-1,-1,-1,-1,-1,-1,-1,-1,-1,-1,-1,-1,-1,-1,-1,-1,-1,-1,-1,-1,-1,-1],"loss_changes":[4.6987854E10,1.2406153E10,6.261037E9,1.4128126E10,3.2823644E9,7.700746E8,4.1726162E9,1.2287032E10,7.653851E9,3.4022543E9,3.2606126E9,1.0602086E8,1.1830149E9,7.3149286E8,2.5676124E9,3.5210258E9,1.8161664E9,3.2201892E9,4.587054E9,5.395804E8,3.9324547E9,2.2009713E9,3.4800108E9,2.804736E7,1.2645427E8,3.3354875E9,7.2429056E8,1.2641843E8,1.2482043E9,4.2707973E9,2.5506317E9,0E0,0E0,0E0,0E0,0E0,0E0,0E0,0E0,0E0,0E0,0E0,0E0,0E0,0E0,0E0,0E0,0E0,0E0,0E0,0E0,0E0,0E0,0E0,0E0,0E0,0E0,0E0,0E0,0E0,0E0,0E0,0E0],"parents":[2147483647,0,0,1,1,2,2,3,3,4,4,5,5,6,6,7,7,8,8,9,9,10,10,11,11,12,12,13,13,14,14,15,15,16,16,17,17,18,18,19,19,20,20,21,21,22,22,23,23,24,24,25,25,26,26,27,27,28,28,29,29,30,30],"right_children":[2,4,6,8,10,12,14,16,18,20,22,24,26,28,30,32,34,36,38,40,42,44,46,48,50,52,54,56,58,60,62,-1,-1,-1,-1,-1,-1,-1,-1,-1,-1,-1,-1,-1,-1,-1,-1,-1,-1,-1,-1,-1,-1,-1,-1,-1,-1,-1,-1,-1,-1,-1,-1],"split_conditions":[9.9936146E-1,2.7717164E-1,3.903242E-2,5.215851E-3,-2.8982577E-3,2.414331E-2,2.7572785E-3,3.7044468E0,2.5511463E0,1.9176472E1,1.903457E1,2.645097E-3,1.6150793E0,8.471271E-3,-2.147858E-1,-4.54102E-1,2.7290783E1,3.2524857E1,1.1759788E0,-7.088115E-3,5.428312E0,2.6561326E-1,2.9997873E2,-9.6612035E-5,7.751516E-3,-1.589535E-2,1.5821718E0,9.9952143E-1,1.0905832E-2,2.2357813E1,-2.3593742E-4,5.4555225E1,1.13005124E-1,-2.2444312E2,-8.508449E1,-1.1099198E2,1.14323906E2,-1.6507433E2,7.9272294E0,-2.103334E2,-1.24250694E2,8.032832E1,-1.2824107E2,-6.129077E1,-1.2287545E2,4.2322414E1,-1.5491022E2,1.9971697E1,7.018853E1,1.5545529E1,5.9469147E1,-6.3067657E1,4.0843616E1,-1.8187277E1,5.803904E1,5.8551655E1,8.209163E1,-1.3624667E1,4.773302E1,5.985171E1,-3.6494507E1,-6.2760815E1,-1.8555325E0],"split_indices":[8,7,7,5,5,1,3,1,1,3,1,3,3,1,5,5,3,3,3,5,1,1,3,5,1,5,1,8,1,3,5,0,0,0,0,0,0,0,0,0,0,0,0,0,0,0,0,0,0,0,0,0,0,0,0,0,0,0,0,0,0,0,0],"split_type":[0,0,0,0,0,0,0,0,0,0,0,0,0,0,0,0,0,0,0,0,0,0,0,0,0,0,0,0,0,0,0,0,0,0,0,0,0,0,0,0,0,0,0,0,0,0,0,0,0,0,0,0,0,0,0,0,0,0,0,0,0,0,0],"sum_hessian":[8.3539E4,3.4389E4,4.915E4,2.4623E4,9.766E3,2.4428E4,2.4722E4,1.4763E4,9.86E3,2.665E3,7.101E3,6.991E3,1.7437E4,7.264E3,1.7458E4,1.3795E4,9.68E2,6.315E3,3.545E3,1.338E3,1.327E3,5.825E3,1.276E3,3.403E3,3.588E3,7.812E3,9.625E3,2.398E3,4.866E3,5.319E3,1.2139E4,4.326E3,9.469E3,5.68E2,4E2,6.153E3,1.62E2,4.36E2,3.109E3,1.114E3,2.24E2,2.88E2,1.039E3,3.061E3,2.764E3,9.88E2,2.88E2,2.9E1,3.374E3,1.73E2,3.415E3,8.68E2,6.944E3,3.22E2,9.303E3,1.425E3,9.73E2,1.059E3,3.807E3,3.638E3,1.681E3,2.072E3,1.0067E4],"tree_param":{"num_deleted":"0","num_feature":"9","num_nodes":"63","size_leaf_vector":"1"}},{"base_weights":[-9.127991E0,5.902379E2,-8.72202E2,9.2998566E2,2.5465309E2,-1.9940546E3,-5.928246E2,8.477988E2,1.3542832E3,7.45291E2,-7.8591866E1,-1.8792351E3,-2.5995236E2,4.1613666E2,-7.9677246E2,9.339876E2,-3.4122302E2,1.4385165E3,1.1619926E3,1.3007833E3,5.665787E2,-5.1583405E2,3.364026E2,-1.9864222E3,8.0787213E2,9.151066E1,1.0598557E3,-1.2826399E3,-5.275548E2,6.052989E1,3.8732716E1,-3.1243048E2,2.9770312E0,7.6420074E1,6.688784E1,6.592519E1,-2.8711725E1,7.598195E1,5.6091625E1,-6.511926E1,3.5168083E1,-1.0025944E0,-1.8615892E2,3.427293E1,-6.499759E1,-5.9461163E1,-1.137833E2,1.8172551E2,-2.2208008E2,1.8749624E1,-8.428433E1,7.630776E1,-5.3757214E1,-4.0122116E1,-1.5038713E2,4.6220287E1,-4.3236053E1],"categories":[],"categories_nodes":[],"categories_segments":[],"categories_sizes":[],"default_left":[0,0,0,0,0,0,0,0,0,0,0,0,0,0,0,0,0,0,0,0,0,0,0,0,0,0,0,0,0,0,0,0,0,0,0,0,0,0,0,0,0,0,0,0,0,0,0,0,0,0,0,0,0,0,0,0,0],"id":16,"left_children":[1,3,5,7,9,11,13,15,17,19,21,23,-1,25,27,29,31,33,35,37,39,41,43,45,47,49,51,53,55,-1,-1,-1,-1,-1,-1,-1,-1,-1,-1,-1,-1,-1,-1,-1,-1,-1,-1,-1,-1,-1,-1,-1,-1,-1,-1,-1,-1],"loss_changes":[4.3120337E10,5.608577E9,1.0706192E10,8.512901E8,4.0467476E9,2.4966472E9,5.6289085E9,2.0992174E9,6.255053E7,9.93089E8,2.674792E9,1.895936E9,0E0,9.611555E8,2.9756375E9,8.407286E8,3.279312E9,2.2888448E7,3.3037658E8,9.369933E7,1.9376635E9,1.141398E10,4.32072E9,1.455743E9,3.7702487E9,1.541766E9,1.536778E9,6.717489E9,7.1693107E9,0E0,0E0,0E0,0E0,0E0,0E0,0E0,0E0,0E0,0E0,0E0,0E0,0E0,0E0,0E0,0E0,0E0,0E0,0E0,0E0,0E0,0E0,0E0,0E0,0E0,0E0,0E0,0E0],"parents":[2147483647,0,0,1,1,2,2,3,3,4,4,5,5,6,6,7,7,8,8,9,9,10,10,11,11,13,13,14,14,15,15,16,16,17,17,18,18,19,19,20,20,21,21,22,22,23,23,24,24,25,25,26,26,27,27,28,28],"right_children":[2,4,6,8,10,12,14,16,18,20,22,24,-1,26,28,30,32,34,36,38,40,42,44,46,48,50,52,54,56,-1,-1,-1,-1,-1,-1,-1,-1,-1,-1,-1,-1,-1,-1,-1,-1,-1,-1,-1,-1,-1,-1,-1,-1,-1,-1,-1,-1],"split_conditions":[8.3090454E-2,3.903242E-2,9.95715E-1,1.1762045E3,4.415096E-2,1.8124945E3,4.324238E-3,2.1289687E2,2.049478E0,8.794346E-3,7.903247E2,1.5201234E3,-2.5995236E2,5.3036705E-2,7.500586E2,2.414331E-2,8.6248663E2,9.99774E-1,1.6318312E3,6.352607E-2,5.242334E-2,2.5914304E2,1.8932993E3,2.6561326E-1,7.258915E0,5.1467743E-2,6.907097E-2,2.5914304E2,1.9577612E3,6.052989E1,3.8732716E1,-3.1243048E2,2.9770312E0,7.6420074E1,6.688784E1,6.592519E1,-2.8711725E1,7.598195E1,5.6091625E1,-6.511926E1,3.5168083E1,-1.0025944E0,-1.8615892E2,3.427293E1,-6.499759E1,-5.9461163E1,-1.137833E2,1.8172551E2,-2.2208008E2,1.8749624E1,-8.428433E1,7.630776E1,-5.3757214E1,-4.0122116E1,-1.5038713E2,4.6220287E1,-4.3236053E1],"split_indices":[7,7,8,2,1,2,3,2,1,1,2,2,0,2,2,1,2,8,2,7,2,2,2,1,1,2,2,2,2,0,0,0,0,0,0,0,0,0,0,0,0,0,0,0,0,0,0,0,0,0,0,0,0,0,0,0,0],"split_type":[0,0,0,0,0,0,0,0,0,0,0,0,0,0,0,0,0,0,0,0,0,0,0,0,0,0,0,0,0,0,0,0,0,0,0,0,0,0,0,0,0,0,0,0,0,0,0,0,0,0,0,0,0,0,0,0,0],"sum_hessian":[8.3355E4,4.9193E4,3.4162E4,2.4444E4,2.4749E4,6.81E3,2.7352E4,2.048E4,3.964E3,1.001E4,1.4739E4,6.576E3,2.34E2,4.599E3,2.2753E4,1.9096E4,1.384E3,2.752E3,1.212E3,2.435E3,7.575E3,7.177E3,7.562E3,6.324E3,2.52E2,3.058E3,1.541E3,8.111E3,1.4642E4,6.977E3,1.2119E4,8.7E1,1.297E3,1.447E3,1.305E3,1.112E3,1E2,1.092E3,1.343E3,5.16E2,7.059E3,6.217E3,9.6E2,6.233E3,1.329E3,1.685E3,4.639E3,1.64E2,8.8E1,2.638E3,4.2E2,1.265E3,2.76E2,6.346E3,1.765E3,2.759E3,1.1883E4],"tree_param":{"num_deleted":"0","num_feature":"9","num_nodes":"57","size_leaf_vector":"1"}},{"base_weights":[6.4345727E0,3.6234872E2,-1.3516224E3,8.1008734E2,-7.288255E1,-5.2025934E2,-1.5935114E3,6.626974E2,1.0483589E3,5.5400903E2,-4.335977E2,1.1353875E3,-7.917646E2,-2.6209597E3,-1.2283931E3,7.3863586E2,-4.4747314E2,1.1771912E3,9.161675E2,1.1586084E3,3.7977972E2,-1.445538E3,-3.307322E1,-3.6867087E3,1.305471E3,-3.9193047E3,-6.7443036E2,-1.5931211E3,-3.6697634E3,-3.0730954E2,-1.6929513E3,4.248495E1,-5.2150955E0,-2.1927354E2,1.2955482E1,6.0678616E1,2.0151175E1,-1.8059984E2,4.882607E1,6.170707E1,9.491749E0,-6.2439552E1,2.7252441E1,-2.5475767E1,-1.5893443E2,-2.736553E1,7.790908E1,1.02345276E2,-2.6760666E2,1.1341931E2,2.1864271E1,1.7059592E2,-2.3417223E2,-1.1038652E1,-6.0134426E1,-1.1731234E2,-1.5496421E1,-1.9481918E2,-1.4522289E2,-6.570425E1,7.5974625E1,-4.5809746E1,-1.6719539E2],"categories":[],"categories_nodes":[],"categories_segments":[],"categories_sizes":[],"default_left":[0,0,0,0,0,0,0,0,0,0,0,0,0,0,0,0,0,0,0,0,0,0,0,0,0,0,0,0,0,0,0,0,0,0,0,0,0,0,0,0,0,0,0,0,0,0,0,0,0,0,0,0,0,0,0,0,0,0,0,0,0,0,0],"id":17,"left_children":[1,3,5,7,9,11,13,15,17,19,21,23,25,27,29,31,33,35,37,39,41,43,45,47,49,51,53,55,57,59,61,-1,-1,-1,-1,-1,-1,-1,-1,-1,-1,-1,-1,-1,-1,-1,-1,-1,-1,-1,-1,-1,-1,-1,-1,-1,-1,-1,-1,-1,-1,-1,-1],"loss_changes":[4.0273355E10,1.2865169E10,3.4785587E9,1.142143E9,7.5705964E9,1.7544637E9,5.0244096E9,1.695528E9,2.106962E8,1.2876444E9,8.613127E9,4.559004E8,1.2274316E9,3.7811712E9,4.231379E9,1.7620982E9,3.5850237E9,1.7678131E8,1.6820884E9,1.998976E8,2.5560136E9,9.774168E9,1.2460026E10,1.9238445E8,4.4375424E8,6.938313E8,7.742774E8,1.7156086E9,2.901115E8,6.1025536E9,8.4273746E9,0E0,0E0,0E0,0E0,0E0,0E0,0E0,0E0,0E0,0E0,0E0,0E0,0E0,0E0,0E0,0E0,0E0,0E0,0E0,0E0,0E0,0E0,0E0,0E0,0E0,0E0,0E0,0E0,0E0,0E0,0E0,0E0],"parents":[2147483647,0,0,1,1,2,2,3,3,4,4,5,5,6,6,7,7,8,8,9,9,10,10,11,11,12,12,13,13,14,14,15,15,16,16,17,17,18,18,19,19,20,20,21,21,22,22,23,23,24,24,25,25,26,26,27,27,28,28,29,29,30,30],"right_children":[2,4,6,8,10,12,14,16,18,20,22,24,26,28,30,32,34,36,38,40,42,44,46,48,50,52,54,56,58,60,62,-1,-1,-1,-1,-1,-1,-1,-1,-1,-1,-1,-1,-1,-1,-1,-1,-1,-1,-1,-1,-1,-1,-1,-1,-1,-1,-1,-1,-1,-1,-1,-1],"split_conditions":[1.5357794E-1,4.856091E-2,1.174844E0,9.9976933E-1,2.008086E0,1.8429759E-1,6.3851307E1,2.3459118E1,3.213424E0,4.8634E-1,7.903247E2,1.8081691E-2,2.663837E-2,4.4812274E-1,2.5627054E2,3.8511577E0,8.911237E2,2.5983024E-1,1.7826293E-1,1.7095146E-3,1.2235454E-2,2.5914304E2,2.798005E2,4.016658E-2,8.19062E-1,4.72166E-1,6.017536E-2,9.977177E-1,9.625671E0,2.504485E2,1.925593E3,4.248495E1,-5.2150955E0,-2.1927354E2,1.2955482E1,6.0678616E1,2.0151175E1,-1.8059984E2,4.882607E1,6.170707E1,9.491749E0,-6.2439552E1,2.7252441E1,-2.5475767E1,-1.5893443E2,-2.736553E1,7.790908E1,1.02345276E2,-2.6760666E2,1.1341931E2,2.1864271E1,1.7059592E2,-2.3417223E2,-1.1038652E1,-6.0134426E1,-1.1731234E2,-1.5496421E1,-1.9481918E2,-1.4522289E2,-6.570425E1,7.5974625E1,-4.5809746E1,-1.6719539E2],"split_indices":[7,7,0,8,0,7,0,3,0,0,2,1,1,1,0,1,2,2,2,3,1,2,0,2,0,0,2,8,1,0,2,0,0,0,0,0,0,0,0,0,0,0,0,0,0,0,0,0,0,0,0,0,0,0,0,0,0,0,0,0,0,0,0],"split_type":[0,0,0,0,0,0,0,0,0,0,0,0,0,0,0,0,0,0,0,0,0,0,0,0,0,0,0,0,0,0,0,0,0,0,0,0,0,0,0,0,0,0,0,0,0,0,0,0,0,0,0,0,0,0,0,0,0,0,0,0,0,0,0],"sum_hessian":[8.3319E4,6.6018E4,1.7301E4,3.2541E4,3.3477E4,3.9E3,1.3401E4,2.0107E4,1.2434E4,1.2227E4,2.125E4,5.49E2,3.351E3,3.512E3,9.889E3,1.882E4,1.287E3,6.293E3,6.141E3,2.734E3,9.493E3,6.025E3,1.5225E4,1.8E1,5.31E2,1.2E2,3.231E3,1.775E3,1.737E3,3.316E3,6.573E3,1.6629E4,2.191E3,1.95E2,1.092E3,6.01E3,2.83E2,8E1,6.061E3,2.536E3,1.98E2,8.74E2,8.619E3,3.913E3,2.112E3,1.1507E4,3.718E3,4E0,1.4E1,2.51E2,2.8E2,1.1E1,1.09E2,1.739E3,1.492E3,1.118E3,6.57E2,1.337E3,4E2,2.138E3,1.178E3,4.471E3,2.102E3],"tree_param":{"num_deleted":"0","num_feature":"9","num_nodes":"63","size_leaf_vector":"1"}},{"base_weights":[4.1672907E0,-7.47766E2,5.2839355E2,-4.290975E2,-1.5529307E3,8.3998267E2,2.2056618E2,1.2968379E2,-1.2719515E3,-1.8585889E3,-5.704E2,8.5525385E2,-1.2158063E3,7.791226E2,-9.876368E0,-1.9749919E2,7.483736E2,-1.8591469E3,-3.496957E2,-7.246994E2,-2.3774507E3,1.2533038E3,-1.3497069E3,7.990209E2,1.2866296E3,1.4254617E3,-4.215656E3,1.4539182E3,6.65969E2,5.9256586E2,-2.7378336E2,2.0925009E1,-6.528535E1,7.2524574E1,-2.4796745E1,-5.2854744E1,-1.3070525E2,-2.6564407E1,1.5417328E2,-5.3425945E1,4.9857258E1,-1.4096056E2,-6.660466E1,1.1333409E1,1.1780524E2,-2.1898664E1,-1.4124295E2,4.3925373E1,-5.7734847E0,-1.1543221E2,6.992956E1,7.476489E1,-7.929136E0,-1.5933113E2,-2.7022742E2,7.1095116E1,7.889968E1,1.59023695E1,4.5078136E1,7.715223E1,-1.6299109E1,-2.94866E1,4.468761E1],"categories":[],"categories_nodes":[],"categories_segments":[],"categories_sizes":[],"default_left":[0,0,0,0,0,0,0,0,0,0,0,0,0,0,0,0,0,0,0,0,0,0,0,0,0,0,0,0,0,0,0,0,0,0,0,0,0,0,0,0,0,0,0,0,0,0,0,0,0,0,0,0,0,0,0,0,0,0,0,0,0,0,0],"id":18,"left_children":[1,3,5,7,9,11,13,15,17,19,21,23,25,27,29,31,33,35,37,39,41,43,45,47,49,51,53,55,57,59,61,-1,-1,-1,-1,-1,-1,-1,-1,-1,-1,-1,-1,-1,-1,-1,-1,-1,-1,-1,-1,-1,-1,-1,-1,-1,-1,-1,-1,-1,-1,-1,-1],"loss_changes":[3.2969482E10,8.81493E9,4.7267287E9,1.159406E10,2.9246444E9,7.699169E8,3.1911142E9,2.996844E9,5.3140634E9,4.369582E9,3.2889846E9,5.886976E8,1.4401457E9,5.519227E8,2.790732E9,6.61138E9,4.474687E9,3.627909E9,2.3825405E9,1.3828026E9,2.3500247E9,7.840631E8,2.17892E9,1.5636572E9,1.1311252E9,1.09676E7,8.676749E7,1.883392E6,5.081618E8,4.668756E9,4.5030917E9,0E0,0E0,0E0,0E0,0E0,0E0,0E0,0E0,0E0,0E0,0E0,0E0,0E0,0E0,0E0,0E0,0E0,0E0,0E0,0E0,0E0,0E0,0E0,0E0,0E0,0E0,0E0,0E0,0E0,0E0,0E0,0E0],"parents":[2147483647,0,0,1,1,2,2,3,3,4,4,5,5,6,6,7,7,8,8,9,9,10,10,11,11,12,12,13,13,14,14,15,15,16,16,17,17,18,18,19,19,20,20,21,21,22,22,23,23,24,24,25,25,26,26,27,27,28,28,29,29,30,30],"right_children":[2,4,6,8,10,12,14,16,18,20,22,24,26,28,30,32,34,36,38,40,42,44,46,48,50,52,54,56,58,60,62,-1,-1,-1,-1,-1,-1,-1,-1,-1,-1,-1,-1,-1,-1,-1,-1,-1,-1,-1,-1,-1,-1,-1,-1,-1,-1,-1,-1,-1,-1,-1,-1],"split_conditions":[9.9936146E-1,2.7717164E-1,3.903242E-2,5.215851E-3,1.0906378E-1,2.9871945E2,2.7572785E-3,9.142712E0,2.7575183E2,1.11489E0,9.773246E0,2.8240176E2,2.0814373E1,4.53914E-1,-2.147858E-1,1.826112E0,2.7601675E2,3.7656954E-1,3.3367273E2,2.0565605E0,2.6713498E2,9.863885E-1,2.7637486E0,2.7721637E2,-1.9236424E0,1.020746E1,3.0125327E2,1.4619427E-3,8.19062E-1,2.7463092E2,2.7875592E2,2.0925009E1,-6.528535E1,7.2524574E1,-2.4796745E1,-5.2854744E1,-1.3070525E2,-2.6564407E1,1.5417328E2,-5.3425945E1,4.9857258E1,-1.4096056E2,-6.660466E1,1.1333409E1,1.1780524E2,-2.1898664E1,-1.4124295E2,4.3925373E1,-5.7734847E0,-1.1543221E2,6.992956E1,7.476489E1,-7.929136E0,-1.5933113E2,-2.7022742E2,7.1095116E1,7.889968E1,1.59023695E1,4.5078136E1,7.715223E1,-1.6299109E1,-2.94866E1,4.468761E1],"split_indices":[8,7,7,5,5,0,3,3,0,0,3,0,3,0,5,0,0,5,0,7,0,8,7,0,5,3,0,3,0,0,0,0,0,0,0,0,0,0,0,0,0,0,0,0,0,0,0,0,0,0,0,0,0,0,0,0,0,0,0,0,0,0,0],"split_type":[0,0,0,0,0,0,0,0,0,0,0,0,0,0,0,0,0,0,0,0,0,0,0,0,0,0,0,0,0,0,0,0,0,0,0,0,0,0,0,0,0,0,0,0,0,0,0,0,0,0,0,0,0,0,0,0,0,0,0,0,0,0,0],"sum_hessian":[8.3638E4,3.4357E4,4.9281E4,2.4616E4,9.741E3,2.449E4,2.4791E4,1.4803E4,9.813E3,7.429E3,2.312E3,2.431E4,1.8E2,7.24E3,1.7551E4,9.683E3,5.12E3,5.995E3,3.818E3,2.333E3,5.096E3,6.92E2,1.62E3,2.1509E4,2.801E3,9.6E1,8.4E1,1.038E3,6.202E3,5.346E3,1.2205E4,6.224E3,3.459E3,3.273E3,1.847E3,2.908E3,3.087E3,3.627E3,1.91E2,1.945E3,3.88E2,3.581E3,1.515E3,3.59E2,3.33E2,1.002E3,6.18E2,1.9789E4,1.72E3,8.4E1,2.717E3,9.2E1,4E0,4.7E1,3.7E1,8.35E2,2.03E2,2.505E3,3.697E3,2.627E3,2.719E3,9.606E3,2.599E3],"tree_param":{"num_deleted":"0","num_feature":"9","num_nodes":"63","size_leaf_vector":"1"}},{"base_weights":[-5.5303793E0,-1.2321825E3,3.1414066E2,-3.1340872E2,-1.4601719E3,5.4384045E2,-4.8262262E2,-5.2559174E2,9.677397E2,-2.4894763E3,-1.2353881E3,6.378673E2,-8.003113E2,4.6088824E2,-1.8216407E3,-3.315656E3,-3.8065973E2,-4.9685293E3,1.1153605E3,-1.7017197E3,-3.7454514E3,-1.474556E3,-1.2413712E2,4.8628278E2,1.153313E3,-2.9408792E3,3.4475922E2,6.406744E2,-3.4124817E3,-2.1642507E3,2.7358514E2,3.733253E1,-2.2134341E2,-2.2956151E2,-1.5660062E1,-3.3155026E2,7.086426E-1,-1.588984E2,6.504058E1,-1.08357254E2,1.7543303E1,-1.663336E2,-2.275335E2,-1.8253218E1,-8.919241E1,-1.1515729E2,3.0210602E1,3.1484282E1,-5.8573658E1,-9.548236E0,7.094398E1,-1.6632724E2,4.0113457E1,6.7443344E1,-6.566746E1,-4.095914E1,4.401878E1,1.7255507E1,-2.31373E2,2.7125294E1,-1.23020836E2,7.7553986E1,-3.2246056E1],"categories":[],"categories_nodes":[],"categories_segments":[],"categories_sizes":[],"default_left":[0,0,0,0,0,0,0,0,0,0,0,0,0,0,0,0,0,0,0,0,0,0,0,0,0,0,0,0,0,0,0,0,0,0,0,0,0,0,0,0,0,0,0,0,0,0,0,0,0,0,0,0,0,0,0,0,0,0,0,0,0,0,0],"id":19,"left_children":[1,3,5,7,9,11,13,15,17,19,21,23,25,27,29,31,33,35,37,39,41,43,45,47,49,51,53,55,57,59,61,-1,-1,-1,-1,-1,-1,-1,-1,-1,-1,-1,-1,-1,-1,-1,-1,-1,-1,-1,-1,-1,-1,-1,-1,-1,-1,-1,-1,-1,-1,-1,-1],"loss_changes":[3.2664807E10,3.6068332E9,1.2094165E10,9.315535E8,3.1891517E9,6.483372E9,1.8683675E10,1.18718E9,4.3230794E8,2.439428E9,3.0099927E9,3.7452431E9,8.222007E9,6.043963E9,4.388782E9,6.578474E8,7.9245005E8,9.949744E7,3.8312666E8,1.4538102E9,3.0588314E8,3.197573E9,3.1866596E9,8.808044E9,3.8893763E9,1.690241E9,3.6412849E9,2.9023373E9,1.759274E9,4.2131988E9,1.01011296E9,0E0,0E0,0E0,0E0,0E0,0E0,0E0,0E0,0E0,0E0,0E0,0E0,0E0,0E0,0E0,0E0,0E0,0E0,0E0,0E0,0E0,0E0,0E0,0E0,0E0,0E0,0E0,0E0,0E0,0E0,0E0,0E0],"parents":[2147483647,0,0,1,1,2,2,3,3,4,4,5,5,6,6,7,7,8,8,9,9,10,10,11,11,12,12,13,13,14,14,15,15,16,16,17,17,18,18,19,19,20,20,21,21,22,22,23,23,24,24,25,25,26,26,27,27,28,28,29,29,30,30],"right_children":[2,4,6,8,10,12,14,16,18,20,22,24,26,28,30,32,34,36,38,40,42,44,46,48,50,52,54,56,58,60,62,-1,-1,-1,-1,-1,-1,-1,-1,-1,-1,-1,-1,-1,-1,-1,-1,-1,-1,-1,-1,-1,-1,-1,-1,-1,-1,-1,-1,-1,-1,-1,-1],"split_conditions":[9.9881977E-1,7.7738784E-2,1.8858783E-3,9.986115E-1,9.9999994E-1,4.593297E0,1.692798E3,2.663837E-2,-2.5981644E-4,1.4102075E-1,1.903457E1,1.2086001E3,2.3847853E1,1.0000002E0,1.838672E1,3.845031E-2,9.512702E-1,6.986224E-2,1.8081691E-2,9.981621E-1,9.95715E-1,-5.7139313E-1,6.3419255E-4,2.5914304E2,7.948494E0,9.99756E-1,6.407944E1,9.9918E-1,8.7938316E-2,4.976326E0,1.8310381E3,3.733253E1,-2.2134341E2,-2.2956151E2,-1.5660062E1,-3.3155026E2,7.086426E-1,-1.588984E2,6.504058E1,-1.08357254E2,1.7543303E1,-1.663336E2,-2.275335E2,-1.8253218E1,-8.919241E1,-1.1515729E2,3.0210602E1,3.1484282E1,-5.8573658E1,-9.548236E0,7.094398E1,-1.6632724E2,4.0113457E1,6.7443344E1,-6.566746E1,-4.095914E1,4.401878E1,1.7255507E1,-2.31373E2,2.7125294E1,-1.23020836E2,7.7553986E1,-3.2246056E1],"split_indices":[8,2,5,8,6,1,2,1,5,3,1,2,2,6,3,2,8,2,1,8,8,5,5,2,3,8,2,8,3,3,2,0,0,0,0,0,0,0,0,0,0,0,0,0,0,0,0,0,0,0,0,0,0,0,0,0,0,0,0,0,0,0,0],"split_type":[0,0,0,0,0,0,0,0,0,0,0,0,0,0,0,0,0,0,0,0,0,0,0,0,0,0,0,0,0,0,0,0,0,0,0,0,0,0,0,0,0,0,0,0,0,0,0,0,0,0,0,0,0,0,0,0,0,0,0,0,0,0,0],"sum_hessian":[8.33E4,1.722E4,6.608E4,3.424E3,1.3796E4,5.1293E4,1.4787E4,2.938E3,4.86E2,2.471E3,1.1325E4,4.794E4,3.353E3,8.675E3,6.112E3,1.44E2,2.794E3,1.1E1,4.75E2,1.52E3,9.51E2,9.319E3,2.006E3,3.7047E4,1.0893E4,1.168E3,2.185E3,8.291E3,3.84E2,5.253E3,8.59E2,3.1E1,1.13E2,4.3E1,2.751E3,8E0,3E0,1.9E1,4.56E2,1.239E3,2.81E2,6.29E2,3.22E2,2.032E3,7.287E3,5.02E2,1.504E3,3.4098E4,2.949E3,1.797E3,9.096E3,1.059E3,1.09E2,1.361E3,8.24E2,1.169E3,7.122E3,9.4E1,2.9E2,5.18E2,4.735E3,3.59E2,5E2],"tree_param":{"num_deleted":"0","num_feature":"9","num_nodes":"63","size_leaf_vector":"1"}},{"base_weights":[-9.4501E-1,-1.1318998E3,2.9351022E2,-3.4233096E2,-1.3775627E3,5.223366E2,-4.3290253E2,-6.652787E2,8.351122E2,-2.8467769E3,-1.0840502E3,6.259259E2,-6.22578E2,-1.1105907E3,4.76182E2,8.9065497E2,-8.8953516E2,1.1069524E3,-1.5663612E3,-2.2527512E3,-3.5986802E3,-1.3211315E3,-1.7056665E1,6.462292E2,-1.3750337E3,-3.8385173E3,5.3687085E2,-1.6555565E3,4.2277756E2,8.718389E1,1.4313661E3,-2.148004E2,7.041566E1,-3.305555E1,-1.245592E2,3.4456512E1,1.25177956E2,-1.14609024E2,1.6712392E2,-1.4973193E2,-6.946725E1,-1.580026E2,-2.2680223E2,-2.786492E1,-9.04422E1,-2.0678242E2,1.481739E1,2.9684772E1,5.8243725E1,5.7572327E1,-2.153203E2,-1.4470827E2,-3.1788162E2,6.709459E1,-5.910751E1,-9.260317E1,6.9043594E1,3.8809838E0,7.1626755E1,-1.3744684E1,6.2117645E1,-3.622936E1,7.623453E1],"categories":[],"categories_nodes":[],"categories_segments":[],"categories_sizes":[],"default_left":[0,0,0,0,0,0,0,0,0,0,0,0,0,0,0,0,0,0,0,0,0,0,0,0,0,0,0,0,0,0,0,0,0,0,0,0,0,0,0,0,0,0,0,0,0,0,0,0,0,0,0,0,0,0,0,0,0,0,0,0,0,0,0],"id":20,"left_children":[1,3,5,7,9,11,13,15,17,19,21,23,25,27,29,31,33,35,37,39,41,43,45,47,49,51,53,55,57,59,61,-1,-1,-1,-1,-1,-1,-1,-1,-1,-1,-1,-1,-1,-1,-1,-1,-1,-1,-1,-1,-1,-1,-1,-1,-1,-1,-1,-1,-1,-1,-1,-1],"loss_changes":[2.7782488E10,3.3423688E9,1.1002985E10,1.5561687E9,5.6650404E9,5.9704054E9,9.769642E9,1.1212006E9,5.7686586E8,9.6916275E8,2.7717059E9,1.876226E9,1.5576913E10,7.5924275E9,2.5164836E9,1.093442E9,1.0253089E9,4.6043296E8,3.2832522E8,7.805138E8,3.820196E8,3.3387315E9,2.57376E9,1.244416E9,3.4413676E9,2.6150758E9,4.2513833E9,4.0020992E9,8.304257E8,2.0138488E9,3.9546342E8,0E0,0E0,0E0,0E0,0E0,0E0,0E0,0E0,0E0,0E0,0E0,0E0,0E0,0E0,0E0,0E0,0E0,0E0,0E0,0E0,0E0,0E0,0E0,0E0,0E0,0E0,0E0,0E0,0E0,0E0,0E0,0E0],"parents":[2147483647,0,0,1,1,2,2,3,3,4,4,5,5,6,6,7,7,8,8,9,9,10,10,11,11,12,12,13,13,14,14,15,15,16,16,17,17,18,18,19,19,20,20,21,21,22,22,23,23,24,24,25,25,26,26,27,27,28,28,29,29,30,30],"right_children":[2,4,6,8,10,12,14,16,18,20,22,24,26,28,30,32,34,36,38,40,42,44,46,48,50,52,54,56,58,60,62,-1,-1,-1,-1,-1,-1,-1,-1,-1,-1,-1,-1,-1,-1,-1,-1,-1,-1,-1,-1,-1,-1,-1,-1,-1,-1,-1,-1,-1,-1,-1,-1],"split_conditions":[9.9881977E-1,1.205112E0,4.3884845E-4,9.983663E-1,9.9999994E-1,3.5693069E0,2.7575183E2,9.841974E-1,1.0000019E0,1.4102075E-1,1.903457E1,2.9871945E2,2.0366174E2,9.9965733E-1,9.996198E-1,9.512702E-1,5.118368E-4,1.046634E0,1.7291762E-2,9.960223E-1,9.960223E-1,2.5627054E2,8.397927E-1,2.816576E2,1.7855639E1,9.9966246E-1,2.7842987E2,1.0553083E1,1.1409605E0,4.810417E0,1.9102547E0,-2.148004E2,7.041566E1,-3.305555E1,-1.245592E2,3.4456512E1,1.25177956E2,-1.14609024E2,1.6712392E2,-1.4973193E2,-6.946725E1,-1.580026E2,-2.2680223E2,-2.786492E1,-9.04422E1,-2.0678242E2,1.481739E1,2.9684772E1,5.8243725E1,5.7572327E1,-2.153203E2,-1.4470827E2,-3.1788162E2,6.709459E1,-5.910751E1,-9.260317E1,6.9043594E1,3.8809838E0,7.1626755E1,-1.3744684E1,6.2117645E1,-3.622936E1,7.623453E1],"split_indices":[8,0,5,8,6,1,0,8,6,3,1,0,0,8,8,8,5,0,3,8,8,0,8,0,3,8,0,1,5,1,1,0,0,0,0,0,0,0,0,0,0,0,0,0,0,0,0,0,0,0,0,0,0,0,0,0,0,0,0,0,0,0,0],"split_type":[0,0,0,0,0,0,0,0,0,0,0,0,0,0,0,0,0,0,0,0,0,0,0,0,0,0,0,0,0,0,0,0,0,0,0,0,0,0,0,0,0,0,0,0,0,0,0,0,0,0,0,0,0,0,0,0,0,0,0,0,0,0,0],"sum_hessian":[8.3425E4,1.7233E4,6.6192E4,4.09E3,1.3143E4,5.0336E4,1.5856E4,3.21E3,8.8E2,2.187E3,1.0956E4,4.616E4,4.176E3,9.084E3,6.772E3,4.04E2,2.806E3,7.91E2,8.9E1,1.224E3,9.63E2,8.964E3,1.992E3,4.5697E4,4.63E2,1.106E3,3.07E3,6.702E3,2.382E3,4.813E3,1.959E3,3.6E1,3.68E2,2.457E3,3.49E2,6.1E2,1.81E2,7.8E1,1.1E1,6.57E2,5.67E2,6.59E2,3.04E2,3.494E3,5.47E3,1.4E2,1.852E3,4.1496E4,4.201E3,2.49E2,2.14E2,8.06E2,3E2,2.091E3,9.79E2,6.295E3,4.07E2,1.776E3,6.06E2,3.665E3,1.148E3,8.1E1,1.878E3],"tree_param":{"num_deleted":"0","num_feature":"9","num_nodes":"63","size_leaf_vector":"1"}},{"base_weights":[-9.04414E0,4.679365E2,-6.9361395E2,6.5957526E2,7.956973E1,-4.1083688E2,-1.3990613E3,9.610862E2,5.690675E2,9.9397156E2,-1.2397989E2,-6.879647E1,-1.4446364E3,-1.6572029E3,-5.4652527E2,1.0520776E3,6.461515E2,-3.2130618E3,5.9953625E2,-2.608151E2,1.0819143E3,-3.9112832E3,-3.1348467E1,-3.565421E2,6.8198285E2,-3.0678036E2,-2.387749E3,-5.9190845E2,-2.144139E3,1.3427032E3,-1.3394271E3,4.4989674E1,6.4056175E1,-2.9587492E1,5.377483E1,-1.4714232E1,-2.6147153E2,2.4056036E1,4.9845154E1,-2.206403E2,7.864317E1,5.6413757E1,-9.0852165E1,-3.4891394E2,-2.7906439E1,1.118711E1,-3.8367233E1,1.4096064E1,-4.584119E1,-1.121708E2,5.4907726E1,-1.104212E2,7.008876E1,-1.4309378E2,-1.7856003E0,-6.032321E1,2.1283293E1,-1.2815578E2,-5.6560585E1,3.7549072E1,1.600193E2,-1.9840033E2,-3.547798E1],"categories":[],"categories_nodes":[],"categories_segments":[],"categories_sizes":[],"default_left":[0,0,0,0,0,0,0,0,0,0,0,0,0,0,0,0,0,0,0,0,0,0,0,0,0,0,0,0,0,0,0,0,0,0,0,0,0,0,0,0,0,0,0,0,0,0,0,0,0,0,0,0,0,0,0,0,0,0,0,0,0,0,0],"id":21,"left_children":[1,3,5,7,9,11,13,15,17,19,21,23,25,27,29,31,33,35,37,39,41,43,45,47,49,51,53,55,57,59,61,-1,-1,-1,-1,-1,-1,-1,-1,-1,-1,-1,-1,-1,-1,-1,-1,-1,-1,-1,-1,-1,-1,-1,-1,-1,-1,-1,-1,-1,-1,-1,-1],"loss_changes":[2.7303494E10,3.6677407E9,6.849117E9,8.999383E8,3.0310013E9,8.667728E9,2.1613302E9,2.175954E8,2.926866E9,3.2746803E8,4.6728433E9,3.9795796E9,6.5388995E9,3.9104758E9,3.4246664E9,2.0491827E8,9.094791E8,1.1931831E9,1.1843502E9,1.491557E9,3.7446733E8,3.2664525E9,2.4414298E9,4.7640064E9,6.2164214E9,8.980259E9,3.7156209E9,1.4807315E9,2.1933343E9,7.40677E8,2.6627914E9,0E0,0E0,0E0,0E0,0E0,0E0,0E0,0E0,0E0,0E0,0E0,0E0,0E0,0E0,0E0,0E0,0E0,0E0,0E0,0E0,0E0,0E0,0E0,0E0,0E0,0E0,0E0,0E0,0E0,0E0,0E0,0E0],"parents":[2147483647,0,0,1,1,2,2,3,3,4,4,5,5,6,6,7,7,8,8,9,9,10,10,11,11,12,12,13,13,14,14,15,15,16,16,17,17,18,18,19,19,20,20,21,21,22,22,23,23,24,24,25,25,26,26,27,27,28,28,29,29,30,30],"right_children":[2,4,6,8,10,12,14,16,18,20,22,24,26,28,30,32,34,36,38,40,42,44,46,48,50,52,54,56,58,60,62,-1,-1,-1,-1,-1,-1,-1,-1,-1,-1,-1,-1,-1,-1,-1,-1,-1,-1,-1,-1,-1,-1,-1,-1,-1,-1,-1,-1,-1,-1,-1,-1],"split_conditions":[8.3090454E-2,4.9039844E-2,2.7717164E-1,2.893635E-3,7.26796E-1,3.530331E-1,1.0906378E-1,1.219308E0,7.83752E-1,-7.547796E-5,5.242334E-2,9.586689E0,1.9577612E3,1.106116E0,5.8019608E1,9.9305E-1,8.117317E-2,8.2744695E-2,1.1762045E3,3.0790917E-3,7.459157E-2,1.1196276E-2,1.4762308E-1,1.826112E0,7.903247E2,7.500586E2,2.5324504E0,1.1460257E-1,2.6713498E2,2.7179462E2,4.1179466E1,4.4989674E1,6.4056175E1,-2.9587492E1,5.377483E1,-1.4714232E1,-2.6147153E2,2.4056036E1,4.9845154E1,-2.206403E2,7.864317E1,5.6413757E1,-9.0852165E1,-3.4891394E2,-2.7906439E1,1.118711E1,-3.8367233E1,1.4096064E1,-4.584119E1,-1.121708E2,5.4907726E1,-1.104212E2,7.008876E1,-1.4309378E2,-1.7856003E0,-6.032321E1,2.1283293E1,-1.2815578E2,-5.6560585E1,3.7549072E1,1.600193E2,-1.9840033E2,-3.547798E1],"split_indices":[7,7,7,3,0,5,5,0,0,5,2,3,2,0,2,0,2,2,2,3,2,1,5,0,2,2,1,1,0,0,3,0,0,0,0,0,0,0,0,0,0,0,0,0,0,0,0,0,0,0,0,0,0,0,0,0,0,0,0,0,0,0,0],"split_type":[0,0,0,0,0,0,0,0,0,0,0,0,0,0,0,0,0,0,0,0,0,0,0,0,0,0,0,0,0,0,0,0,0,0,0,0,0,0,0,0,0,0,0,0,0,0,0,0,0,0,0,0,0,0,0,0,0,0,0,0,0,0,0],"sum_hessian":[8.3616E4,4.928E4,3.4336E4,3.2997E4,1.6283E4,2.4512E4,9.824E3,7.616E3,2.5381E4,2.964E3,1.3319E4,1.8419E4,6.093E3,7.54E3,2.284E3,5.907E3,1.709E3,2.02E2,2.5179E4,1.94E2,2.77E3,3.17E2,1.3002E4,1.3316E4,5.103E3,2.762E3,3.331E3,2.366E3,5.174E3,6.75E2,1.609E3,3.551E3,2.356E3,4.4E2,1.269E3,8.3E1,1.19E2,1.94E4,5.779E3,5.9E1,1.35E2,2.727E3,4.3E1,1.65E2,1.52E2,9.656E3,3.346E3,6.224E3,7.092E3,6.35E2,4.468E3,1.307E3,1.455E3,2.772E3,5.59E2,1.475E3,8.91E2,3.659E3,1.515E3,5.13E2,1.62E2,3.1E2,1.299E3],"tree_param":{"num_deleted":"0","num_feature":"9","num_nodes":"63","size_leaf_vector":"1"}},{"base_weights":[5.190852E0,3.8843234E2,-7.5393915E2,6.719419E2,8.456681E1,-5.137116E2,-1.5529718E3,7.062399E2,-4.971532E2,3.3965848E2,-6.3864374E2,-2.5054524E2,-1.3922972E3,-1.44002E3,-4.4534307E3,6.369904E2,1.0453019E3,-2.7840461E3,1.1935812E3,3.2615345E1,1.244789E3,-1.6379197E3,8.5567535E2,6.408507E2,-4.5612128E2,-2.0206642E3,6.35827E2,-1.5092632E3,2.4609749E3,-2.358942E2,-2.0677745E2,4.091104E1,1.7119267E1,5.431424E1,-5.406423E0,-2.308348E2,8.405676E1,7.334198E1,-9.045089E0,1.2236049E1,-1.7540953E2,6.6830826E1,-2.0241713E1,-1.04305824E2,2.1969116E1,1.4015231E1,8.991296E1,-7.2806465E1,7.1167046E1,-5.539732E1,-3.1126332E0,-1.859388E2,-8.441674E1,4.5772137E1,-1.73684E2,-1.10481255E2,-6.001733E1,2.3241264E2,-2.1770137E2],"categories":[],"categories_nodes":[],"categories_segments":[],"categories_sizes":[],"default_left":[0,0,0,0,0,0,0,0,0,0,0,0,0,0,0,0,0,0,0,0,0,0,0,0,0,0,0,0,0,0,0,0,0,0,0,0,0,0,0,0,0,0,0,0,0,0,0,0,0,0,0,0,0,0,0,0,0,0,0],"id":22,"left_children":[1,3,5,7,9,11,13,15,17,19,21,23,25,27,29,31,33,35,37,39,41,43,45,47,49,51,53,55,57,-1,-1,-1,-1,-1,-1,-1,-1,-1,-1,-1,-1,-1,-1,-1,-1,-1,-1,-1,-1,-1,-1,-1,-1,-1,-1,-1,-1,-1,-1],"loss_changes":[2.4271426E10,4.775945E9,5.3714903E9,1.1503534E9,4.937035E9,4.97538E9,2.1129093E9,6.535547E8,3.166143E9,5.497934E9,1.0421211E10,3.03509E9,6.32234E9,1.6860047E9,8.32512E5,1.2351969E9,2.2342554E8,2.8554842E9,1.771678E8,1.109575E10,7.596114E8,3.894527E9,1.516407E9,5.0953206E9,3.4550502E9,2.1308477E9,1.3522026E9,1.321431E9,1.6450258E9,0E0,0E0,0E0,0E0,0E0,0E0,0E0,0E0,0E0,0E0,0E0,0E0,0E0,0E0,0E0,0E0,0E0,0E0,0E0,0E0,0E0,0E0,0E0,0E0,0E0,0E0,0E0,0E0,0E0,0E0],"parents":[2147483647,0,0,1,1,2,2,3,3,4,4,5,5,6,6,7,7,8,8,9,9,10,10,11,11,12,12,13,13,14,14,15,15,16,16,17,17,18,18,19,19,20,20,21,21,22,22,23,23,24,24,25,25,26,26,27,27,28,28],"right_children":[2,4,6,8,10,12,14,16,18,20,22,24,26,28,30,32,34,36,38,40,42,44,46,48,50,52,54,56,58,-1,-1,-1,-1,-1,-1,-1,-1,-1,-1,-1,-1,-1,-1,-1,-1,-1,-1,-1,-1,-1,-1,-1,-1,-1,-1,-1,-1,-1,-1],"split_conditions":[1.02929905E-1,4.3557E-2,6.1361533E-1,2.968514E2,9.388369E-3,3.530331E-1,1.8124945E3,1.1762045E3,2.160499E0,8.6248663E2,2.7875592E2,-5.7139313E-1,5.2417774E0,1.692798E3,8.11964E0,3.213424E0,1.692798E3,1.0750406E3,4.1717816E-2,2.5914304E2,-1.246813E-1,1.188413E0,7.903247E2,1.5883682E3,-2.882346E-4,7.500586E2,3.210853E2,-2.8982577E-3,5.717241E0,-2.358942E2,-2.0677745E2,4.091104E1,1.7119267E1,5.431424E1,-5.406423E0,-2.308348E2,8.405676E1,7.334198E1,-9.045089E0,1.2236049E1,-1.7540953E2,6.6830826E1,-2.0241713E1,-1.04305824E2,2.1969116E1,1.4015231E1,8.991296E1,-7.2806465E1,7.1167046E1,-5.539732E1,-3.1126332E0,-1.859388E2,-8.441674E1,4.5772137E1,-1.73684E2,-1.10481255E2,-6.001733E1,2.3241264E2,-2.1770137E2],"split_indices":[7,7,7,0,5,5,2,2,1,2,0,5,1,2,7,0,2,2,7,2,5,5,2,2,5,2,0,5,1,0,0,0,0,0,0,0,0,0,0,0,0,0,0,0,0,0,0,0,0,0,0,0,0,0,0,0,0,0,0],"split_type":[0,0,0,0,0,0,0,0,0,0,0,0,0,0,0,0,0,0,0,0,0,0,0,0,0,0,0,0,0,0,0,0,0,0,0,0,0,0,0,0,0,0,0,0,0,0,0,0,0,0,0,0,0,0,0,0,0,0,0],"sum_hessian":[8.3425E4,5.5438E4,2.7987E4,2.8679E4,2.6759E4,2.1519E4,6.468E3,2.7862E4,8.17E2,1.9782E4,6.977E3,1.656E4,4.959E3,6.227E3,2.41E2,2.3139E4,4.723E3,3.47E2,4.7E2,1.4772E4,5.01E3,4.181E3,2.796E3,3.103E3,1.3457E4,3.786E3,1.173E3,6.119E3,1.08E2,1.24E2,1.17E2,1.4325E4,8.814E3,4.561E3,1.62E2,2.46E2,1.01E2,3.92E2,7.8E1,1.3938E4,8.34E2,4.746E3,2.64E2,3.439E3,7.42E2,1.737E3,1.059E3,8.43E2,2.26E3,5.068E3,8.389E3,6.18E2,3.168E3,1.099E3,7.4E1,1.871E3,4.248E3,8.2E1,2.6E1],"tree_param":{"num_deleted":"0","num_feature":"9","num_nodes":"59","size_leaf_vector":"1"}},{"base_weights":[-2.1556277E0,-1.01411304E3,2.619682E2,-1.8818237E2,-1.2164022E3,-6.707777E1,5.929101E2,-3.59896E2,8.7553296E2,-1.9205295E3,-9.319652E2,4.2671143E2,-3.4779355E2,4.5243082E2,7.976854E2,-3.2104888E3,-2.1027441E2,1.1261025E3,-4.8561733E3,-1.0824092E3,-2.9963293E3,-1.0873292E2,-1.3401405E3,3.795684E2,2.5352322E3,-1.2816611E3,2.5492426E1,5.28484E2,-6.2993445E2,9.424524E2,6.5614636E2,-1.09044876E2,-3.147941E2,5.352035E1,-1.8998713E1,-1.2811836E2,6.465493E1,-2.8312656E2,-1.0755457E1,8.0712074E1,-6.8286736E1,-1.3409602E2,-1.7770885E2,-5.1200153E1,7.8652565E1,-3.2538845E1,-1.4560912E2,2.1801058E1,-9.910762E1,1.3086913E2,5.5172405E1,-1.9474707E1,-1.4738647E2,-2.1188765E1,6.970407E1,2.0493032E1,5.40209E1,-1.085069E2,4.911407E1,4.8808113E1,9.6602955E0,-1.70657E2,3.5472008E1],"categories":[],"categories_nodes":[],"categories_segments":[],"categories_sizes":[],"default_left":[0,0,0,0,0,0,0,0,0,0,0,0,0,0,0,0,0,0,0,0,0,0,0,0,0,0,0,0,0,0,0,0,0,0,0,0,0,0,0,0,0,0,0,0,0,0,0,0,0,0,0,0,0,0,0,0,0,0,0,0,0,0,0],"id":23,"left_children":[1,3,5,7,9,11,13,15,17,19,21,23,25,27,29,31,33,35,37,39,41,43,45,47,49,51,53,55,57,59,61,-1,-1,-1,-1,-1,-1,-1,-1,-1,-1,-1,-1,-1,-1,-1,-1,-1,-1,-1,-1,-1,-1,-1,-1,-1,-1,-1,-1,-1,-1,-1,-1],"loss_changes":[2.2315645E10,2.8870246E9,7.2099845E9,6.2152275E8,2.7782963E9,4.602286E9,9.492275E8,1.2485733E9,6.84787E8,3.5970427E9,3.3227868E9,1.195242E9,7.3791903E9,1.6121889E9,2.745646E8,4.500667E8,6.0545734E8,2.8295923E8,7.362909E7,1.7182162E9,2.970532E8,5.0489324E9,7.162502E9,1.5703732E9,2.8046464E7,8.984205E9,9.299775E9,1.197438E9,3.19545E9,1.674414E8,1.4758188E9,0E0,0E0,0E0,0E0,0E0,0E0,0E0,0E0,0E0,0E0,0E0,0E0,0E0,0E0,0E0,0E0,0E0,0E0,0E0,0E0,0E0,0E0,0E0,0E0,0E0,0E0,0E0,0E0,0E0,0E0,0E0,0E0],"parents":[2147483647,0,0,1,1,2,2,3,3,4,4,5,5,6,6,7,7,8,8,9,9,10,10,11,11,12,12,13,13,14,14,15,15,16,16,17,17,18,18,19,19,20,20,21,21,22,22,23,23,24,24,25,25,26,26,27,27,28,28,29,29,30,30],"right_children":[2,4,6,8,10,12,14,16,18,20,22,24,26,28,30,32,34,36,38,40,42,44,46,48,50,52,54,56,58,60,62,-1,-1,-1,-1,-1,-1,-1,-1,-1,-1,-1,-1,-1,-1,-1,-1,-1,-1,-1,-1,-1,-1,-1,-1,-1,-1,-1,-1,-1,-1,-1,-1],"split_conditions":[9.9881977E-1,7.7738784E-2,9.9962324E-1,9.986115E-1,6.3851307E1,2.008086E0,9.9976546E-1,2.7178006E-2,1.388326E0,4.4812274E-1,2.5627054E2,1.6314882E-1,7.903247E2,2.3459118E1,3.213424E0,7.83752E-1,3.5938356E-2,1.8081691E-2,1.483168E0,9.999969E-1,3.82437E-3,2.504485E2,2.032852E3,1.2957528E-1,9.9959874E-1,2.5914304E2,2.798005E2,2.8240176E2,1.2086001E3,2.5983024E-1,1.7826293E-1,-1.09044876E2,-3.147941E2,5.352035E1,-1.8998713E1,-1.2811836E2,6.465493E1,-2.8312656E2,-1.0755457E1,8.0712074E1,-6.8286736E1,-1.3409602E2,-1.7770885E2,-5.1200153E1,7.8652565E1,-3.2538845E1,-1.4560912E2,2.1801058E1,-9.910762E1,1.3086913E2,5.5172405E1,-1.9474707E1,-1.4738647E2,-2.1188765E1,6.970407E1,2.0493032E1,5.40209E1,-1.085069E2,4.911407E1,4.8808113E1,9.6602955E0,-1.70657E2,3.5472008E1],"split_indices":[8,2,8,8,0,0,8,1,0,1,0,1,2,3,0,0,1,1,0,6,4,0,2,2,8,2,0,0,2,2,2,0,0,0,0,0,0,0,0,0,0,0,0,0,0,0,0,0,0,0,0,0,0,0,0,0,0,0,0,0,0,0,0],"split_type":[0,0,0,0,0,0,0,0,0,0,0,0,0,0,0,0,0,0,0,0,0,0,0,0,0,0,0,0,0,0,0,0,0,0,0,0,0,0,0,0,0,0,0,0,0,0,0,0,0,0,0,0,0,0,0,0,0,0,0,0,0,0,0],"sum_hessian":[8.3489E4,1.728E4,6.6209E4,3.4E3,1.388E4,3.32E4,3.3009E4,2.928E3,4.72E2,3.992E3,9.888E3,1.2033E4,2.1167E4,1.958E4,1.3429E4,1.45E2,2.783E3,4.53E2,1.9E1,2.245E3,1.747E3,3.278E3,6.61E3,1.1771E4,2.62E2,6.044E3,1.5123E4,1.8295E4,1.285E3,6.636E3,6.793E3,1.1E2,3.5E1,3.25E2,2.458E3,1.9E1,4.34E2,1.6E1,3E0,2.13E2,2.032E3,1.121E3,6.26E2,2.123E3,1.155E3,4.596E3,2.014E3,1.1497E4,2.74E2,2.47E2,1.5E1,3.937E3,2.107E3,1.1386E4,3.737E3,1.506E4,3.235E3,6.57E2,6.28E2,6.35E3,2.86E2,8.7E1,6.706E3],"tree_param":{"num_deleted":"0","num_feature":"9","num_nodes":"63","size_leaf_vector":"1"}},{"base_weights":[-2.6000574E0,-6.953843E2,3.468335E2,-1.4259645E3,-4.891929E2,4.0584235E2,-8.9993695E2,-1.3137389E3,-2.0558948E2,5.7231433E2,-6.8761554E2,2.1025577E2,6.449939E2,4.748745E2,-3.1081145E3,-1.3968535E3,2.823387E3,-1.420961E3,1.2865553E3,-3.44176E2,-1.325485E3,8.9195215E2,1.103689E2,8.8523376E2,5.4851886E2,1.4098542E3,-6.0640924E2,-3.6422593E3,8.6694025E2,-9.01259E0,-7.869546E1,2.2105663E2,-2.1384647E2,-1.22926384E2,7.573045E1,-2.085917E1,7.716938E1,-1.12362404E2,-5.2000217E0,-3.1004032E1,-1.0576763E2,-5.3425995E1,4.8832737E1,-8.676494E1,8.199426E0,5.035388E1,3.8730907E1,-3.9405978E2,2.7969269E1,8.356743E1,-3.80843E1,-8.614254E1,6.0120056E1,-1.49363E2,-2.5115752E2,-6.3432964E1,2.304511E2],"categories":[],"categories_nodes":[],"categories_segments":[],"categories_sizes":[],"default_left":[0,0,0,0,0,0,0,0,0,0,0,0,0,0,0,0,0,0,0,0,0,0,0,0,0,0,0,0,0,0,0,0,0,0,0,0,0,0,0,0,0,0,0,0,0,0,0,0,0,0,0,0,0,0,0,0,0],"id":24,"left_children":[1,3,5,7,9,11,13,15,-1,17,19,21,23,25,27,29,31,33,35,37,39,41,43,45,47,49,51,53,55,-1,-1,-1,-1,-1,-1,-1,-1,-1,-1,-1,-1,-1,-1,-1,-1,-1,-1,-1,-1,-1,-1,-1,-1,-1,-1,-1,-1],"loss_changes":[2.0241447E10,4.2223258E9,4.089413E9,1.8543503E9,4.605755E9,2.4821576E9,7.627475E9,2.0409457E9,0E0,4.9049784E9,4.035244E9,1.9878627E9,5.528699E8,1.5668605E9,2.0499763E9,1.2507945E9,1.3462152E9,2.7724006E9,1.1103345E9,5.473654E9,3.5908024E9,6.206026E8,2.5204024E9,9.139456E7,1.5650304E9,4.7315264E8,1.4540424E9,7.538053E8,9.248799E8,0E0,0E0,0E0,0E0,0E0,0E0,0E0,0E0,0E0,0E0,0E0,0E0,0E0,0E0,0E0,0E0,0E0,0E0,0E0,0E0,0E0,0E0,0E0,0E0,0E0,0E0,0E0,0E0],"parents":[2147483647,0,0,1,1,2,2,3,3,4,4,5,5,6,6,7,7,9,9,10,10,11,11,12,12,13,13,14,14,15,15,16,16,17,17,18,18,19,19,20,20,21,21,22,22,23,23,24,24,25,25,26,26,27,27,28,28],"right_children":[2,4,6,8,10,12,14,16,-1,18,20,22,24,26,28,30,32,34,36,38,40,42,44,46,48,50,52,54,56,-1,-1,-1,-1,-1,-1,-1,-1,-1,-1,-1,-1,-1,-1,-1,-1,-1,-1,-1,-1,-1,-1,-1,-1,-1,-1,-1,-1],"split_conditions":[9.9920875E-1,9.947941E-1,1.9577612E3,1.8124945E3,-5.1468074E-1,9.997045E-1,2.9899853E-1,1.692798E3,-2.0558948E2,1.5883682E3,2.0705054E3,6.8086E-1,2.414331E-2,-4.2261687E-1,2.5324504E0,9.01908E-1,6.723144E0,3.0544662E2,2.4978348E2,-7.088115E-3,2.2365408E-1,-8.011133E-5,5.242334E-2,9.143608E-2,7.83752E-1,9.9934685E-1,2.6952777E2,8.1081283E-1,2.6713498E2,-9.01259E0,-7.869546E1,2.2105663E2,-2.1384647E2,-1.22926384E2,7.573045E1,-2.085917E1,7.716938E1,-1.12362404E2,-5.2000217E0,-3.1004032E1,-1.0576763E2,-5.3425995E1,4.8832737E1,-8.676494E1,8.199426E0,5.035388E1,3.8730907E1,-3.9405978E2,2.7969269E1,8.356743E1,-3.80843E1,-8.614254E1,6.0120056E1,-1.49363E2,-2.5115752E2,-6.3432964E1,2.304511E2],"split_indices":[8,8,2,2,5,8,5,2,0,2,2,0,1,5,1,0,1,0,0,5,5,5,2,2,0,8,0,5,0,0,0,0,0,0,0,0,0,0,0,0,0,0,0,0,0,0,0,0,0,0,0,0,0,0,0,0,0],"split_type":[0,0,0,0,0,0,0,0,0,0,0,0,0,0,0,0,0,0,0,0,0,0,0,0,0,0,0,0,0,0,0,0,0,0,0,0,0,0,0,0,0,0,0,0,0,0,0,0,0,0,0,0,0,0,0,0,0],"sum_hessian":[8.3612E4,2.8033E4,5.5579E4,6.169E3,2.1864E4,5.3068E4,2.511E3,5.923E3,2.46E2,3.443E3,1.8421E4,2.9194E4,2.3874E4,1.548E3,9.63E2,5.807E3,1.16E2,9.08E2,2.535E3,1.1975E4,6.446E3,3.73E3,2.5464E4,6.838E3,1.7036E4,8.3E2,7.18E2,8.49E2,1.14E2,7.38E2,5.069E3,9.5E1,2.1E1,6.71E2,2.37E2,3.32E2,2.203E3,1.341E3,1.0634E4,3.406E3,3.04E3,1.54E2,3.576E3,7.18E2,2.4746E4,3.25E3,3.588E3,2.1E1,1.7015E4,7.41E2,8.9E1,4.44E2,2.74E2,5.78E2,2.71E2,7.3E1,4.1E1],"tree_param":{"num_deleted":"0","num_feature":"9","num_nodes":"57","size_leaf_vector":"1"}},{"base_weights":[-2.480708E0,2.4302884E2,-9.4044165E2,3.819811E2,-5.741183E2,-6.613582E2,-1.4040376E3,4.556307E2,-3.0883228E2,-1.38835E3,1.044657E2,-7.685368E2,9.5206445E2,1.976942E3,-1.4878097E3,5.146171E2,-1.8774124E2,-1.8267131E3,3.8495334E2,-2.0604404E3,9.107728E2,4.736676E2,-1.4119111E3,-5.7057196E2,-2.1024033E3,-1.7404193E3,1.3170042E3,-9.8125244E1,3.7153486E3,-2.1440002E3,-1.1743031E3,2.808847E1,3.1036596E0,1.2665796E1,-4.670672E1,3.4425243E1,-1.172206E2,4.4139477E1,-1.962598E1,2.9454268E1,-1.1853753E2,6.713131E1,-5.0166317E1,1.3220029E1,9.403338E1,-1.6980563E2,-2.598429E1,2.1581465E1,-3.6949303E1,-1.2848509E2,-2.7556372E1,1.02757545E2,-1.6404965E2,1.4345695E2,2.6682906E0,1.8712675E2,-1.6801167E2,2.0626917E2,-1.8761438E2,-1.2034728E2,2.9586378E1,-7.8485344E1,-7.772565E0],"categories":[],"categories_nodes":[],"categories_segments":[],"categories_sizes":[],"default_left":[0,0,0,0,0,0,0,0,0,0,0,0,0,0,0,0,0,0,0,0,0,0,0,0,0,0,0,0,0,0,0,0,0,0,0,0,0,0,0,0,0,0,0,0,0,0,0,0,0,0,0,0,0,0,0,0,0,0,0,0,0,0,0],"id":25,"left_children":[1,3,5,7,9,11,13,15,17,19,21,23,25,27,29,31,33,35,37,39,41,43,45,47,49,51,53,55,57,59,61,-1,-1,-1,-1,-1,-1,-1,-1,-1,-1,-1,-1,-1,-1,-1,-1,-1,-1,-1,-1,-1,-1,-1,-1,-1,-1,-1,-1,-1,-1,-1,-1],"loss_changes":[1.9253803E10,7.5243556E9,2.243201E9,2.8816753E9,5.32151E9,1.8733302E9,1.8487634E9,1.9423877E9,5.747382E9,6.7668424E9,2.9421164E9,2.680316E9,6.6554323E8,5.703197E8,1.3058611E9,1.0003548E9,1.4154761E9,2.230852E9,1.4502515E9,2.7869245E9,8.205177E8,1.2438007E9,1.8199299E9,1.4930524E9,9.4966374E8,4.803787E8,1.1668424E9,9.2716717E8,2.7881062E8,1.479682E9,1.734462E9,0E0,0E0,0E0,0E0,0E0,0E0,0E0,0E0,0E0,0E0,0E0,0E0,0E0,0E0,0E0,0E0,0E0,0E0,0E0,0E0,0E0,0E0,0E0,0E0,0E0,0E0,0E0,0E0,0E0,0E0,0E0,0E0],"parents":[2147483647,0,0,1,1,2,2,3,3,4,4,5,5,6,6,7,7,8,8,9,9,10,10,11,11,12,12,13,13,14,14,15,15,16,16,17,17,18,18,19,19,20,20,21,21,22,22,23,23,24,24,25,25,26,26,27,27,28,28,29,29,30,30],"right_children":[2,4,6,8,10,12,14,16,18,20,22,24,26,28,30,32,34,36,38,40,42,44,46,48,50,52,54,56,58,60,62,-1,-1,-1,-1,-1,-1,-1,-1,-1,-1,-1,-1,-1,-1,-1,-1,-1,-1,-1,-1,-1,-1,-1,-1,-1,-1,-1,-1,-1,-1,-1,-1],"split_conditions":[1.5357794E-1,3.530331E-1,6.1361533E-1,4.398763E0,1.6478937E1,2.6682303E0,-3.6098515E1,4.3884845E-4,1.7112427E0,2.6034164E0,1.0969E-1,4.0043345E-1,4.810417E0,1.59779625E1,-1.8247229E-3,2.1962786E1,5.1437054E0,3.093072E-2,5.2198727E-2,4.1002754E-2,9.625671E0,3.127456E1,2.0883543E0,-6.3256305E-1,3.386908E1,1.6633132E-1,9.625671E0,9.625671E0,8.11964E0,6.321716E0,1.59779625E1,2.808847E1,3.1036596E0,1.2665796E1,-4.670672E1,3.4425243E1,-1.172206E2,4.4139477E1,-1.962598E1,2.9454268E1,-1.1853753E2,6.713131E1,-5.0166317E1,1.3220029E1,9.403338E1,-1.6980563E2,-2.598429E1,2.1581465E1,-3.6949303E1,-1.2848509E2,-2.7556372E1,1.02757545E2,-1.6404965E2,1.4345695E2,2.6682906E0,1.8712675E2,-1.6801167E2,2.0626917E2,-1.8761438E2,-1.2034728E2,2.9586378E1,-7.8485344E1,-7.772565E0],"split_indices":[7,5,7,1,3,5,4,5,3,1,7,5,1,1,5,3,3,7,7,7,1,3,1,5,3,7,1,1,7,4,1,0,0,0,0,0,0,0,0,0,0,0,0,0,0,0,0,0,0,0,0,0,0,0,0,0,0,0,0,0,0,0,0],"split_type":[0,0,0,0,0,0,0,0,0,0,0,0,0,0,0,0,0,0,0,0,0,0,0,0,0,0,0,0,0,0,0,0,0,0,0,0,0,0,0,0,0,0,0,0,0,0,0,0,0,0,0,0,0,0,0,0,0,0,0,0,0,0,0],"sum_hessian":[8.3609E4,6.6265E4,1.7344E4,5.6635E4,9.63E3,1.0828E4,6.516E3,5.1179E4,5.456E3,4.377E3,5.253E3,1.0154E4,6.74E2,1.57E2,6.359E3,4.6881E4,4.298E3,1.711E3,3.745E3,3.387E3,9.9E2,4.225E3,1.028E3,8.843E3,1.311E3,8E1,5.94E2,7.2E1,8.5E1,2.054E3,4.305E3,4.2457E4,4.424E3,2.702E3,1.596E3,2.92E2,1.419E3,2.283E3,1.462E3,3.55E2,3.032E3,8.08E2,1.82E2,3.679E3,5.46E2,3.18E2,7.1E2,1.272E3,7.571E3,1.007E3,3.04E2,2.3E1,5.7E1,2.66E2,3.28E2,3.3E1,3.9E1,8.1E1,4E0,1.874E3,1.8E2,3.101E3,1.204E3],"tree_param":{"num_deleted":"0","num_feature":"9","num_nodes":"63","size_leaf_vector":"1"}},{"base_weights":[2.0936081E0,-5.2192926E2,3.682413E2,-3.4390717E2,-1.2851182E3,4.074263E2,-1.066843E3,-3.7114395E2,2.9676572E3,-1.1836753E3,-3.8217322E3,7.0612683E2,2.9161218E2,-1.7663179E3,1.99739E3,-3.3068863E2,-3.3625103E3,3.1262378E3,-2.3492818E2,-1.2889678E3,1.2821606E3,-2.0291277E2,-1.7793163E2,6.69595E2,1.1222261E3,6.309326E2,1.5004327E2,4.6132347E1,-3.602884E3,2.1641675E3,-2.1049434E3,1.5571517E1,-2.3117203E1,1.6372435E2,-1.9488115E2,1.4408656E2,2.301586E2,-1.5129584E2,-5.8066566E1,1.8675487E2,-1.7215811E2,4.1481304E1,2.416056E1,4.2896686E0,6.14165E1,3.4542095E1,5.9442015E0,-4.8884234E0,3.3623188E1,9.365606E1,-1.0101441E2,-2.0337633E2,1.5290764E2,1.5608202E2,7.2563545E1,6.860528E1,-2.3258301E2],"categories":[],"categories_nodes":[],"categories_segments":[],"categories_sizes":[],"default_left":[0,0,0,0,0,0,0,0,0,0,0,0,0,0,0,0,0,0,0,0,0,0,0,0,0,0,0,0,0,0,0,0,0,0,0,0,0,0,0,0,0,0,0,0,0,0,0,0,0,0,0,0,0,0,0,0,0],"id":26,"left_children":[1,3,5,7,9,11,13,15,17,19,21,23,25,27,29,31,33,35,-1,37,39,-1,-1,41,43,45,47,49,51,53,55,-1,-1,-1,-1,-1,-1,-1,-1,-1,-1,-1,-1,-1,-1,-1,-1,-1,-1,-1,-1,-1,-1,-1,-1,-1,-1],"loss_changes":[1.5999444E10,4.6595727E9,2.7608392E9,2.509733E9,1.6647199E9,1.652822E9,2.8006052E9,3.337376E9,2.9065574E8,1.6215091E9,