{"learner":{"attributes":{},"feature_names":["vdc_mean","vdc_std","pdc_mean","pdc_std","pdc_delta","pdc_slope","efficiency_norm","anomaly_lstm","health_index"],"feature_types":["float","float","float","float","float","float","float","float","float"],"gradient_booster":{"model":{"cats":{"enc":[],"feature_segments":[],"sorted_idx":[]},"gbtree_model_param":{"num_parallel_tree":"1","num_trees":"200"},"iteration_indptr":[0,1,2,3,4,5,6,7,8,9,10,11,12,13,14,15,16,17,18,19,20,21,22,23,24,25,26,27,28,29,30,31,32,33,34,35,36,37,38,39,40,41,42,43,44,45,46,47,48,49,50,51,52,53,54,55,56,57,58,59,60,61,62,63,64,65,66,67,68,69,70,71,72,73,74,75,76,77,78,79,80,81,82,83,84,85,86,87,88,89,90,91,92,93,94,95,96,97,98,99,100,101,102,103,104,105,106,107,108,109,110,111,112,113,114,115,116,117,118,119,120,121,122,123,124,125,126,127,128,129,130,131,132,133,134,135,136,137,138,139,140,141,142,143,144,145,146,147,148,149,150,151,152,153,154,155,156,157,158,159,160,161,162,163,164,165,166,167,168,169,170,171,172,173,174,175,176,177,178,179,180,181,182,183,184,185,186,187,188,189,190,191,192,193,194,195,196,197,198,199,200],"tree_info":[0,0,0,0,0,0,0,0,0,0,0,0,0,0,0,0,0,0,0,0,0,0,0,0,0,0,0,0,0,0,0,0,0,0,0,0,0,0,0,0,0,0,0,0,0,0,0,0,0,0,0,0,0,0,0,0,0,0,0,0,0,0,0,0,0,0,0,0,0,0,0,0,0,0,0,0,0,0,0,0,0,0,0,0,0,0,0,0,0,0,0,0,0,0,0,0,0,0,0,0,0,0,0,0,0,0,0,0,0,0,0,0,0,0,0,0,0,0,0,0,0,0,0,0,0,0,0,0,0,0,0,0,0,0,0,0,0,0,0,0,0,0,0,0,0,0,0,0,0,0,0,0,0,0,0,0,0,0,0,0,0,0,0,0,0,0,0,0,0,0,0,0,0,0,0,0,0,0,0,0,0,0,0,0,0,0,0,0,0,0,0,0,0,0,0,0,0,0,0,0],"trees":[{"base_weights":[1.3791218E-2,7.47728E0,-7.2804105E-1,4.5845113E0,9.6385565E0,1.2723635E0,-9.049873E-1,1.7239909E0,5.547486E0,5.8950653E0,1.0398055E1,1.9188133E0,-1.034789E0,8.741492E-1,-9.2728543E-1,1.4666729E-1,-1.9384854E-2,3.0446157E-1,-3.1484287E-2,1.298257E-2,3.2054004E-1,7.117602E-1,4.379776E-1,3.6821228E-2,1.4782824E-1,-5.2395284E-2,-2.769961E-3,5.826806E-1,-3.667057E-2,-2.9320514E-2,-4.9597915E-2],"categories":[],"categories_nodes":[],"categories_segments":[],"categories_sizes":[],"default_left":[0,0,0,0,0,0,0,0,0,0,0,0,0,0,0,0,0,0,0,0,0,0,0,0,0,0,0,0,0,0,0],"id":0,"left_children":[1,3,5,7,9,11,13,15,17,19,21,23,25,27,29,-1,-1,-1,-1,-1,-1,-1,-1,-1,-1,-1,-1,-1,-1,-1,-1],"loss_changes":[2.5444553E4,2.5534668E3,1.4807856E3,4.851167E2,6.122617E2,5.092685E2,1.531914E2,1.203481E2,4.519336E2,1.21178345E2,1.1053125E3,3.2425226E2,9.0660095E-1,8.413506E2,8.305835E1,0E0,0E0,0E0,0E0,0E0,0E0,0E0,0E0,0E0,0E0,0E0,0E0,0E0,0E0,0E0,0E0],"parents":[2147483647,0,0,1,1,2,2,3,3,4,4,5,5,6,6,7,7,8,8,9,9,10,10,11,11,12,12,13,13,14,14],"right_children":[2,4,6,8,10,12,14,16,18,20,22,24,26,28,30,-1,-1,-1,-1,-1,-1,-1,-1,-1,-1,-1,-1,-1,-1,-1,-1],"split_conditions":[9.9636424E-1,1.2266917E0,9.986115E-1,7.248536E-2,1.186556E0,2.1593916E3,9.9999857E-1,1.3797816E-4,5.938756E0,6.49354E-1,6.3851307E1,1.5744856E-1,3.1712836E-1,-1.589535E-2,9.991413E-1,1.4666729E-1,-1.9384854E-2,3.0446157E-1,-3.1484287E-2,1.298257E-2,3.2054004E-1,7.117602E-1,4.379776E-1,3.6821228E-2,1.4782824E-1,-5.2395284E-2,-2.769961E-3,5.826806E-1,-3.667057E-2,-2.9320514E-2,-4.9597915E-2],"split_indices":[8,7,8,2,0,2,6,5,5,0,0,2,7,5,8,0,0,0,0,0,0,0,0,0,0,0,0,0,0,0,0],"split_type":[0,0,0,0,0,0,0,0,0,0,0,0,0,0,0,0,0,0,0,0,0,0,0,0,0,0,0,0,0,0,0],"sum_hessian":[4.5936694E3,4.1448676E2,4.1791826E3,1.7858293E2,2.3590381E2,3.3912552E2,3.8400574E3,4.5680157E1,1.3290279E2,4.1266617E1,1.9463719E2,2.650332E2,7.409233E1,4.705939E1,3.7929978E3,2.879836E1,1.6881798E1,1.2219994E2,1.0702839E1,3.5860028E0,3.7680614E1,5.5941643E1,1.3869556E2,1.24682556E2,1.4035063E2,7.304412E1,1.0482162E0,5.2962503E0,4.176314E1,6.064758E2,3.186522E3],"tree_param":{"num_deleted":"0","num_feature":"9","num_nodes":"31","size_leaf_vector":"1"}},{"base_weights":[-2.1317876E-3,-7.7859396E-1,4.7679896E0,-9.023121E-1,5.392994E-1,3.149126E0,5.9513507E0,-5.6106883E-1,-1.0015776E0,2.462297E0,1.8098108E-1,3.6088707E0,1.639225E-1,8.380483E0,5.5330524E0,7.7746324E-2,-3.286973E-2,-5.0961655E-2,3.9891623E-2,4.8229033E-1,5.465374E-2,-8.886925E-3,5.804118E-2,8.498153E-2,2.3507662E-1,2.965071E-1,-1.1249026E-2,2.8704798E-1,4.4720814E-1,3.083752E-1,1.9151023E-1],"categories":[],"categories_nodes":[],"categories_segments":[],"categories_sizes":[],"default_left":[0,0,0,0,0,0,0,0,0,0,0,0,0,0,0,0,0,0,0,0,0,0,0,0,0,0,0,0,0,0,0],"id":1,"left_children":[1,3,5,7,9,11,13,15,17,19,21,23,25,27,29,-1,-1,-1,-1,-1,-1,-1,-1,-1,-1,-1,-1,-1,-1,-1,-1],"loss_changes":[1.7200363E4,6.516726E2,1.2266621E3,1.2312695E2,2.3615544E2,3.7910278E2,3.341045E2,1.691995E2,9.063696E1,5.191487E2,1.02321434E2,4.9203784E2,8.647952E1,2.7603516E1,3.2466992E2,0E0,0E0,0E0,0E0,0E0,0E0,0E0,0E0,0E0,0E0,0E0,0E0,0E0,0E0,0E0,0E0],"parents":[2147483647,0,0,1,1,2,2,3,3,4,4,5,5,6,6,7,7,8,8,9,9,10,10,11,11,12,12,13,13,14,14],"right_children":[2,4,6,8,10,12,14,16,18,20,22,24,26,28,30,-1,-1,-1,-1,-1,-1,-1,-1,-1,-1,-1,-1,-1,-1,-1,-1],"split_conditions":[3.3907142E-1,1.7141569E-1,1.1107913E0,9.992601E-1,9.999993E-1,8.9892296E1,9.374354E-1,9.999988E-1,3.1249228E2,-1.589535E-2,2.7122644E2,1.234946E0,2.3380658E2,5.4718266E0,1.5180861E-2,7.7746324E-2,-3.286973E-2,-5.0961655E-2,3.9891623E-2,4.8229033E-1,5.465374E-2,-8.886925E-3,5.804118E-2,8.498153E-2,2.3507662E-1,2.965071E-1,-1.1249026E-2,2.8704798E-1,4.4720814E-1,3.083752E-1,1.9151023E-1],"split_indices":[7,7,7,8,6,3,8,6,0,5,0,0,0,3,5,0,0,0,0,0,0,0,0,0,0,0,0,0,0,0,0],"split_type":[0,0,0,0,0,0,0,0,0,0,0,0,0,0,0,0,0,0,0,0,0,0,0,0,0,0,0,0,0,0,0],"sum_hessian":[4.641951E3,3.9928477E3,6.491037E2,3.6504724E3,3.4237512E2,2.7565833E2,3.734454E2,8.241071E2,2.8263652E3,5.2853397E1,2.8952173E2,2.3868938E2,3.6968937E1,5.2064316E1,3.213811E2,3.522279E1,7.8888434E2,2.7993323E3,2.7032967E1,7.493684E0,4.5359715E1,2.125324E2,7.6989334E1,8.781067E1,1.5087871E2,1.4355674E0,3.553337E1,1.1130193E1,4.0934124E1,2.3223317E2,8.914793E1],"tree_param":{"num_deleted":"0","num_feature":"9","num_nodes":"31","size_leaf_vector":"1"}},{"base_weights":[-4.429484E-3,-7.6769865E-1,3.6998084E0,-8.987573E-1,5.583797E-1,2.6255846E0,4.5119715E0,-9.5983136E-1,-3.6082E-1,2.0602984E0,2.2338302E-1,3.1805532E0,-1.885826E-1,2.701904E0,4.821338E0,-5.1112007E-2,-3.7202444E-2,3.3947688E-1,-2.637967E-2,3.1651102E-2,3.0351618E-1,-7.5137154E-3,5.5976044E-2,1.08069114E-1,2.5484455E-1,1.4315552E-1,-3.0254126E-2,2.560936E-2,1.7582189E-1,2.5950512E-1,1.2828438E-1],"categories":[],"categories_nodes":[],"categories_segments":[],"categories_sizes":[],"default_left":[0,0,0,0,0,0,0,0,0,0,0,0,0,0,0,0,0,0,0,0,0,0,0,0,0,0,0,0,0,0,0],"id":2,"left_children":[1,3,5,7,9,11,13,15,17,19,21,23,25,27,29,-1,-1,-1,-1,-1,-1,-1,-1,-1,-1,-1,-1,-1,-1,-1,-1],"loss_changes":[1.3122061E4,6.692976E2,6.799463E2,1.1472388E2,1.7399503E2,5.3750903E2,2.3904883E2,4.158911E1,4.3133755E2,3.5737387E2,9.5473625E1,5.499253E2,7.490841E1,1.1945218E2,3.0540723E2,0E0,0E0,0E0,0E0,0E0,0E0,0E0,0E0,0E0,0E0,0E0,0E0,0E0,0E0,0E0,0E0],"parents":[2147483647,0,0,1,1,2,2,3,3,4,4,5,5,6,6,7,7,8,8,9,9,10,10,11,11,12,12,13,13,14,14],"right_children":[2,4,6,8,10,12,14,16,18,20,22,24,26,28,30,-1,-1,-1,-1,-1,-1,-1,-1,-1,-1,-1,-1,-1,-1,-1,-1],"split_conditions":[3.3907142E-1,1.7141569E-1,1.2266917E0,4.398763E0,9.999994E-1,1.59779625E1,2.6561326E-1,9.626734E-2,9.9999917E-1,4.4812274E-1,2.7071277E2,2.1263578E0,-2.1474686E0,-5.0653325E-4,5.1905342E1,-5.1112007E-2,-3.7202444E-2,3.3947688E-1,-2.637967E-2,3.1651102E-2,3.0351618E-1,-7.5137154E-3,5.5976044E-2,1.08069114E-1,2.5484455E-1,1.4315552E-1,-3.0254126E-2,2.560936E-2,1.7582189E-1,2.5950512E-1,1.2828438E-1],"split_indices":[7,7,7,1,6,1,1,7,6,1,0,1,5,5,1,0,0,0,0,0,0,0,0,0,0,0,0,0,0,0,0],"split_type":[0,0,0,0,0,0,0,0,0,0,0,0,0,0,0,0,0,0,0,0,0,0,0,0,0,0,0,0,0,0,0],"sum_hessian":[4.639144E3,3.8472083E3,7.9193585E2,3.5014736E3,3.4573453E2,3.4278168E2,4.4915417E2,3.1437656E3,3.5770798E2,6.211207E1,2.8362244E2,2.8620947E2,5.6572205E1,6.698239E1,3.8217178E2,2.4356016E3,7.0816406E2,7.2478414E0,3.5046014E2,4.6661747E1,1.545032E1,2.0074944E2,8.2873E1,1.8823032E2,9.797917E1,6.0883894E0,5.0483814E1,1.8602354E1,4.838004E1,3.2735364E2,5.4818142E1],"tree_param":{"num_deleted":"0","num_feature":"9","num_nodes":"31","size_leaf_vector":"1"}},{"base_weights":[-1.2678147E-2,-7.83214E-1,2.877363E0,3.8613406E-1,-8.8419205E-1,1.6123836E0,3.3715656E0,1.1114821E0,-5.239254E-2,-9.518362E-1,-3.0589077E-1,1.9249145E0,-4.8212308E-1,3.2314024E0,3.1586838E-1,3.8773824E-2,3.3991182E-1,-3.6167823E-2,-5.097244E-2,1.8109713E-1,-2.8528778E-2,5.5799395E-2,1.6598104E-1,1.6669403E-1,-4.2449486E-2,1.023015E-1,1.7286827E-1],"categories":[],"categories_nodes":[],"categories_segments":[],"categories_sizes":[],"default_left":[0,0,0,0,0,0,0,0,0,0,0,0,0,0,0,0,0,0,0,0,0,0,0,0,0,0,0],"id":3,"left_children":[1,3,5,7,9,11,13,15,-1,17,19,21,23,25,-1,-1,-1,-1,-1,-1,-1,-1,-1,-1,-1,-1,-1],"loss_changes":[1.0301956E4,4.3160864E2,6.0333594E2,3.03869E2,1.3123999E2,1.8125787E2,2.6832666E2,3.64942E2,0E0,4.575757E1,3.696651E2,2.6696912E2,5.402487E1,1.7227783E2,0E0,0E0,0E0,0E0,0E0,0E0,0E0,0E0,0E0,0E0,0E0,0E0,0E0],"parents":[2147483647,0,0,1,1,2,2,3,3,4,4,5,5,6,6,7,7,9,9,10,10,11,11,12,12,13,13],"right_children":[2,4,6,8,10,12,14,16,-1,18,20,22,24,26,-1,-1,-1,-1,-1,-1,-1,-1,-1,-1,-1,-1,-1],"split_conditions":[2.7717164E-1,9.9868214E-1,6.766921E-1,2.1593916E3,4.398763E0,1.59779625E1,1.8124945E3,1.925593E3,-5.239254E-2,9.992601E-1,1.9046724E0,2.3722744E0,1.9115094E0,8.1891336E-2,3.1586838E-1,3.8773824E-2,3.3991182E-1,-3.6167823E-2,-5.097244E-2,1.8109713E-1,-2.8528778E-2,5.5799395E-2,1.6598104E-1,1.6669403E-1,-4.2449486E-2,1.023015E-1,1.7286827E-1],"split_indices":[7,8,7,2,1,1,2,2,0,8,2,1,3,2,0,0,0,0,0,0,0,0,0,0,0,0,0],"split_type":[0,0,0,0,0,0,0,0,0,0,0,0,0,0,0,0,0,0,0,0,0,0,0,0,0,0,0],"sum_hessian":[4.6241714E3,3.6513787E3,9.7279285E2,2.900232E2,3.3613555E3,2.744818E2,6.9831104E2,1.9274997E2,9.7273224E1,3.008772E3,3.5258328E2,2.3891342E2,3.5568386E1,6.685957E2,2.97153E1,1.8306955E2,9.680421E0,6.897226E2,2.3190496E3,2.145874E1,3.3112454E2,1.5235059E2,8.656284E1,2.4102688E0,3.315812E1,1.0865592E2,5.599398E2],"tree_param":{"num_deleted":"0","num_feature":"9","num_nodes":"27","size_leaf_vector":"1"}},{"base_weights":[-1.0682569E-2,-7.725936E-1,2.4828956E0,-1.34213E-1,-9.6567684E-1,2.827561E0,1.3938673E0,-4.8759976E-1,1.2552656E0,-9.9504983E-1,-6.978382E-1,2.7235699E0,4.880469E0,1.7387364E0,-4.610559E-1,-5.3367442E-3,-5.2539717E-2,2.7551803E-1,8.81434E-3,-3.954388E-2,-5.0842356E-2,8.255305E-2,-4.6881244E-2,1.4480786E-1,8.057274E-2,1.2148118E-1,2.5363463E-1,4.6070572E-2,1.5257363E-1,8.311692E-2,-5.3807E-2],"categories":[],"categories_nodes":[],"categories_segments":[],"categories_sizes":[],"default_left":[0,0,0,0,0,0,0,0,0,0,0,0,0,0,0,0,0,0,0,0,0,0,0,0,0,0,0,0,0,0,0],"id":4,"left_children":[1,3,5,7,9,11,13,15,17,19,21,23,25,27,29,-1,-1,-1,-1,-1,-1,-1,-1,-1,-1,-1,-1,-1,-1,-1,-1],"loss_changes":[8.772898E3,4.358291E2,4.0169873E2,4.0447894E2,2.0668457E1,1.6174805E2,1.682612E2,1.4069678E2,7.659885E2,1.0075439E1,1.5458232E2,1.4555273E2,5.7038574E0,2.3424841E2,5.6421574E1,0E0,0E0,0E0,0E0,0E0,0E0,0E0,0E0,0E0,0E0,0E0,0E0,0E0,0E0,0E0,0E0],"parents":[2147483647,0,0,1,1,2,2,3,3,4,4,5,5,6,6,7,7,8,8,9,9,10,10,11,11,12,12,13,13,14,14],"right_children":[2,4,6,8,10,12,14,16,18,20,22,24,26,28,30,-1,-1,-1,-1,-1,-1,-1,-1,-1,-1,-1,-1,-1,-1,-1,-1],"split_conditions":[2.7717164E-1,9.991413E-1,9.9529594E-1,3.083844E0,4.593297E0,1.8124945E3,6.371042E2,2.1593916E3,2.5202725E0,9.992774E-1,-4.2261687E-1,3.982637E1,-1.116523E0,2.4442883E0,3.386908E1,-5.3367442E-3,-5.2539717E-2,2.7551803E-1,8.81434E-3,-3.954388E-2,-5.0842356E-2,8.255305E-2,-4.6881244E-2,1.4480786E-1,8.057274E-2,1.2148118E-1,2.5363463E-1,4.6070572E-2,1.5257363E-1,8.311692E-2,-5.3807E-2],"split_indices":[7,8,8,1,1,2,2,2,2,8,5,1,5,1,3,0,0,0,0,0,0,0,0,0,0,0,0,0,0,0,0],"split_type":[0,0,0,0,0,0,0,0,0,0,0,0,0,0,0,0,0,0,0,0,0,0,0,0,0,0,0,0,0,0,0],"sum_hessian":[4.615585E3,3.5358872E3,1.0796976E3,8.2150037E2,2.714387E3,8.189217E2,2.607759E2,6.5544885E2,1.6605154E2,2.443681E3,2.70706E2,7.816534E2,3.726832E1,2.1994597E2,4.0829933E1,3.917287E2,2.6372015E2,3.275821E1,1.3329333E2,2.3931699E2,2.204364E3,2.4529982E1,2.4617601E2,6.752573E2,1.063961E2,3.7023962E0,3.356592E1,1.3659944E2,8.334651E1,8.788308E0,3.2041626E1],"tree_param":{"num_deleted":"0","num_feature":"9","num_nodes":"31","size_leaf_vector":"1"}},{"base_weights":[-2.1425571E-2,2.0714347E0,-7.834865E-1,2.539138E0,1.2991729E0,-1.9330828E-1,-9.5801795E-1,7.6503044E-1,2.6482732E0,1.5727686E0,-4.7982094E-1,-5.283685E-1,1.1487831E0,-9.7643304E-1,-1.19431324E-1,1.0651269E-1,1.2676944E-2,1.6118735E-1,1.1229278E-1,9.362673E-2,-1.0515398E-2,1.2683176E-1,-3.5588812E-2,-3.152964E-2,8.6039625E-2,2.4681483E-1,7.1014385E-3,-3.8666703E-2,-5.055917E-2,1.20576344E-1,-4.795524E-2],"categories":[],"categories_nodes":[],"categories_segments":[],"categories_sizes":[],"default_left":[0,0,0,0,0,0,0,0,0,0,0,0,0,0,0,0,0,0,0,0,0,0,0,0,0,0,0,0,0,0,0],"id":5,"left_children":[1,3,5,7,9,11,13,15,17,19,21,23,25,27,29,-1,-1,-1,-1,-1,-1,-1,-1,-1,-1,-1,-1,-1,-1,-1,-1],"loss_changes":[7.3065747E3,4.3839014E2,3.457417E2,1.4523291E2,2.2625604E2,3.4584497E2,3.990503E1,3.1219679E1,1.5859131E2,2.151485E2,4.5550602E1,1.4249574E2,5.853467E2,1.711499E1,1.2308177E2,0E0,0E0,0E0,0E0,0E0,0E0,0E0,0E0,0E0,0E0,0E0,0E0,0E0,0E0,0E0,0E0],"parents":[2147483647,0,0,1,1,2,2,3,3,4,4,5,5,6,6,7,7,8,8,9,9,10,10,11,11,12,12,13,13,14,14],"right_children":[2,4,6,8,10,12,14,16,18,20,22,24,26,28,30,-1,-1,-1,-1,-1,-1,-1,-1,-1,-1,-1,-1,-1,-1,-1,-1],"split_conditions":[9.9807173E-1,9.930401E-1,9.991413E-1,8.04102E-1,1.59779625E1,3.083844E0,3.110082E2,5.4229926E-3,6.3851307E1,6.371042E2,1.8170028E0,2.8757703E2,2.7649084E1,9.993545E-1,9.72755E1,1.0651269E-1,1.2676944E-2,1.6118735E-1,1.1229278E-1,9.362673E-2,-1.0515398E-2,1.2683176E-1,-3.5588812E-2,-3.152964E-2,8.6039625E-2,2.4681483E-1,7.1014385E-3,-3.8666703E-2,-5.055917E-2,1.20576344E-1,-4.795524E-2],"split_indices":[8,8,8,0,1,1,0,3,0,2,3,0,0,8,2,0,0,0,0,0,0,0,0,0,0,0,0,0,0,0,0],"split_type":[0,0,0,0,0,0,0,0,0,0,0,0,0,0,0,0,0,0,0,0,0,0,0,0,0,0,0,0,0,0,0],"sum_hessian":[4.579232E3,1.2218707E3,3.3573613E3,7.595673E2,4.6230334E2,7.667392E2,2.590622E3,4.4481556E1,7.1508575E2,4.0078204E2,6.1521297E1,6.140458E2,1.5269345E2,2.5347944E3,5.5827625E1,1.1260729E1,3.3220825E1,2.9138385E2,4.2370193E2,3.4305792E2,5.7724136E1,3.6834974E0,5.78378E1,5.8803906E2,2.600672E1,3.124466E1,1.2144879E2,3.7373672E2,2.1610576E3,1.3441137E1,4.238649E1],"tree_param":{"num_deleted":"0","num_feature":"9","num_nodes":"31","size_leaf_vector":"1"}},{"base_weights":[-2.3921039E-2,-8.100284E-1,1.7793539E0,-9.5343596E-1,-2.8262076E-1,1.2204626E0,2.3257453E0,-9.728387E-1,6.1777186E-2,-6.207996E-1,1.1281056E0,1.5218643E0,-1.9368905E-1,2.4545438E0,1.3411417E0,-5.045421E-2,-3.8308334E-2,3.891054E-1,-1.7892957E-2,-3.5793032E-2,6.1559778E-2,1.9059841E-1,1.5210775E-2,8.847547E-2,-3.26042E-2,7.307501E-2,-3.5743464E-2,8.5967764E-2,1.323689E-1,1.5045269E-2,2.3456176E-1],"categories":[],"categories_nodes":[],"categories_segments":[],"categories_sizes":[],"default_left":[0,0,0,0,0,0,0,0,0,0,0,0,0,0,0,0,0,0,0,0,0,0,0,0,0,0,0,0,0,0,0],"id":6,"left_children":[1,3,5,7,9,11,13,15,17,19,21,23,25,27,29,-1,-1,-1,-1,-1,-1,-1,-1,-1,-1,-1,-1,-1,-1,-1,-1],"loss_changes":[6.435647E3,2.3885815E2,4.180498E2,4.9015625E1,3.238338E2,2.9159906E2,8.494995E1,1.7495117E1,1.5683052E2,9.718082E1,2.892278E2,3.045172E2,1.0539154E2,8.2512695E1,2.86781E2,0E0,0E0,0E0,0E0,0E0,0E0,0E0,0E0,0E0,0E0,0E0,0E0,0E0,0E0,0E0,0E0],"parents":[2147483647,0,0,1,1,2,2,3,3,4,4,5,5,6,6,7,7,8,8,9,9,10,10,11,11,12,12,13,13,14,14],"right_children":[2,4,6,8,10,12,14,16,18,20,22,24,26,28,30,-1,-1,-1,-1,-1,-1,-1,-1,-1,-1,-1,-1,-1,-1,-1,-1],"split_conditions":[2.125142E-1,1.1173592E-1,1.2266917E0,3.1249228E2,3.083844E0,6.013791E2,5.1905342E1,8.398844E-2,1.1759788E0,2.8757703E2,2.7649084E1,2.0628273E1,2.5511463E0,3.4698355E-1,3.001779E1,-5.045421E-2,-3.8308334E-2,3.891054E-1,-1.7892957E-2,-3.5793032E-2,6.1559778E-2,1.9059841E-1,1.5210775E-2,8.847547E-2,-3.26042E-2,7.307501E-2,-3.5743464E-2,8.5967764E-2,1.323689E-1,1.5045269E-2,2.3456176E-1],"split_indices":[7,7,7,0,1,2,1,7,3,0,0,1,1,1,2,0,0,0,0,0,0,0,0,0,0,0,0,0,0,0,0],"split_type":[0,0,0,0,0,0,0,0,0,0,0,0,0,0,0,0,0,0,0,0,0,0,0,0,0,0,0,0,0,0,0],"sum_hessian":[4.537906E3,3.160632E3,1.3772736E3,2.4843137E3,6.763182E2,6.824475E2,6.9482605E2,2.437765E3,4.654889E1,5.459929E2,1.3032527E2,5.6248706E2,1.1996046E2,6.1312823E2,8.169779E1,2.0707256E3,3.670394E2,1.4952314E0,4.5053658E1,5.1991943E2,2.6073458E1,2.975855E1,1.0056673E2,5.051311E2,5.735594E1,2.8295147E1,9.1665306E1,1.2946266E2,4.836656E2,6.3172073E1,1.8525717E1],"tree_param":{"num_deleted":"0","num_feature":"9","num_nodes":"31","size_leaf_vector":"1"}},{"base_weights":[-2.7736014E-2,1.594865E0,-8.029159E-1,1.9761162E0,8.9949447E-1,-2.7476534E-1,-9.4991386E-1,1.2505602E0,2.1551602E0,1.5396668E0,4.7039998E-1,1.1496668E-1,-5.2207258E-2,-9.704274E-1,-1.7649734E-1,5.544454E-2,1.9566952E-1,1.500779E-1,8.738786E-2,1.0914816E-1,-1.7708145E-2,-9.91124E-3,5.669285E-2,-3.2486334E-2,2.3082899E-2,-3.7669327E-2,-5.0403066E-2,2.1804504E-1,-5.1560976E-2],"categories":[],"categories_nodes":[],"categories_segments":[],"categories_sizes":[],"default_left":[0,0,0,0,0,0,0,0,0,0,0,0,0,0,0,0,0,0,0,0,0,0,0,0,0,0,0,0,0],"id":7,"left_children":[1,3,5,7,9,11,13,15,17,19,21,23,-1,25,27,-1,-1,-1,-1,-1,-1,-1,-1,-1,-1,-1,-1,-1,-1],"loss_changes":[5.6696494E3,3.8455762E2,2.3655444E2,1.194668E2,1.4153372E2,1.9968259E2,3.7679688E1,6.67738E1,2.5436328E2,2.5342664E2,1.3840471E2,1.1765521E2,0E0,1.8222168E1,2.4830188E2,0E0,0E0,0E0,0E0,0E0,0E0,0E0,0E0,0E0,0E0,0E0,0E0,0E0,0E0],"parents":[2147483647,0,0,1,1,2,2,3,3,4,4,5,5,6,6,7,7,8,8,9,9,10,10,11,11,13,13,14,14],"right_children":[2,4,6,8,10,12,14,16,18,20,22,24,-1,26,28,-1,-1,-1,-1,-1,-1,-1,-1,-1,-1,-1,-1,-1,-1],"split_conditions":[9.983663E-1,9.9427086E-1,9.991413E-1,1.29905E0,-2.882346E-4,2.1593916E3,3.0920844E2,6.3335495E0,6.3851307E1,3.4139975E2,1.672646E0,1.3309102E-1,-5.2207258E-2,9.993545E-1,9.388369E-3,5.544454E-2,1.9566952E-1,1.500779E-1,8.738786E-2,1.0914816E-1,-1.7708145E-2,-9.91124E-3,5.669285E-2,-3.2486334E-2,2.3082899E-2,-3.7669327E-2,-5.0403066E-2,2.1804504E-1,-5.1560976E-2],"split_indices":[8,8,8,0,5,2,0,7,0,2,0,2,0,8,5,0,0,0,0,0,0,0,0,0,0,0,0,0,0],"split_type":[0,0,0,0,0,0,0,0,0,0,0,0,0,0,0,0,0,0,0,0,0,0,0,0,0,0,0,0,0],"sum_hessian":[4.5055474E3,1.4562589E3,3.0492883E3,9.393817E2,5.168772E2,6.64537E2,2.3847512E3,1.8750871E2,7.51873E2,2.063831E2,3.1049408E2,4.4166205E2,2.2287491E2,2.3228862E3,6.186522E1,1.7938158E2,8.127126E0,2.4224043E2,5.0963257E2,1.5394005E2,5.2443058E1,1.5499402E2,1.5550006E2,1.3750177E2,3.041603E2,3.4636392E2,1.9765222E3,9.156212E0,5.2709007E1],"tree_param":{"num_deleted":"0","num_feature":"9","num_nodes":"29","size_leaf_vector":"1"}},{"base_weights":[-2.6322966E-2,-8.009843E-1,1.4274508E0,-2.988243E-1,-9.407382E-1,1.7151752E0,7.026749E-1,-6.1797017E-1,9.652849E-1,-9.645271E-1,-1.0061018E-1,8.843698E-1,1.8597196E0,9.6957743E-1,-3.6889324E-1,-3.6261916E-2,6.15908E-2,1.5917549E-1,8.274904E-3,-5.0095845E-2,-3.6932018E-2,1.7930019E-1,-5.1415958E-2,3.623089E-2,1.6179281E-1,1.173134E-1,7.679281E-2,1.2553989E-2,8.430554E-2,3.8914792E-2,-4.552072E-2],"categories":[],"categories_nodes":[],"categories_segments":[],"categories_sizes":[],"default_left":[0,0,0,0,0,0,0,0,0,0,0,0,0,0,0,0,0,0,0,0,0,0,0,0,0,0,0,0,0,0,0],"id":8,"left_children":[1,3,5,7,9,11,13,15,17,19,21,23,25,27,29,-1,-1,-1,-1,-1,-1,-1,-1,-1,-1,-1,-1,-1,-1,-1,-1],"loss_changes":[5.046132E3,2.0485852E2,3.2361523E2,2.579342E2,4.5594727E1,1.3217017E2,1.2743738E2,1.0206882E2,2.2827739E2,1.8036621E1,2.228148E2,6.0405823E1,1.4581812E2,1.8285571E2,5.6201073E1,0E0,0E0,0E0,0E0,0E0,0E0,0E0,0E0,0E0,0E0,0E0,0E0,0E0,0E0,0E0,0E0],"parents":[2147483647,0,0,1,1,2,2,3,3,4,4,5,5,6,6,7,7,8,8,9,9,10,10,11,11,12,12,13,13,14,14],"right_children":[2,4,6,8,10,12,14,16,18,20,22,24,26,28,30,-1,-1,-1,-1,-1,-1,-1,-1,-1,-1,-1,-1,-1,-1,-1,-1],"split_conditions":[2.051287E-1,9.991413E-1,9.95715E-1,3.083844E0,3.0920844E2,7.9686485E-2,6.721983E2,2.8757703E2,2.7649084E1,8.499346E-2,5.215851E-3,6.3335495E0,6.3851307E1,1.5744856E-1,2.5138342E0,-3.6261916E-2,6.15908E-2,1.5917549E-1,8.274904E-3,-5.0095845E-2,-3.6932018E-2,1.7930019E-1,-5.1415958E-2,3.623089E-2,1.6179281E-1,1.173134E-1,7.679281E-2,1.2553989E-2,8.430554E-2,3.8914792E-2,-4.552072E-2],"split_indices":[7,8,8,1,0,2,2,0,0,7,5,7,0,2,1,0,0,0,0,0,0,0,0,0,0,0,0,0,0,0,0],"split_type":[0,0,0,0,0,0,0,0,0,0,0,0,0,0,0,0,0,0,0,0,0,0,0,0,0,0,0,0,0,0,0],"sum_hessian":[4.478726E3,2.9220986E3,1.5566273E3,6.368662E2,2.2852324E3,1.1132992E3,4.433282E2,5.0889752E2,1.279687E2,2.222162E3,6.3070328E1,1.6604315E2,9.47256E2,3.5500098E2,8.8327225E1,4.8157895E2,2.7318577E1,3.3122456E1,9.4846245E1,1.903629E3,3.1853305E2,1.2104184E1,5.0966145E1,1.5670528E2,9.337877E0,3.760547E2,5.712013E2,1.779318E2,1.7706918E2,2.818381E1,6.0143417E1],"tree_param":{"num_deleted":"0","num_feature":"9","num_nodes":"31","size_leaf_vector":"1"}},{"base_weights":[-1.9545332E-2,-8.1079E-1,1.2901292E0,-9.540445E-1,-4.0623096E-1,8.651051E-1,1.7394865E0,-9.803513E-1,2.5083092E-1,-6.553056E-1,6.4689434E-1,1.0565175E0,-5.317286E-1,1.6580089E0,2.938167E0,-4.9680497E-2,-3.1237472E-2,1.5058109E-1,-5.0626226E-2,-2.3903493E-2,-5.1956184E-2,1.3552107E-1,-2.834791E-3,6.6864386E-2,-4.5496295E-3,8.581888E-2,-4.1419365E-2,8.556192E-2,-6.3561774E-3,6.5357715E-2,1.5241922E-1],"categories":[],"categories_nodes":[],"categories_segments":[],"categories_sizes":[],"default_left":[0,0,0,0,0,0,0,0,0,0,0,0,0,0,0,0,0,0,0,0,0,0,0,0,0,0,0,0,0,0,0],"id":9,"left_children":[1,3,5,7,9,11,13,15,17,19,21,23,25,27,29,-1,-1,-1,-1,-1,-1,-1,-1,-1,-1,-1,-1,-1,-1,-1,-1],"loss_changes":[4.58682E3,1.595238E2,3.168755E2,6.481006E1,1.9014743E2,2.3015204E2,7.417139E1,8.778687E0,1.5763155E2,3.932852E1,2.0174423E2,2.4354706E2,7.088385E1,7.2444336E1,5.0423584E0,0E0,0E0,0E0,0E0,0E0,0E0,0E0,0E0,0E0,0E0,0E0,0E0,0E0,0E0,0E0,0E0],"parents":[2147483647,0,0,1,1,2,2,3,3,4,4,5,5,6,6,7,7,8,8,9,9,10,10,11,11,12,12,13,13,14,14],"right_children":[2,4,6,8,10,12,14,16,18,20,22,24,26,28,30,-1,-1,-1,-1,-1,-1,-1,-1,-1,-1,-1,-1,-1,-1,-1,-1],"split_conditions":[1.8859255E-1,1.0112499E-1,1.2266917E0,3.0920844E2,3.083844E0,1.59779625E1,1.8124945E3,9.625671E0,9.388369E-3,2.1593916E3,2.7649084E1,6.013791E2,-1.7417672E0,1.692798E3,-1.116523E0,-4.9680497E-2,-3.1237472E-2,1.5058109E-1,-5.0626226E-2,-2.3903493E-2,-5.1956184E-2,1.3552107E-1,-2.834791E-3,6.6864386E-2,-4.5496295E-3,8.581888E-2,-4.1419365E-2,8.556192E-2,-6.3561774E-3,6.5357715E-2,1.5241922E-1],"split_indices":[7,7,7,0,1,1,2,1,5,2,0,2,5,2,5,0,0,0,0,0,0,0,0,0,0,0,0,0,0,0,0],"split_type":[0,0,0,0,0,0,0,0,0,0,0,0,0,0,0,0,0,0,0,0,0,0,0,0,0,0,0,0,0,0,0],"sum_hessian":[4.424257E3,2.758238E3,1.6660188E3,2.0359495E3,7.2228845E2,8.5769464E2,8.083241E2,1.9926294E3,4.3320072E1,5.8444025E2,1.378482E2,7.545412E2,1.0315345E2,7.5910864E2,4.921548E1,1.9192753E3,7.3354095E1,1.3165621E1,3.0154451E1,4.0135297E2,1.830873E2,3.4325184E1,1.03523026E2,6.060812E2,1.4845998E2,1.1467323E1,9.168613E1,7.3716895E2,2.1939701E1,3.929279E0,4.52862E1],"tree_param":{"num_deleted":"0","num_feature":"9","num_nodes":"31","size_leaf_vector":"1"}},{"base_weights":[-1.7064303E-2,1.1620451E0,-8.1082034E-1,1.4462397E0,5.477719E-1,-4.2490754E-1,-9.5771736E-1,8.2488483E-1,1.6101738E0,6.817386E-1,-8.685505E-1,-6.5782666E-1,5.825315E-1,-9.7867453E-1,5.2463984E-1,3.6543924E-2,1.4646141E-1,1.0871168E-1,6.495436E-2,1.3056156E-2,8.046258E-2,1.18495874E-1,-4.9440067E-2,-1.9890826E-2,-4.6530746E-2,1.1966371E-1,-4.8885983E-3,-4.9653713E-2,-2.8588627E-2,2.6909465E-1,-2.1068905E-2],"categories":[],"categories_nodes":[],"categories_segments":[],"categories_sizes":[],"default_left":[0,0,0,0,0,0,0,0,0,0,0,0,0,0,0,0,0,0,0,0,0,0,0,0,0,0,0,0,0,0,0],"id":10,"left_children":[1,3,5,7,9,11,13,15,17,19,21,23,25,27,29,-1,-1,-1,-1,-1,-1,-1,-1,-1,-1,-1,-1,-1,-1,-1,-1],"loss_changes":[4.0936724E3,3.0642114E2,1.4778625E2,1.21164795E2,1.0651492E2,1.699235E2,5.930945E1,4.792569E1,1.6395337E2,1.9876714E2,2.1300976E1,4.1286392E1,1.6802193E2,1.0368774E1,1.264958E2,0E0,0E0,0E0,0E0,0E0,0E0,0E0,0E0,0E0,0E0,0E0,0E0,0E0,0E0,0E0,0E0],"parents":[2147483647,0,0,1,1,2,2,3,3,4,4,5,5,6,6,7,7,8,8,9,9,10,10,11,11,12,12,13,13,14,14],"right_children":[2,4,6,8,10,12,14,16,18,20,22,24,26,28,30,-1,-1,-1,-1,-1,-1,-1,-1,-1,-1,-1,-1,-1,-1,-1,-1],"split_conditions":[9.986115E-1,9.95715E-1,9.992601E-1,1.26748E0,1.59779625E1,3.083844E0,3.1249228E2,6.3335495E0,6.3851307E1,3.15961E0,-1.846682E0,7.948494E0,2.7649084E1,1.0065029E1,-4.2261687E-1,3.6543924E-2,1.4646141E-1,1.0871168E-1,6.495436E-2,1.3056156E-2,8.046258E-2,1.18495874E-1,-4.9440067E-2,-1.9890826E-2,-4.6530746E-2,1.1966371E-1,-4.8885983E-3,-4.9653713E-2,-2.8588627E-2,2.6909465E-1,-2.1068905E-2],"split_indices":[8,8,8,0,1,1,0,7,0,1,5,3,0,1,5,0,0,0,0,0,0,0,0,0,0,0,0,0,0,0,0],"split_type":[0,0,0,0,0,0,0,0,0,0,0,0,0,0,0,0,0,0,0,0,0,0,0,0,0,0,0,0,0,0,0],"sum_hessian":[4.371924E3,1.7587985E3,2.6131255E3,1.2015465E3,5.5725195E2,7.215185E2,1.891607E3,2.5208958E2,9.494569E2,5.095714E2,4.768057E1,5.863109E2,1.352076E2,1.8655719E3,2.6035185E1,2.4259938E2,9.49021E0,3.3537256E2,6.1408435E2,3.5146704E2,1.5810437E2,1.0372889E0,4.664328E1,3.0144485E2,2.8486606E2,3.623748E1,9.8970116E1,1.800417E3,6.515493E1,3.4797406E0,2.2555445E1],"tree_param":{"num_deleted":"0","num_feature":"9","num_nodes":"31","size_leaf_vector":"1"}},{"base_weights":[-2.649021E-2,-8.0291384E-1,1.0511147E0,-4.174069E-1,-9.5059025E-1,1.1305826E0,-7.504499E-1,-6.4577687E-1,5.5949306E-1,-9.706991E-1,4.5742008E-1,1.0601782E0,3.002706E0,-1.0205314E0,1.1409595E-1,-1.8031726E-2,-4.7124572E-2,1.0605579E-1,-3.5036758E-3,-4.9327917E-2,-2.863924E-2,1.355245E-1,-4.9613677E-2,7.009919E-2,3.9252717E-2,3.5356835E-1,1.13217466E-1,-5.1655646E-2,-1.2381954E-2],"categories":[],"categories_nodes":[],"categories_segments":[],"categories_sizes":[],"default_left":[0,0,0,0,0,0,0,0,0,0,0,0,0,0,0,0,0,0,0,0,0,0,0,0,0,0,0,0,0],"id":11,"left_children":[1,3,5,7,9,11,13,15,17,19,21,23,25,27,-1,-1,-1,-1,-1,-1,-1,-1,-1,-1,-1,-1,-1,-1,-1],"loss_changes":[3.601163E3,1.4202222E2,2.5890283E2,1.5533702E2,5.163379E1,2.2440845E2,6.518614E1,4.733603E1,1.3007921E2,1.0685913E1,8.806039E1,1.555387E2,1.7035498E2,4.361725E-1,0E0,0E0,0E0,0E0,0E0,0E0,0E0,0E0,0E0,0E0,0E0,0E0,0E0,0E0,0E0],"parents":[2147483647,0,0,1,1,2,2,3,3,4,4,5,5,6,6,7,7,8,8,9,9,10,10,11,11,12,12,13,13],"right_children":[2,4,6,8,10,12,14,16,18,20,22,24,26,28,-1,-1,-1,-1,-1,-1,-1,-1,-1,-1,-1,-1,-1,-1,-1],"split_conditions":[1.7867075E-1,9.992601E-1,2.22538E3,3.2620096E0,3.1249228E2,1.908038E3,3.96432E-1,7.948494E0,2.7649084E1,9.625671E0,9.72755E1,9.895328E-1,2.3921758E-1,3.654606E-1,1.1409595E-1,-1.8031726E-2,-4.7124572E-2,1.0605579E-1,-3.5036758E-3,-4.9327917E-2,-2.863924E-2,1.355245E-1,-4.9613677E-2,7.009919E-2,3.9252717E-2,3.5356835E-1,1.13217466E-1,-5.1655646E-2,-1.2381954E-2],"split_indices":[7,8,2,1,0,2,7,3,0,1,2,8,7,7,0,0,0,0,0,0,0,0,0,0,0,0,0,0,0],"split_type":[0,0,0,0,0,0,0,0,0,0,0,0,0,0,0,0,0,0,0,0,0,0,0,0,0,0,0,0,0],"sum_hessian":[4.3021123E3,2.5006365E3,1.8014755E3,6.9366376E2,1.8069728E3,1.7257253E3,7.5750175E1,5.6250574E2,1.3115805E2,1.7818357E3,2.5137177E1,1.6646882E3,6.10371E1,7.016436E1,5.5858164E0,2.879763E2,2.7452942E2,3.7003277E1,9.415478E1,1.7121183E3,6.971732E1,9.501122E0,1.5636055E1,7.4055255E2,9.241357E2,8.057832E0,5.297927E1,6.87092E1,1.4551607E0],"tree_param":{"num_deleted":"0","num_feature":"9","num_nodes":"29","size_leaf_vector":"1"}},{"base_weights":[-3.1914722E-2,-7.993504E-1,9.7354424E-1,-9.4148105E-1,-4.042335E-1,1.2110405E0,4.5674995E-1,-9.7152317E-1,2.5296408E-1,-6.474695E-1,5.1662576E-1,6.6804576E-1,1.356026E0,6.23525E-1,-1.0141311E0,-4.9927864E-2,-3.95614E-2,1.2092841E-1,-5.0335426E-2,-3.676075E-2,1.6413612E-2,7.031014E-2,-3.0445486E-2,2.9675474E-2,1.1850573E-1,9.293208E-2,5.4469068E-2,3.780649E-2,-4.9713235E-2,-5.144141E-2,-1.388811E-2],"categories":[],"categories_nodes":[],"categories_segments":[],"categories_sizes":[],"default_left":[0,0,0,0,0,0,0,0,0,0,0,0,0,0,0,0,0,0,0,0,0,0,0,0,0,0,0,0,0,0,0],"id":12,"left_children":[1,3,5,7,9,11,13,15,17,19,21,23,25,27,29,-1,-1,-1,-1,-1,-1,-1,-1,-1,-1,-1,-1,-1,-1,-1,-1],"loss_changes":[3.304912E3,1.3602869E2,2.2700415E2,6.432178E1,1.4466171E2,9.9049805E1,1.4422612E2,7.7008057E0,1.2411117E2,4.3920013E1,1.3621912E2,3.2788803E1,1.3214514E2,1.1367262E2,3.635025E-1,0E0,0E0,0E0,0E0,0E0,0E0,0E0,0E0,0E0,0E0,0E0,0E0,0E0,0E0,0E0,0E0],"parents":[2147483647,0,0,1,1,2,2,3,3,4,4,5,5,6,6,7,7,8,8,9,9,10,10,11,11,12,12,13,13,14,14],"right_children":[2,4,6,8,10,12,14,16,18,20,22,24,26,28,30,-1,-1,-1,-1,-1,-1,-1,-1,-1,-1,-1,-1,-1,-1,-1,-1],"split_conditions":[1.8071993E-1,1.0112499E-1,9.95715E-1,3.0920844E2,3.002245E0,1.282498E0,2.1593916E3,3.15961E0,9.388369E-3,2.8757703E2,9.014365E-2,6.3335495E0,6.3851307E1,1.903457E1,3.654606E-1,-4.9927864E-2,-3.95614E-2,1.2092841E-1,-5.0335426E-2,-3.676075E-2,1.6413612E-2,7.031014E-2,-3.0445486E-2,2.9675474E-2,1.1850573E-1,9.293208E-2,5.4469068E-2,3.780649E-2,-4.9713235E-2,-5.144141E-2,-1.388811E-2],"split_indices":[7,7,8,0,1,0,2,1,5,0,5,7,0,1,7,0,0,0,0,0,0,0,0,0,0,0,0,0,0,0,0],"split_type":[0,0,0,0,0,0,0,0,0,0,0,0,0,0,0,0,0,0,0,0,0,0,0,0,0,0,0,0,0,0,0],"sum_hessian":[4.281046E3,2.428019E3,1.8530269E3,1.7846614E3,6.433577E2,1.2686615E3,5.843653E2,1.7410579E3,4.3603558E1,5.0916388E2,1.3419382E2,2.6854053E2,1.00012103E3,5.253723E2,5.8992973E1,1.510091E3,2.3096695E2,1.5697217E1,2.7906342E1,4.673803E2,4.1783585E1,7.481431E1,5.9379513E1,2.585662E2,9.97432E0,3.4459723E2,6.555238E2,4.8606393E2,3.9308384E1,5.7449192E1,1.5437806E0],"tree_param":{"num_deleted":"0","num_feature":"9","num_nodes":"31","size_leaf_vector":"1"}},{"base_weights":[-3.5434704E-2,9.080722E-1,-7.9407865E-1,1.3104347E0,5.8917874E-1,-4.3106475E-1,-9.417118E-1,1.3843796E0,3.5650855E-1,7.172401E-1,-6.0986453E-1,-6.3626957E-1,3.424507E-1,-9.716962E-1,2.8840712E-1,4.5899384E-2,7.604133E-2,-2.1455381E-2,1.3120942E-1,2.1674102E-2,6.328389E-2,6.739019E-2,-4.717727E-2,-1.8539594E-2,-4.6189755E-2,1.0447841E-1,-5.2997824E-3,-4.9875222E-2,-4.009623E-2,1.0042616E-1,-4.982481E-2],"categories":[],"categories_nodes":[],"categories_segments":[],"categories_sizes":[],"default_left":[0,0,0,0,0,0,0,0,0,0,0,0,0,0,0,0,0,0,0,0,0,0,0,0,0,0,0,0,0,0,0],"id":13,"left_children":[1,3,5,7,9,11,13,15,17,19,21,23,25,27,29,-1,-1,-1,-1,-1,-1,-1,-1,-1,-1,-1,-1,-1,-1,-1,-1],"loss_changes":[3.012457E3,2.3991077E2,1.2461621E2,5.7949463E1,1.613967E2,1.07563835E2,6.141736E1,4.7514893E1,1.0971266E2,1.4691306E2,6.770119E1,4.0482635E1,1.1182482E2,6.2906494E0,9.087834E1,0E0,0E0,0E0,0E0,0E0,0E0,0E0,0E0,0E0,0E0,0E0,0E0,0E0,0E0,0E0,0E0],"parents":[2147483647,0,0,1,1,2,2,3,3,4,4,5,5,6,6,7,7,8,8,9,9,10,10,11,11,12,12,13,13,14,14],"right_children":[2,4,6,8,10,12,14,16,18,20,22,24,26,28,30,-1,-1,-1,-1,-1,-1,-1,-1,-1,-1,-1,-1,-1,-1,-1,-1],"split_conditions":[9.986115E-1,9.895328E-1,9.992601E-1,7.694614E1,1.903457E1,3.083844E0,3.0920844E2,4.4812274E-1,1.0438041E1,3.002245E0,-2.3679316E0,7.948494E0,1.6781094E1,3.15961E0,9.388369E-3,4.5899384E-2,7.604133E-2,-2.1455381E-2,1.3120942E-1,2.1674102E-2,6.328389E-2,6.739019E-2,-4.717727E-2,-1.8539594E-2,-4.6189755E-2,1.0447841E-1,-5.2997824E-3,-4.9875222E-2,-4.009623E-2,1.0042616E-1,-4.982481E-2],"split_indices":[8,8,8,1,1,1,0,1,3,1,5,3,0,1,5,0,0,0,0,0,0,0,0,0,0,0,0,0,0,0,0],"split_type":[0,0,0,0,0,0,0,0,0,0,0,0,0,0,0,0,0,0,0,0,0,0,0,0,0,0,0,0,0,0,0],"sum_hessian":[4.206594E3,1.8747797E3,2.3318145E3,8.275334E2,1.0472462E3,6.7528394E2,1.6565305E3,7.67582E2,5.995145E1,9.465534E2,1.0069284E2,5.338397E2,1.4144415E2,1.6173181E3,3.921244E1,1.754842E2,5.920977E2,4.512804E1,1.482341E1,6.249822E2,3.215712E2,1.4220946E1,8.64719E1,2.787522E2,2.5508754E2,2.8142656E1,1.13301506E2,1.3996686E3,2.1764958E2,1.6525875E1,2.2686567E1],"tree_param":{"num_deleted":"0","num_feature":"9","num_nodes":"31","size_leaf_vector":"1"}},{"base_weights":[-1.7572599E-2,8.608342E-1,-7.669871E-1,1.1153681E0,4.5575747E-1,-3.6224762E-1,-9.3706375E-1,1.0576217E0,2.226203E0,5.759995E-1,-9.9502695E-1,-6.266248E-1,3.319666E-1,-9.662595E-1,2.4681391E-1,5.6789555E-2,1.5740454E-2,4.167061E-2,1.17076054E-1,3.449708E-2,-4.5809817E-2,-5.1321264E-2,-1.1022562E-3,-3.567709E-2,1.1881881E-2,1.15496926E-1,-4.027069E-4,-4.9831953E-2,-3.842355E-2,9.334175E-2,-4.9660336E-2],"categories":[],"categories_nodes":[],"categories_segments":[],"categories_sizes":[],"default_left":[0,0,0,0,0,0,0,0,0,0,0,0,0,0,0,0,0,0,0,0,0,0,0,0,0,0,0,0,0,0,0],"id":14,"left_children":[1,3,5,7,9,11,13,15,17,19,21,23,25,27,29,-1,-1,-1,-1,-1,-1,-1,-1,-1,-1,-1,-1,-1,-1,-1,-1],"loss_changes":[2.7565735E3,1.9826233E2,1.5520654E2,7.354541E1,1.3064178E2,1.2321488E2,5.520996E1,6.506177E1,7.29422E0,1.1780896E2,1.7319756E0,3.665602E1,1.2477445E2,8.56189E0,8.034864E1,0E0,0E0,0E0,0E0,0E0,0E0,0E0,0E0,0E0,0E0,0E0,0E0,0E0,0E0,0E0,0E0],"parents":[2147483647,0,0,1,1,2,2,3,3,4,4,5,5,6,6,7,7,8,8,9,9,10,10,11,11,12,12,13,13,14,14],"right_children":[2,4,6,8,10,12,14,16,18,20,22,24,26,28,30,-1,-1,-1,-1,-1,-1,-1,-1,-1,-1,-1,-1,-1,-1,-1,-1],"split_conditions":[9.986115E-1,9.9427086E-1,9.992601E-1,1.8124945E3,2.1593916E3,2.6296246E0,3.0920844E2,5.1905342E1,-1.116523E0,1.903457E1,3.654606E-1,2.8757703E2,9.999992E-1,3.15961E0,9.388369E-3,5.6789555E-2,1.5740454E-2,4.167061E-2,1.17076054E-1,3.449708E-2,-4.5809817E-2,-5.1321264E-2,-1.1022562E-3,-3.567709E-2,1.1881881E-2,1.15496926E-1,-4.027069E-4,-4.9831953E-2,-3.842355E-2,9.334175E-2,-4.9660336E-2],"split_indices":[8,8,8,2,2,1,0,1,5,1,7,0,6,1,5,0,0,0,0,0,0,0,0,0,0,0,0,0,0,0,0],"split_type":[0,0,0,0,0,0,0,0,0,0,0,0,0,0,0,0,0,0,0,0,0,0,0,0,0,0,0,0,0,0,0],"sum_hessian":[4.185468E3,1.9268325E3,2.2586355E3,1.1822197E3,7.4461285E2,6.6921136E2,1.5894241E3,1.1256549E3,5.6564724E1,6.881791E2,5.6433804E1,4.8471503E2,1.8449637E2,1.55135E3,3.8074158E1,1.01799774E3,1.0765724E2,4.954327E0,5.1610397E1,6.3985803E2,4.8321045E1,5.4616394E1,1.81741E0,4.4058115E2,4.4133892E1,2.6213491E1,1.5828287E2,1.3412932E3,2.1005667E2,1.628855E1,2.178561E1],"tree_param":{"num_deleted":"0","num_feature":"9","num_nodes":"31","size_leaf_vector":"1"}},{"base_weights":[-2.2599062E-2,-7.753929E-1,8.02681E-1,-3.954705E-1,-9.348257E-1,9.8390025E-1,3.2469958E-1,-6.058075E-1,3.798238E-1,-9.730406E-1,-6.027564E-1,1.6724322E0,8.9982116E-1,9.446702E-1,7.512337E-2,-1.6237242E-2,-4.550537E-2,5.487464E-2,-3.1092808E-2,-5.1163506E-2,-4.6236146E-2,8.007782E-2,-4.6024665E-2,3.5462998E-2,1.05837695E-1,5.111112E-2,1.8456586E-2,3.1183032E-2,1.424889E-1,-1.906102E-2,1.7851966E-2],"categories":[],"categories_nodes":[],"categories_segments":[],"categories_sizes":[],"default_left":[0,0,0,0,0,0,0,0,0,0,0,0,0,0,0,0,0,0,0,0,0,0,0,0,0,0,0,0,0,0,0],"id":15,"left_children":[1,3,5,7,9,11,13,15,17,19,21,23,25,27,29,-1,-1,-1,-1,-1,-1,-1,-1,-1,-1,-1,-1,-1,-1,-1,-1],"loss_changes":[2.5660737E3,1.3046887E2,1.7035107E2,1.04636E2,1.8712524E1,8.117468E1,8.397162E1,4.280989E1,9.9343704E1,2.3597412E0,1.1324335E2,6.451462E1,8.2438965E1,9.350935E1,5.0097168E1,0E0,0E0,0E0,0E0,0E0,0E0,0E0,0E0,0E0,0E0,0E0,0E0,0E0,0E0,0E0,0E0],"parents":[2147483647,0,0,1,1,2,2,3,3,4,4,5,5,6,6,7,7,8,8,9,9,10,10,11,11,12,12,13,13,14,14],"right_children":[2,4,6,8,10,12,14,16,18,20,22,24,26,28,30,-1,-1,-1,-1,-1,-1,-1,-1,-1,-1,-1,-1,-1,-1,-1,-1],"split_conditions":[1.7867075E-1,9.992601E-1,9.9636424E-1,3.2620096E0,4.810417E0,9.374354E-1,9.9999976E-1,7.948494E0,9.014365E-2,6.4055263E-3,-4.2261687E-1,7.258915E0,1.0906378E-1,4.398763E0,2.097808E0,-1.6237242E-2,-4.550537E-2,5.487464E-2,-3.1092808E-2,-5.1163506E-2,-4.6236146E-2,8.007782E-2,-4.6024665E-2,3.5462998E-2,1.05837695E-1,5.111112E-2,1.8456586E-2,3.1183032E-2,1.424889E-1,-1.906102E-2,1.7851966E-2],"split_indices":[7,8,8,1,1,8,6,3,5,3,5,1,5,1,1,0,0,0,0,0,0,0,0,0,0,0,0,0,0,0,0],"split_type":[0,0,0,0,0,0,0,0,0,0,0,0,0,0,0,0,0,0,0,0,0,0,0,0,0,0,0,0,0,0,0],"sum_hessian":[4.1283945E3,2.1590444E3,1.9693501E3,6.3924005E2,1.5198042E3,1.4271934E3,5.421567E2,5.0299606E2,1.3624399E2,1.3612233E3,1.5858093E2,1.532579E2,1.2739355E3,1.5480974E2,3.8734692E2,2.6255643E2,2.4043964E2,7.9319016E1,5.692498E1,6.575139E2,7.037094E2,1.9469559E1,1.3911137E2,4.9200474E1,1.04057434E2,1.0344238E3,2.3951164E2,1.3362189E2,2.1187849E1,1.4777994E2,2.39567E2],"tree_param":{"num_deleted":"0","num_feature":"9","num_nodes":"31","size_leaf_vector":"1"}},{"base_weights":[-2.0486997E-2,-7.6703733E-1,7.3417735E-1,-3.8911584E-1,-9.204027E-1,7.930776E-1,-7.256907E-1,-6.07803E-1,4.19344E-1,-9.665052E-1,-5.330178E-1,7.3117423E-1,2.4289184E0,-1.0141673E0,9.570136E-2,-1.5502172E-2,-4.7242682E-2,9.9129684E-2,3.1214238E-3,-4.9054828E-2,-3.7241727E-2,-4.9804572E-2,2.3309465E-2,8.114665E-3,4.2977467E-2,2.4513488E-1,8.8234566E-2,-5.1323693E-2,-1.1580481E-2],"categories":[],"categories_nodes":[],"categories_segments":[],"categories_sizes":[],"default_left":[0,0,0,0,0,0,0,0,0,0,0,0,0,0,0,0,0,0,0,0,0,0,0,0,0,0,0,0,0],"id":16,"left_children":[1,3,5,7,9,11,13,15,17,19,21,23,25,27,-1,-1,-1,-1,-1,-1,-1,-1,-1,-1,-1,-1,-1,-1,-1],"loss_changes":[2.293052E3,1.18229126E2,1.7461621E2,1.0498249E2,2.5464233E1,1.9528662E2,6.2113014E1,4.653943E1,7.0572556E1,3.4699707E0,7.308013E1,1.369018E2,1.07232544E2,4.5457458E-1,0E0,0E0,0E0,0E0,0E0,0E0,0E0,0E0,0E0,0E0,0E0,0E0,0E0,0E0,0E0],"parents":[2147483647,0,0,1,1,2,2,3,3,4,4,5,5,6,6,7,7,8,8,9,9,10,10,11,11,12,12,13,13],"right_children":[2,4,6,8,10,12,14,16,18,20,22,24,26,28,-1,-1,-1,-1,-1,-1,-1,-1,-1,-1,-1,-1,-1,-1,-1],"split_conditions":[1.7141569E-1,9.992601E-1,2.22538E3,3.2620096E0,4.810417E0,1.908038E3,4.3513694E-1,8.137129E0,9.999992E-1,8.599994E-2,7.520897E1,7.615301E-2,2.2874945E-1,3.654606E-1,9.570136E-2,-1.5502172E-2,-4.7242682E-2,9.9129684E-2,3.1214238E-3,-4.9054828E-2,-3.7241727E-2,-4.9804572E-2,2.3309465E-2,8.114665E-3,4.2977467E-2,2.4513488E-1,8.8234566E-2,-5.1323693E-2,-1.1580481E-2],"split_indices":[7,8,2,1,1,2,7,3,6,7,2,2,7,7,0,0,0,0,0,0,0,0,0,0,0,0,0,0,0],"split_type":[0,0,0,0,0,0,0,0,0,0,0,0,0,0,0,0,0,0,0,0,0,0,0,0,0,0,0,0,0],"sum_hessian":[4.068062E3,2.0450166E3,2.0230453E3,5.913514E2,1.4536653E3,1.9450275E3,7.801787E1,4.6564365E2,1.25707726E2,1.2977283E3,1.5593701E2,1.8755018E3,6.952563E1,7.0886925E1,7.1309414E0,2.4825151E2,2.1739215E2,2.2519604E1,1.0318812E2,1.2143672E3,8.336101E1,1.0655717E2,4.937985E1,3.4572437E2,1.5297775E3,1.3365919E1,5.6159706E1,6.9482544E1,1.4043791E0],"tree_param":{"num_deleted":"0","num_feature":"9","num_nodes":"29","size_leaf_vector":"1"}},{"base_weights":[-1.1658893E-2,7.098337E-1,-7.5566286E-1,3.8200295E-1,9.5023453E-1,-3.7693158E-1,-9.170086E-1,4.9744776E-1,-1.0108232E0,1.7960849E0,8.8708776E-1,-5.7751954E-1,3.2220957E-1,-9.41903E-1,3.9108607E-1,2.0939043E-2,1.2990166E-1,-5.1198334E-2,-1.2798076E-2,1.2631327E-2,1.0738581E-1,4.7825273E-2,-3.0357867E-2,-1.3851357E-2,-4.65705E-2,6.794328E-2,-7.512872E-3,-4.9202025E-2,-3.426181E-2,1.0021182E-1,-4.9514364E-2],"categories":[],"categories_nodes":[],"categories_segments":[],"categories_sizes":[],"default_left":[0,0,0,0,0,0,0,0,0,0,0,0,0,0,0,0,0,0,0,0,0,0,0,0,0,0,0,0,0,0,0],"id":17,"left_children":[1,3,5,7,9,11,13,15,17,19,21,23,25,27,29,-1,-1,-1,-1,-1,-1,-1,-1,-1,-1,-1,-1,-1,-1,-1,-1],"loss_changes":[2.1647063E3,1.6098718E2,1.20972534E2,1.4004445E2,6.145984E1,8.360225E1,4.5682983E1,1.3145155E2,4.001999E-1,4.343515E1,1.1472772E2,4.8931442E1,6.546866E1,1.4097534E1,6.1469837E1,0E0,0E0,0E0,0E0,0E0,0E0,0E0,0E0,0E0,0E0,0E0,0E0,0E0,0E0,0E0,0E0],"parents":[2147483647,0,0,1,1,2,2,3,3,4,4,5,5,6,6,7,7,8,8,9,9,10,10,11,11,12,12,13,13,14,14],"right_children":[2,4,6,8,10,12,14,16,18,20,22,24,26,28,30,-1,-1,-1,-1,-1,-1,-1,-1,-1,-1,-1,-1,-1,-1,-1,-1],"split_conditions":[9.9865454E-1,8.214417E-1,9.992601E-1,2.1593916E3,8.397927E-1,3.2620096E0,3.1249228E2,1.925593E3,3.654606E-1,7.258915E0,7.694614E1,8.137129E0,2.7649084E1,3.15961E0,9.72755E1,2.0939043E-2,1.2990166E-1,-5.1198334E-2,-1.2798076E-2,1.2631327E-2,1.0738581E-1,4.7825273E-2,-3.0357867E-2,-1.3851357E-2,-4.65705E-2,6.794328E-2,-7.512872E-3,-4.9202025E-2,-3.426181E-2,1.0021182E-1,-4.9514364E-2],"split_indices":[8,7,8,2,8,1,0,2,7,1,1,3,0,1,2,0,0,0,0,0,0,0,0,0,0,0,0,0,0,0,0],"split_type":[0,0,0,0,0,0,0,0,0,0,0,0,0,0,0,0,0,0,0,0,0,0,0,0,0,0,0,0,0,0,0],"sum_hessian":[4.030663E3,2.0463123E3,1.9843508E3,8.668256E2,1.1794867E3,5.9381305E2,1.3905378E3,8.010714E2,6.575418E1,8.00309E1,1.0994558E3,4.61562E2,1.3225105E2,1.3648433E3,2.5694513E1,7.733103E2,2.7761103E1,6.4278496E1,1.4756873E0,1.5168473E1,6.486243E1,1.0509901E3,4.8465626E1,2.5057701E2,2.10985E2,4.081699E1,9.143407E1,1.1699384E3,1.94905E2,1.1644875E1,1.404964E1],"tree_param":{"num_deleted":"0","num_feature":"9","num_nodes":"31","size_leaf_vector":"1"}},{"base_weights":[-3.332593E-2,-7.423062E-1,6.347812E-1,-3.709022E-1,-9.09515E-1,3.8655496E-1,9.105561E-1,8.2388985E-1,-4.6800107E-1,-9.423206E-1,6.442184E-1,4.984377E-1,-6.345341E-1,-3.109939E-1,9.491991E-1,2.9789966E-1,2.7902601E-2,-3.5818875E-2,-3.4080779E-3,-4.9803995E-2,-3.910773E-2,1.0713329E-1,-4.8314843E-2,3.0338958E-2,-3.145465E-2,1.2816507E-1,-4.1876722E-2,-3.1540312E-2,2.3392474E-2,6.432115E-2,3.9766733E-2],"categories":[],"categories_nodes":[],"categories_segments":[],"categories_sizes":[],"default_left":[0,0,0,0,0,0,0,0,0,0,0,0,0,0,0,0,0,0,0,0,0,0,0,0,0,0,0,0,0,0,0],"id":18,"left_children":[1,3,5,7,9,11,13,15,17,19,21,23,25,27,29,-1,-1,-1,-1,-1,-1,-1,-1,-1,-1,-1,-1,-1,-1,-1,-1],"loss_changes":[1.8936359E3,1.20111206E2,1.4054333E2,7.043449E1,6.874133E1,1.2426436E2,4.6285156E1,5.9108597E1,5.547162E1,1.0496216E1,7.020671E1,1.19898605E2,7.198447E1,7.924226E0,4.7991455E1,0E0,0E0,0E0,0E0,0E0,0E0,0E0,0E0,0E0,0E0,0E0,0E0,0E0,0E0,0E0,0E0],"parents":[2147483647,0,0,1,1,2,2,3,3,4,4,5,5,6,6,7,7,8,8,9,9,10,10,11,11,12,12,13,13,14,14],"right_children":[2,4,6,8,10,12,14,16,18,20,22,24,26,28,30,-1,-1,-1,-1,-1,-1,-1,-1,-1,-1,-1,-1,-1,-1,-1,-1],"split_conditions":[1.7867075E-1,9.992601E-1,1.2266917E0,9.999988E-1,3.1249228E2,8.9892296E1,-3.6098515E1,6.49354E-1,2.7179462E2,2.7419693E2,9.388369E-3,1.0000023E0,2.3380658E2,8.11964E0,-2.8982577E-3,2.9789966E-1,2.7902601E-2,-3.5818875E-2,-3.4080779E-3,-4.9803995E-2,-3.910773E-2,1.0713329E-1,-4.8314843E-2,3.0338958E-2,-3.145465E-2,1.2816507E-1,-4.1876722E-2,-3.1540312E-2,2.3392474E-2,6.432115E-2,3.9766733E-2],"split_indices":[7,8,7,6,0,3,4,0,0,0,5,6,0,7,5,0,0,0,0,0,0,0,0,0,0,0,0,0,0,0,0],"split_type":[0,0,0,0,0,0,0,0,0,0,0,0,0,0,0,0,0,0,0,0,0,0,0,0,0,0,0,0,0,0,0],"sum_hessian":[3.9957603E3,1.9385276E3,2.0572327E3,6.028024E2,1.3357251E3,1.0839585E3,9.732743E2,4.4744205E1,5.580582E2,1.3084911E3,2.7233969E1,9.773772E2,1.06581276E2,2.9628681E1,9.436456E2,1.1486324E0,4.3595573E1,3.4373917E2,2.1431906E2,9.757606E2,3.3273053E2,1.3936665E1,1.3297303E1,8.921178E2,8.52594E1,5.6679387E0,1.0091334E2,2.1138687E1,8.489993E0,2.9335034E2,6.502953E2],"tree_param":{"num_deleted":"0","num_feature":"9","num_nodes":"31","size_leaf_vector":"1"}},{"base_weights":[-1.7089881E-2,6.189225E-1,-7.3491305E-1,6.654192E-1,-7.143254E-1,-3.442234E-1,-9.0993094E-1,1.0504414E-1,7.849117E-1,8.7564796E-2,-1.0087476E0,-5.38738E-1,3.0814964E-1,-9.5493805E-1,-5.3996843E-1,1.5289168E-1,-9.909509E-4,4.7416717E-2,1.7776681E-2,-1.8276012E-2,-5.109636E-2,-1.0843589E-2,-4.5957413E-2,4.297715E-2,-2.6956856E-2,-5.0835352E-2,-4.4823423E-2,8.0249906E-2,-4.6101224E-2],"categories":[],"categories_nodes":[],"categories_segments":[],"categories_sizes":[],"default_left":[0,0,0,0,0,0,0,0,0,0,0,0,0,0,0,0,0,0,0,0,0,0,0,0,0,0,0,0,0],"id":19,"left_children":[1,3,5,7,9,11,13,15,17,-1,19,21,23,25,27,-1,-1,-1,-1,-1,-1,-1,-1,-1,-1,-1,-1,-1,-1],"loss_changes":[1.7958016E3,1.2976483E2,1.2604016E2,1.3489856E2,5.313786E1,7.291572E1,2.0723755E1,1.311144E2,1.1624158E2,0E0,1.6776276E-1,5.391826E1,6.2278507E1,3.191162E0,1.1674074E2,0E0,0E0,0E0,0E0,0E0,0E0,0E0,0E0,0E0,0E0,0E0,0E0,0E0,0E0],"parents":[2147483647,0,0,1,1,2,2,3,3,4,4,5,5,6,6,7,7,8,8,10,10,11,11,12,12,13,13,14,14],"right_children":[2,4,6,8,10,12,14,16,18,-1,20,22,24,26,28,-1,-1,-1,-1,-1,-1,-1,-1,-1,-1,-1,-1,-1,-1],"split_conditions":[9.9865454E-1,2.22538E3,9.992601E-1,7.615301E-2,9.947941E-1,3.2620096E0,4.810417E0,2.663837E-2,1.0906378E-1,8.7564796E-2,9.9719673E-1,7.948494E0,9.014365E-2,6.4055263E-3,-4.2261687E-1,1.5289168E-1,-9.909509E-4,4.7416717E-2,1.7776681E-2,-1.8276012E-2,-5.109636E-2,-1.0843589E-2,-4.5957413E-2,4.297715E-2,-2.6956856E-2,-5.0835352E-2,-4.4823423E-2,8.0249906E-2,-4.6101224E-2],"split_indices":[8,2,8,2,8,1,1,1,5,0,8,3,5,3,5,0,0,0,0,0,0,0,0,0,0,0,0,0,0],"split_type":[0,0,0,0,0,0,0,0,0,0,0,0,0,0,0,0,0,0,0,0,0,0,0,0,0,0,0,0,0],"sum_hessian":[3.931469E3,2.0845947E3,1.8468741E3,2.0148289E3,6.976578E1,5.723015E2,1.2745726E3,3.5445352E2,1.6603754E3,6.91428E0,6.2851498E1,4.4098853E2,1.3131302E2,1.1349244E3,1.3964824E2,1.3427512E1,3.41026E2,1.2017695E3,4.586059E2,1.8388952E0,6.1012604E1,2.3972585E2,2.0126268E2,7.95375E1,5.1775517E1,5.4392096E2,5.910035E2,2.0629223E1,1.1901901E2],"tree_param":{"num_deleted":"0","num_feature":"9","num_nodes":"29","size_leaf_vector":"1"}},{"base_weights":[-1.6560782E-2,5.767263E-1,-7.290699E-1,7.3988837E-1,1.7292504E-1,-3.286761E-1,-9.0816754E-1,3.10718E-1,8.6741334E-1,1.9962176E0,1.1314843E-1,-5.3717923E-1,3.608255E-1,-9.380527E-1,4.556909E-1,1.8267532E-1,1.3180516E-2,6.6291206E-2,3.1227304E-2,1.3228779E-2,3.052785E-1,-4.0778447E-2,1.19976215E-2,-3.7383787E-2,3.8002138E-3,4.81642E-2,-2.9547576E-2,-4.8909795E-2,-3.4914568E-2,8.1852145E-2,-4.773275E-2],"categories":[],"categories_nodes":[],"categories_segments":[],"categories_sizes":[],"default_left":[0,0,0,0,0,0,0,0,0,0,0,0,0,0,0,0,0,0,0,0,0,0,0,0,0,0,0,0,0,0,0],"id":20,"left_children":[1,3,5,7,9,11,13,15,17,19,21,23,25,27,29,-1,-1,-1,-1,-1,-1,-1,-1,-1,-1,-1,-1,-1,-1,-1,-1],"loss_changes":[1.6480817E3,1.4003345E2,1.26726074E2,8.263751E1,6.66421E1,7.9123886E1,5.0289917E1,5.3926605E1,1.2912769E2,1.3654547E2,7.027848E1,5.451966E1,7.400779E1,1.0842041E1,4.638879E1,0E0,0E0,0E0,0E0,0E0,0E0,0E0,0E0,0E0,0E0,0E0,0E0,0E0,0E0,0E0,0E0],"parents":[2147483647,0,0,1,1,2,2,3,3,4,4,5,5,6,6,7,7,8,8,9,9,10,10,11,11,12,12,13,13,14,14],"right_children":[2,4,6,8,10,12,14,16,18,20,22,24,26,28,30,-1,-1,-1,-1,-1,-1,-1,-1,-1,-1,-1,-1,-1,-1,-1,-1],"split_conditions":[9.9868214E-1,9.9636424E-1,9.992601E-1,1.29905E0,2.0120088E-3,3.2620096E0,3.1249228E2,3.0222038E-2,6.3851307E1,8.1147E-1,4.4609136E-3,2.769174E2,9.014365E-2,3.15961E0,9.388369E-3,1.8267532E-1,1.3180516E-2,6.6291206E-2,3.1227304E-2,1.3228779E-2,3.052785E-1,-4.0778447E-2,1.19976215E-2,-3.7383787E-2,3.8002138E-3,4.81642E-2,-2.9547576E-2,-4.8909795E-2,-3.4914568E-2,8.1852145E-2,-4.773275E-2],"split_indices":[8,8,8,0,3,1,0,1,0,0,3,0,5,1,5,0,0,0,0,0,0,0,0,0,0,0,0,0,0,0,0],"split_type":[0,0,0,0,0,0,0,0,0,0,0,0,0,0,0,0,0,0,0,0,0,0,0,0,0,0,0,0,0,0,0],"sum_hessian":[3.896737E3,2.1263628E3,1.7703743E3,1.5138403E3,6.125224E2,5.480281E2,1.2223462E3,3.475701E2,1.1662703E3,1.8415716E1,5.941067E2,4.2095386E2,1.2707423E2,1.1964418E3,2.5904491E1,3.766142E0,3.43804E2,4.0235956E2,7.639107E2,1.3704961E1,4.710756E0,7.071988E1,5.233868E2,3.1321323E2,1.0774063E2,7.7809845E1,4.926438E1,1.0222128E3,1.742289E2,1.4009193E1,1.1895299E1],"tree_param":{"num_deleted":"0","num_feature":"9","num_nodes":"31","size_leaf_vector":"1"}},{"base_weights":[-1.5687965E-2,-7.123619E-1,5.354932E-1,-8.8350224E-1,-2.996433E-1,5.79569E-1,-7.592788E-1,-9.213578E-1,2.2219008E-1,-5.7063365E-1,2.8943184E-1,5.29662E-1,1.8210517E0,-1.0077189E0,8.153662E-2,-4.8843842E-2,-3.7806798E-2,7.312759E-2,-4.9210604E-2,-3.5425734E-2,3.361117E-2,8.886277E-2,7.5093465E-4,7.171847E-3,3.268664E-2,-2.2128044E-2,1.12470485E-1,-5.1033575E-2,-1.6896747E-2],"categories":[],"categories_nodes":[],"categories_segments":[],"categories_sizes":[],"default_left":[0,0,0,0,0,0,0,0,0,0,0,0,0,0,0,0,0,0,0,0,0,0,0,0,0,0,0,0,0],"id":21,"left_children":[1,3,5,7,9,11,13,15,17,19,21,23,25,27,-1,-1,-1,-1,-1,-1,-1,-1,-1,-1,-1,-1,-1,-1,-1],"loss_changes":[1.4893804E3,1.207439E2,1.2401874E2,5.0872925E1,8.057058E1,1.2882263E2,4.4229618E1,9.999512E0,6.2608673E1,5.9652718E1,6.503888E1,9.64729E1,7.909299E1,2.2406006E-1,0E0,0E0,0E0,0E0,0E0,0E0,0E0,0E0,0E0,0E0,0E0,0E0,0E0,0E0,0E0],"parents":[2147483647,0,0,1,1,2,2,3,3,4,4,5,5,6,6,7,7,8,8,9,9,10,10,11,11,12,12,13,13],"right_children":[2,4,6,8,10,12,14,16,18,20,22,24,26,28,-1,-1,-1,-1,-1,-1,-1,-1,-1,-1,-1,-1,-1,-1,-1],"split_conditions":[1.7141569E-1,1.0112499E-1,2.22538E3,3.0920844E2,2.6034164E0,1.908038E3,4.3513694E-1,2.7400665E2,5.215851E-3,2.8757703E2,9.999992E-1,1.219308E0,2.6207434E2,3.654606E-1,8.153662E-2,-4.8843842E-2,-3.7806798E-2,7.312759E-2,-4.9210604E-2,-3.5425734E-2,3.361117E-2,8.886277E-2,7.5093465E-4,7.171847E-3,3.268664E-2,-2.2128044E-2,1.12470485E-1,-5.1033575E-2,-1.6896747E-2],"split_indices":[7,7,2,0,1,2,7,0,5,0,6,0,0,7,0,0,0,0,0,0,0,0,0,0,0,0,0,0,0],"split_type":[0,0,0,0,0,0,0,0,0,0,0,0,0,0,0,0,0,0,0,0,0,0,0,0,0,0,0,0,0],"sum_hessian":[3.876667E3,1.7122058E3,2.1644612E3,1.2095187E3,5.0268704E2,2.0937397E3,7.07213E1,1.1696405E3,3.9878265E1,3.4432132E2,1.5836572E2,2.0141968E3,7.954305E1,6.458598E1,6.1353106E0,8.7178485E2,2.978556E2,1.9557703E1,2.0320562E1,3.1032425E2,3.3997047E1,2.3807695E1,1.3455803E2,4.90246E2,1.5239508E3,1.2651958E1,6.689109E1,6.2846745E1,1.7392404E0],"tree_param":{"num_deleted":"0","num_feature":"9","num_nodes":"29","size_leaf_vector":"1"}},{"base_weights":[-1.8067572E-2,-7.029649E-1,5.0642276E-1,-8.262013E-1,-1.5884371E-1,1.988355E-1,7.171151E-1,-9.61346E-1,-5.677069E-1,1.1087978E0,-4.029341E-1,2.8965968E-1,-9.904016E-1,6.688472E-1,1.698501E0,-4.904772E-2,4.1921448E-2,-3.7424814E-2,-6.660173E-4,2.565635E-1,-2.182102E-2,5.31599E-2,-3.624839E-2,1.9879192E-2,-4.0019732E-2,-5.0910175E-2,-2.7377778E-3,3.0539235E-2,7.6121464E-2,8.714794E-2,-1.0500996E-2],"categories":[],"categories_nodes":[],"categories_segments":[],"categories_sizes":[],"default_left":[0,0,0,0,0,0,0,0,0,0,0,0,0,0,0,0,0,0,0,0,0,0,0,0,0,0,0,0,0,0,0],"id":22,"left_children":[1,3,5,7,9,11,13,15,17,19,21,23,25,27,29,-1,-1,-1,-1,-1,-1,-1,-1,-1,-1,-1,-1,-1,-1,-1,-1],"loss_changes":[1.3695302E3,1.1073834E2,1.3978064E2,4.6539856E1,9.53023E1,9.524043E1,5.9543823E1,3.2007202E1,4.6614136E1,3.115584E2,1.2248714E2,9.649209E1,1.5726814E0,5.9663208E1,5.406128E0,0E0,0E0,0E0,0E0,0E0,0E0,0E0,0E0,0E0,0E0,0E0,0E0,0E0,0E0,0E0,0E0],"parents":[2147483647,0,0,1,1,2,2,3,3,4,4,5,5,6,6,7,7,8,8,9,9,10,10,11,11,12,12,13,13,14,14],"right_children":[2,4,6,8,10,12,14,16,18,20,22,24,26,28,30,-1,-1,-1,-1,-1,-1,-1,-1,-1,-1,-1,-1,-1,-1,-1,-1],"split_conditions":[1.7141569E-1,3.2620096E0,7.4427676E-1,8.599994E-2,-4.2261687E-1,2.1593916E3,1.8124945E3,3.1249228E2,2.7748917E2,1.13248146E2,2.7649084E1,1.59779625E1,3.654606E-1,1.7274632E1,1.5405441E1,-4.904772E-2,4.1921448E-2,-3.7424814E-2,-6.660173E-4,2.565635E-1,-2.182102E-2,5.31599E-2,-3.624839E-2,1.9879192E-2,-4.0019732E-2,-5.0910175E-2,-2.7377778E-3,3.0539235E-2,7.6121464E-2,8.714794E-2,-1.0500996E-2],"split_indices":[7,1,7,7,5,2,2,0,0,2,0,1,7,5,4,0,0,0,0,0,0,0,0,0,0,0,0,0,0,0,0],"split_type":[0,0,0,0,0,0,0,0,0,0,0,0,0,0,0,0,0,0,0,0,0,0,0,0,0,0,0,0,0,0,0],"sum_hessian":[3.8104983E3,1.652399E3,2.1580994E3,1.3468391E3,3.0556003E2,8.781061E2,1.2799932E3,8.82655E2,4.6418402E2,4.8764973E1,2.5679504E2,8.165046E2,6.160149E1,1.2215927E3,5.8400494E1,8.735923E2,9.062762E0,3.4977103E2,1.14413E2,1.2889809E1,3.5875164E1,4.583215E1,2.109629E2,7.435249E2,7.29797E1,5.973819E1,1.8633015E0,1.1453959E3,7.619681E1,5.7155827E1,1.2446643E0],"tree_param":{"num_deleted":"0","num_feature":"9","num_nodes":"31","size_leaf_vector":"1"}},{"base_weights":[-2.0153819E-2,4.6771702E-1,-7.0409435E-1,7.913312E-1,2.6991472E-1,-3.6322734E-1,-9.0948623E-1,1.5114592E0,7.1169657E-1,4.3817866E-1,-4.288493E-1,-5.4094344E-1,2.4717252E-1,-9.556816E-1,1.5487106E-1,4.368995E-3,9.166343E-2,4.0063668E-2,-2.9292976E-2,6.3815746E-3,4.321631E-2,-7.902462E-3,-6.1382193E-2,-3.777441E-2,-5.3288094E-3,3.718714E-2,-2.9828433E-2,-4.8675254E-2,-2.85196E-2,6.721528E-2,-4.2095717E-2],"categories":[],"categories_nodes":[],"categories_segments":[],"categories_sizes":[],"default_left":[0,0,0,0,0,0,0,0,0,0,0,0,0,0,0,0,0,0,0,0,0,0,0,0,0,0,0,0,0,0,0],"id":23,"left_children":[1,3,5,7,9,11,13,15,17,19,21,23,25,27,29,-1,-1,-1,-1,-1,-1,-1,-1,-1,-1,-1,-1,-1,-1,-1,-1],"loss_changes":[1.2601E3,1.4087967E2,1.0974597E2,4.6846497E1,1.6121286E2,6.44429E1,4.835431E1,3.7564774E1,8.814615E1,1.4602368E2,5.7408085E1,4.2737625E1,5.6740356E1,5.8984375E0,5.0504593E1,0E0,0E0,0E0,0E0,0E0,0E0,0E0,0E0,0E0,0E0,0E0,0E0,0E0,0E0,0E0,0E0],"parents":[2147483647,0,0,1,1,2,2,3,3,4,4,5,5,6,6,7,7,8,8,9,9,10,10,11,11,12,12,13,13,14,14],"right_children":[2,4,6,8,10,12,14,16,18,20,22,24,26,28,30,-1,-1,-1,-1,-1,-1,-1,-1,-1,-1,-1,-1,-1,-1,-1,-1],"split_conditions":[9.987218E-1,9.879938E-1,9.99368E-1,8.397927E-1,6.013791E2,3.2620096E0,3.0544662E2,7.258915E0,7.694614E1,2.1974373E0,8.9892296E1,2.7419693E2,1.689405E2,9.195636E0,9.72755E1,4.368995E-3,9.166343E-2,4.0063668E-2,-2.9292976E-2,6.3815746E-3,4.321631E-2,-7.902462E-3,-6.1382193E-2,-3.777441E-2,-5.3288094E-3,3.718714E-2,-2.9828433E-2,-4.8675254E-2,-2.85196E-2,6.721528E-2,-4.2095717E-2],"split_indices":[8,8,8,8,2,1,0,1,1,1,3,0,2,1,2,0,0,0,0,0,0,0,0,0,0,0,0,0,0,0,0],"split_type":[0,0,0,0,0,0,0,0,0,0,0,0,0,0,0,0,0,0,0,0,0,0,0,0,0,0,0,0,0,0,0],"sum_hessian":[3.7744463E3,2.2031814E3,1.5712649E3,8.346511E2,1.3685302E3,5.918324E2,9.794325E2,8.1318214E1,7.533329E2,1.1032404E3,2.6528983E2,4.584654E2,1.3336702E2,9.387891E2,4.064334E1,1.5223276E1,6.609494E1,7.050428E2,4.829014E1,6.3893085E2,4.6430954E2,1.9901831E2,6.6271515E1,3.0639163E2,1.5207375E2,8.403065E1,4.933637E1,8.958218E2,4.296737E1,1.8371971E1,2.227137E1],"tree_param":{"num_deleted":"0","num_feature":"9","num_nodes":"31","size_leaf_vector":"1"}},{"base_weights":[-2.2104146E-2,4.4674852E-1,-6.758352E-1,7.102219E-1,2.5553918E-1,-3.2177082E-1,-8.9193094E-1,6.531887E-1,1.5710787E0,3.79971E-1,-6.776347E-1,-5.160174E-1,2.9138196E-1,-9.237002E-1,3.3863625E-1,3.503298E-2,-3.9186694E-2,2.5001585E-2,8.298191E-2,5.4944456E-3,4.092143E-2,3.7017595E-2,-4.639406E-2,-9.978974E-3,-4.381022E-2,5.289364E-2,-1.2618968E-2,-4.766687E-2,-1.3989172E-2,7.686981E-2,-4.914276E-2],"categories":[],"categories_nodes":[],"categories_segments":[],"categories_sizes":[],"default_left":[0,0,0,0,0,0,0,0,0,0,0,0,0,0,0,0,0,0,0,0,0,0,0,0,0,0,0,0,0,0,0],"id":24,"left_children":[1,3,5,7,9,11,13,15,17,19,21,23,25,27,29,-1,-1,-1,-1,-1,-1,-1,-1,-1,-1,-1,-1,-1,-1,-1,-1],"loss_changes":[1.1432822E3,1.0925192E2,1.1890863E2,4.3796295E1,1.4659814E2,7.0660645E1,3.811151E1,5.9069336E1,4.483078E0,1.3166995E2,5.3430542E1,5.110839E1,5.9895657E1,1.7725403E1,4.1217422E1,0E0,0E0,0E0,0E0,0E0,0E0,0E0,0E0,0E0,0E0,0E0,0E0,0E0,0E0,0E0,0E0],"parents":[2147483647,0,0,1,1,2,2,3,3,4,4,5,5,6,6,7,7,8,8,9,9,10,10,11,11,12,12,13,13,14,14],"right_children":[2,4,6,8,10,12,14,16,18,20,22,24,26,28,30,-1,-1,-1,-1,-1,-1,-1,-1,-1,-1,-1,-1,-1,-1,-1,-1],"split_conditions":[9.9865454E-1,9.895328E-1,9.9933916E-1,1.8124945E3,1.59779625E1,3.2620096E0,3.1249228E2,1.692798E3,-1.1556821E0,2.3853555E0,-1.846682E0,7.948494E0,-1.589535E-2,9.625671E0,9.72755E1,3.503298E-2,-3.9186694E-2,2.5001585E-2,8.298191E-2,5.4944456E-3,4.092143E-2,3.7017595E-2,-4.639406E-2,-9.978974E-3,-4.381022E-2,5.289364E-2,-1.2618968E-2,-4.766687E-2,-1.3989172E-2,7.686981E-2,-4.914276E-2],"split_indices":[8,8,8,2,1,1,0,2,5,1,5,3,5,1,2,0,0,0,0,0,0,0,0,0,0,0,0,0,0,0,0],"split_type":[0,0,0,0,0,0,0,0,0,0,0,0,0,0,0,0,0,0,0,0,0,0,0,0,0,0,0,0,0,0,0],"sum_hessian":[3.7280938E3,2.1712212E3,1.5568726E3,9.119299E2,1.2592914E3,5.9101184E2,9.6586066E2,8.569165E2,5.501338E1,1.1116534E3,1.4763791E2,4.4894473E2,1.4206712E2,9.417959E2,2.406477E1,8.300083E2,2.6908175E1,4.708963E0,5.0304417E1,6.8868585E2,4.2296756E2,2.1852917E1,1.2578499E2,2.3981354E2,2.0913121E2,5.8566204E1,8.3500916E1,8.9989636E2,4.1899532E1,1.2532671E1,1.1532098E1],"tree_param":{"num_deleted":"0","num_feature":"9","num_nodes":"31","size_leaf_vector":"1"}},{"base_weights":[-7.278596E-3,-6.7757654E-1,4.455234E-1,-9.0097886E-1,-3.2597125E-1,2.743109E-1,7.235057E-1,-9.655212E-1,-5.8096695E-1,-7.371386E-2,-7.416107E-1,3.791962E-1,-6.032333E-1,-5.8967704E-1,7.713484E-1,-4.922266E-2,-4.1771602E-2,3.93284E-2,-4.3256897E-2,-4.8804186E-2,1.2228467E-2,-4.2379055E-2,1.9649819E-2,2.3902183E-2,-4.5080766E-2,-3.3591546E-2,8.436834E-2,-1.190935E-2,-7.597944E-2,5.685219E-2,3.099379E-2],"categories":[],"categories_nodes":[],"categories_segments":[],"categories_sizes":[],"default_left":[0,0,0,0,0,0,0,0,0,0,0,0,0,0,0,0,0,0,0,0,0,0,0,0,0,0,0,0,0,0,0],"id":25,"left_children":[1,3,5,7,9,11,13,15,17,19,21,23,25,27,29,-1,-1,-1,-1,-1,-1,-1,-1,-1,-1,-1,-1,-1,-1,-1,-1],"loss_changes":[1.1230282E3,1.1688434E2,1.04905334E2,1.8268005E1,6.087803E1,1.2616283E2,5.3298462E1,1.0422363E0,6.1115543E1,1.0442889E2,2.6710724E1,1.5524004E2,2.4146843E1,9.487276E0,4.4272705E1,0E0,0E0,0E0,0E0,0E0,0E0,0E0,0E0,0E0,0E0,0E0,0E0,0E0,0E0,0E0,0E0],"parents":[2147483647,0,0,1,1,2,2,3,3,4,4,5,5,6,6,7,7,8,8,9,9,10,10,11,11,12,12,13,13,14,14],"right_children":[2,4,6,8,10,12,14,16,18,20,22,24,26,28,30,-1,-1,-1,-1,-1,-1,-1,-1,-1,-1,-1,-1,-1,-1,-1,-1],"split_conditions":[1.7141569E-1,8.398844E-2,1.5572358E0,3.15961E0,9.773246E0,8.9892296E1,-3.6098515E1,2.2547886E0,-4.54102E-1,5.0522834E-3,7.258915E0,2.2687897E1,3.4402027E1,3.4402027E1,-2.8982577E-3,-4.922266E-2,-4.1771602E-2,3.93284E-2,-4.3256897E-2,-4.8804186E-2,1.2228467E-2,-4.2379055E-2,1.9649819E-2,2.3902183E-2,-4.5080766E-2,-3.3591546E-2,8.436834E-2,-1.190935E-2,-7.597944E-2,5.685219E-2,3.099379E-2],"split_indices":[7,7,7,1,3,3,4,1,5,3,1,1,1,1,5,0,0,0,0,0,0,0,0,0,0,0,0,0,0,0,0],"split_type":[0,0,0,0,0,0,0,0,0,0,0,0,0,0,0,0,0,0,0,0,0,0,0,0,0,0,0,0,0,0,0],"sum_hessian":[3.6981133E3,1.4907742E3,2.207339E3,9.106222E2,5.80152E2,1.3672319E3,8.4010724E2,7.561077E2,1.5451443E2,3.6176755E2,2.1838443E2,1.221772E3,1.4545999E2,2.9133331E1,8.1097394E2,6.543168E2,1.0179095E2,2.6279572E1,1.2823486E2,9.3791374E1,2.6797617E2,1.9996135E2,1.8423069E1,1.1348184E3,8.695359E1,1.4191666E2,3.5433407E0,2.2053602E1,7.079728E0,2.3561937E2,5.7535455E2],"tree_param":{"num_deleted":"0","num_feature":"9","num_nodes":"31","size_leaf_vector":"1"}},{"base_weights":[-2.0329567E-2,-6.617476E-1,3.9842284E-1,-8.9420784E-1,-3.1052244E-1,2.0964433E-2,5.135872E-1,-9.4291484E-1,-1.7108433E-1,-5.711192E-1,2.2098675E-1,1.5895522E-1,-5.0870765E-2,1.8839374E-1,6.2611586E-1,-4.9378604E-2,-3.6860608E-2,4.6413187E-2,-4.462178E-2,-1.7224936E-2,-4.195315E-2,3.394946E-2,-2.4364486E-2,2.030724E-3,8.979937E-2,1.541738E-1,7.5283027E-3,5.3636264E-2,2.0345902E-2],"categories":[],"categories_nodes":[],"categories_segments":[],"categories_sizes":[],"default_left":[0,0,0,0,0,0,0,0,0,0,0,0,0,0,0,0,0,0,0,0,0,0,0,0,0,0,0,0,0],"id":26,"left_children":[1,3,5,7,9,11,13,15,17,19,21,23,-1,25,27,-1,-1,-1,-1,-1,-1,-1,-1,-1,-1,-1,-1,-1,-1],"loss_changes":[9.8149884E2,1.1756525E2,9.609509E1,3.0410034E1,7.995784E1,7.436923E1,6.1870667E1,6.7401123E0,4.5234417E1,2.321154E1,6.207559E1,8.865613E1,0E0,4.7384007E1,1.2272223E2,0E0,0E0,0E0,0E0,0E0,0E0,0E0,0E0,0E0,0E0,0E0,0E0,0E0,0E0],"parents":[2147483647,0,0,1,1,2,2,3,3,4,4,5,5,6,6,7,7,8,8,9,9,10,10,11,11,13,13,14,14],"right_children":[2,4,6,8,10,12,14,16,18,20,22,24,-1,26,28,-1,-1,-1,-1,-1,-1,-1,-1,-1,-1,-1,-1,-1,-1],"split_conditions":[1.7141569E-1,8.398844E-2,3.654606E-1,3.00059E2,2.5511463E0,2.1593916E3,1.388326E0,2.766025E2,9.72755E1,7.3559957E0,1.1926306E1,1.925593E3,-5.0870765E-2,2.7772557E-2,6.3851307E1,-4.9378604E-2,-3.6860608E-2,4.6413187E-2,-4.462178E-2,-1.7224936E-2,-4.195315E-2,3.394946E-2,-2.4364486E-2,2.030724E-3,8.979937E-2,1.541738E-1,7.5283027E-3,5.3636264E-2,2.0345902E-2],"split_indices":[7,7,7,0,1,2,0,0,2,3,3,2,0,1,0,0,0,0,0,0,0,0,0,0,0,0,0,0,0],"split_type":[0,0,0,0,0,0,0,0,0,0,0,0,0,0,0,0,0,0,0,0,0,0,0,0,0,0,0,0,0],"sum_hessian":[3.6522102E3,1.4423425E3,2.2098677E3,8.6698065E2,5.753619E2,5.168948E2,1.692973E3,8.119843E2,5.4996334E1,3.8602225E2,1.8933961E2,4.570095E2,5.988529E1,4.3591348E2,1.2570594E3,6.640261E2,1.4795816E2,2.1675608E1,3.3320724E1,2.1037653E2,1.756457E2,1.15010284E2,7.432932E1,4.2715533E2,2.9854164E1,4.583828E0,4.3132968E2,4.1256866E2,8.444908E2],"tree_param":{"num_deleted":"0","num_feature":"9","num_nodes":"29","size_leaf_vector":"1"}},{"base_weights":[-2.0538017E-2,-6.5978134E-1,3.729373E-1,-8.77777E-1,-3.228818E-1,4.1249058E-1,-7.8136474E-1,-9.292347E-1,1.4294913E-1,-5.1647496E-1,1.2584057E-1,3.6492622E-1,1.6137228E0,-1.0037059E0,7.0071734E-2,-4.7738086E-2,-2.1249328E-2,5.392262E-2,-4.052363E-2,-3.988049E-2,-3.925796E-3,4.1031983E-2,-2.0317106E-2,2.3548193E-2,-3.884387E-4,-2.6641993E-2,1.0074776E-1,-5.0807398E-2,-1.4258298E-2],"categories":[],"categories_nodes":[],"categories_segments":[],"categories_sizes":[],"default_left":[0,0,0,0,0,0,0,0,0,0,0,0,0,0,0,0,0,0,0,0,0,0,0,0,0,0,0,0,0],"id":27,"left_children":[1,3,5,7,9,11,13,15,17,19,21,23,25,27,-1,-1,-1,-1,-1,-1,-1,-1,-1,-1,-1,-1,-1,-1,-1],"loss_changes":[9.0959674E2,1.0090839E2,1.0252399E2,4.4040894E1,4.7224476E1,1.23109314E2,3.756749E1,9.839905E0,3.743165E1,4.6657402E1,6.113182E1,8.235553E1,7.1842575E1,3.1999207E-1,0E0,0E0,0E0,0E0,0E0,0E0,0E0,0E0,0E0,0E0,0E0,0E0,0E0,0E0,0E0],"parents":[2147483647,0,0,1,1,2,2,3,3,4,4,5,5,6,6,7,7,8,8,9,9,10,10,11,11,12,12,13,13],"right_children":[2,4,6,8,10,12,14,16,18,20,22,24,26,28,-1,-1,-1,-1,-1,-1,-1,-1,-1,-1,-1,-1,-1,-1,-1],"split_conditions":[1.6633132E-1,8.398844E-2,2.22538E3,3.0544662E2,2.6575878E0,1.908038E3,4.3513694E-1,9.195636E0,9.72755E1,2.4268446E-4,-1.589535E-2,1.0906378E-1,2.6207434E2,3.654606E-1,7.0071734E-2,-4.7738086E-2,-2.1249328E-2,5.392262E-2,-4.052363E-2,-3.988049E-2,-3.925796E-3,4.1031983E-2,-2.0317106E-2,2.3548193E-2,-3.884387E-4,-2.6641993E-2,1.0074776E-1,-5.0807398E-2,-1.4258298E-2],"split_indices":[7,7,2,0,1,2,7,1,2,5,5,5,0,7,0,0,0,0,0,0,0,0,0,0,0,0,0,0,0],"split_type":[0,0,0,0,0,0,0,0,0,0,0,0,0,0,0,0,0,0,0,0,0,0,0,0,0,0,0,0,0],"sum_hessian":[3.6143284E3,1.3768345E3,2.237494E3,8.349577E2,5.4187683E2,2.1639854E3,7.350841E1,7.949706E2,3.9987103E1,3.784503E2,1.6342653E2,2.0828174E3,8.1168076E1,6.720323E1,6.3051805E0,7.558149E2,3.915572E1,2.0117022E1,1.9870083E1,2.2999231E2,1.4845796E2,7.064841E1,9.2778114E1,1.621275E3,4.6154227E2,1.2730871E1,6.84372E1,6.5652214E1,1.5510116E0],"tree_param":{"num_deleted":"0","num_feature":"9","num_nodes":"29","size_leaf_vector":"1"}},{"base_weights":[-2.6496518E-2,2.733197E-1,-7.925039E-1,3.4020188E-1,-8.887822E-1,-9.190334E-1,-4.9769986E-1,-9.488665E-2,4.3507496E-1,-1.0140727E0,7.059119E-2,-5.89575E-1,-9.7452444E-1,6.40292E-2,-9.400837E-1,-2.6105335E-2,6.552147E-3,3.6744054E-2,1.1859897E-2,-5.1018693E-2,-1.6714046E-2,8.530584E-3,-4.0312197E-2,-4.4750042E-2,-5.032135E-2,-3.44159E-2,4.2636603E-2,-5.081091E-2,8.536514E-2],"categories":[],"categories_nodes":[],"categories_segments":[],"categories_sizes":[],"default_left":[0,0,0,0,0,0,0,0,0,0,0,0,0,0,0,0,0,0,0,0,0,0,0,0,0,0,0,0,0],"id":28,"left_children":[1,3,5,7,9,11,13,15,17,19,-1,21,23,25,27,-1,-1,-1,-1,-1,-1,-1,-1,-1,-1,-1,-1,-1,-1],"loss_changes":[8.2259357E2,2.0038559E2,3.7125366E1,1.0054993E2,4.189276E1,1.2292114E1,7.579137E1,4.222093E1,1.184274E2,2.3164368E-1,0E0,1.7264584E1,6.234741E-1,8.081288E1,3.6110916E1,0E0,0E0,0E0,0E0,0E0,0E0,0E0,0E0,0E0,0E0,0E0,0E0,0E0,0E0],"parents":[2147483647,0,0,1,1,2,2,3,3,4,4,5,5,6,6,7,7,8,8,9,9,11,11,12,12,13,13,14,14],"right_children":[2,4,6,8,10,12,14,16,18,20,-1,22,24,26,28,-1,-1,-1,-1,-1,-1,-1,-1,-1,-1,-1,-1,-1,-1],"split_conditions":[9.991413E-1,2.1705674E3,2.737352E2,7.615301E-2,4.3513694E-1,9.992927E-1,1.2144137E1,3.3907142E-1,6.3851307E1,3.654606E-1,7.059119E-2,9.9999994E-1,9.995771E-1,4.6314772E-2,1.9577612E3,-2.6105335E-2,6.552147E-3,3.6744054E-2,1.1859897E-2,-5.1018693E-2,-1.6714046E-2,8.530584E-3,-4.0312197E-2,-4.4750042E-2,-5.032135E-2,-3.44159E-2,4.2636603E-2,-5.081091E-2,8.536514E-2],"split_indices":[8,2,0,2,7,8,3,7,0,7,0,6,8,7,2,0,0,0,0,0,0,0,0,0,0,0,0,0,0],"split_type":[0,0,0,0,0,0,0,0,0,0,0,0,0,0,0,0,0,0,0,0,0,0,0,0,0,0,0,0,0],"sum_hessian":[3.579823E3,2.573281E3,1.00654205E3,2.43391E3,1.3937102E2,7.027887E2,3.037534E2,4.3571558E2,1.9981945E3,1.3270325E2,6.6677685E0,1.0298372E2,5.99805E2,1.3420198E2,1.695514E2,1.5026399E2,2.854516E2,7.9339594E2,1.2047985E3,1.3098805E2,1.7151883E0,2.288918E1,8.0094536E1,1.8004951E2,4.1975546E2,6.874914E1,6.545284E1,1.654106E2,4.140798E0],"tree_param":{"num_deleted":"0","num_feature":"9","num_nodes":"29","size_leaf_vector":"1"}},{"base_weights":[-1.8428266E-2,2.7494767E-1,-7.9823E-1,-6.7625836E-2,4.459418E-1,-9.2222166E-1,-5.0786906E-1,-2.524535E-1,3.173664E-1,1.295967E0,4.0470803E-1,-6.3670343E-1,-9.76568E-1,-7.0145696E-1,1.38413E-1,-1.8240917E-2,7.1321525E-2,7.47775E-2,-6.9756764E-3,-6.527406E-3,8.4956504E-2,2.5920143E-2,-3.2574323E-3,5.1733614E-3,-4.2633798E-2,-5.0138354E-2,-4.532838E-2,-4.9994603E-2,-2.1520248E-2,6.798955E-2,-4.0990174E-2],"categories":[],"categories_nodes":[],"categories_segments":[],"categories_sizes":[],"default_left":[0,0,0,0,0,0,0,0,0,0,0,0,0,0,0,0,0,0,0,0,0,0,0,0,0,0,0,0,0,0,0],"id":29,"left_children":[1,3,5,7,9,11,13,15,17,19,21,23,25,27,29,-1,-1,-1,-1,-1,-1,-1,-1,-1,-1,-1,-1,-1,-1,-1,-1],"loss_changes":[8.110871E2,1.5093887E2,3.4424805E1,6.1177322E1,5.971115E1,9.897766E0,3.6660927E1,1.10063324E2,1.503627E2,4.5687897E1,8.767084E1,1.787711E1,1.3195801E-1,1.7774277E1,8.092947E1,0E0,0E0,0E0,0E0,0E0,0E0,0E0,0E0,0E0,0E0,0E0,0E0,0E0,0E0,0E0,0E0],"parents":[2147483647,0,0,1,1,2,2,3,3,4,4,5,5,6,6,7,7,8,8,9,9,10,10,11,11,12,12,13,13,14,14],"right_children":[2,4,6,8,10,12,14,16,18,20,22,24,26,28,30,-1,-1,-1,-1,-1,-1,-1,-1,-1,-1,-1,-1,-1,-1,-1,-1],"split_conditions":[9.991413E-1,3.654606E-1,2.7400665E2,3.3987544E0,8.397927E-1,9.9930584E-1,4.398763E0,2.8757703E2,2.7649084E1,7.258915E0,2.5040354E1,9.9999994E-1,5.5030305E-2,-1.8766584E-1,-1.748999E-1,-1.8240917E-2,7.1321525E-2,7.47775E-2,-6.9756764E-3,-6.527406E-3,8.4956504E-2,2.5920143E-2,-3.2574323E-3,5.1733614E-3,-4.2633798E-2,-5.0138354E-2,-4.532838E-2,-4.9994603E-2,-2.1520248E-2,6.798955E-2,-4.0990174E-2],"split_indices":[8,7,0,1,8,8,1,0,0,1,1,6,7,5,5,0,0,0,0,0,0,0,0,0,0,0,0,0,0,0,0],"split_type":[0,0,0,0,0,0,0,0,0,0,0,0,0,0,0,0,0,0,0,0,0,0,0,0,0,0,0,0,0,0,0],"sum_hessian":[3.5433882E3,2.5751982E3,9.6819006E2,8.5762256E2,1.7175756E3,6.7694214E2,2.9124792E2,5.7967535E2,2.779472E2,7.8055214E1,1.6395204E3,1.1028032E2,5.666618E2,2.2405032E2,6.719761E1,5.44046E2,3.5629356E1,7.703054E1,2.0091667E2,1.7348185E1,6.070703E1,1.3200052E3,3.1951517E2,2.5027658E1,8.525266E1,4.0263995E2,1.6402187E2,1.0535876E2,1.1869157E2,2.9357885E1,3.7839725E1],"tree_param":{"num_deleted":"0","num_feature":"9","num_nodes":"31","size_leaf_vector":"1"}},{"base_weights":[-1.2866636E-2,-6.2957865E-1,3.3946326E-1,-8.5653836E-1,-3.2057536E-1,9.907466E-2,4.899685E-1,-9.1584074E-1,1.7513426E-1,-1.9563833E-1,-5.064975E-2,2.139869E0,5.9239313E-2,4.472499E-1,1.4644718E0,-4.727837E-2,-1.30114285E-2,1.0765871E-1,-8.781113E-3,-4.763998E-2,-1.4207695E-3,4.212643E-2,2.575249E-1,6.9480427E-3,-4.439554E-2,3.2329958E-2,1.2938562E-2,3.7786655E-2,7.5468175E-2],"categories":[],"categories_nodes":[],"categories_segments":[],"categories_sizes":[],"default_left":[0,0,0,0,0,0,0,0,0,0,0,0,0,0,0,0,0,0,0,0,0,0,0,0,0,0,0,0,0],"id":30,"left_children":[1,3,5,7,9,11,13,15,17,19,-1,21,23,25,27,-1,-1,-1,-1,-1,-1,-1,-1,-1,-1,-1,-1,-1,-1],"loss_changes":[7.625631E2,8.9212524E1,8.075937E1,4.5131897E1,4.668375E1,6.98867E1,5.6514435E1,1.3304077E1,2.868238E1,5.8258057E1,0E0,5.995127E1,6.3985184E1,4.9318695E1,6.8024445E-1,0E0,0E0,0E0,0E0,0E0,0E0,0E0,0E0,0E0,0E0,0E0,0E0,0E0,0E0],"parents":[2147483647,0,0,1,1,2,2,3,3,4,4,5,5,6,6,7,7,8,8,9,9,11,11,12,12,13,13,14,14],"right_children":[2,4,6,8,10,12,14,16,18,20,-1,22,24,26,28,-1,-1,-1,-1,-1,-1,-1,-1,-1,-1,-1,-1,-1,-1],"split_conditions":[1.7141569E-1,8.398844E-2,6.766921E-1,3.0544662E2,2.1593916E3,2.663837E-2,1.8124945E3,1.0065029E1,1.2757127E0,5.0522834E-3,-5.064975E-2,7.97362E-1,1.0000019E0,6.3851307E1,1.8258381E0,-4.727837E-2,-1.30114285E-2,1.0765871E-1,-8.781113E-3,-4.763998E-2,-1.4207695E-3,4.212643E-2,2.575249E-1,6.9480427E-3,-4.439554E-2,3.2329958E-2,1.2938562E-2,3.7786655E-2,7.5468175E-2],"split_indices":[7,7,7,0,2,1,2,1,3,3,0,0,6,0,1,0,0,0,0,0,0,0,0,0,0,0,0,0,0],"split_type":[0,0,0,0,0,0,0,0,0,0,0,0,0,0,0,0,0,0,0,0,0,0,0,0,0,0,0,0,0],"sum_hessian":[3.5075056E3,1.2749933E3,2.2325125E3,7.3406104E2,5.409322E2,8.6021924E2,1.3722932E3,6.942657E2,3.979535E1,4.593345E2,8.159767E1,1.5460271E1,8.44759E2,1.3160609E3,5.623227E1,6.637287E2,3.0536987E1,5.21989E0,3.457546E1,8.224468E1,3.770898E2,1.1698852E1,3.7614195E0,7.799629E2,6.479613E1,6.38405E2,6.776559E2,4.4119515E0,5.182032E1],"tree_param":{"num_deleted":"0","num_feature":"9","num_nodes":"29","size_leaf_vector":"1"}},{"base_weights":[-1.1355687E-2,-7.547227E-1,1.0360004E-1,-2.8785378E-1,-8.938744E-1,6.085991E-1,-2.2006474E-2,-7.9035944E-1,1.1442436E0,-6.847523E-1,-5.037543E-2,2.7145928E-1,1.5657771E0,-6.4517744E-2,1.1627918E0,-4.4788398E-2,5.884681E-2,1.5283707E-1,1.1475875E-2,-3.9474208E-2,6.4759985E-2,2.5086308E-2,-3.159177E-2,8.5084885E-2,3.361408E-2,7.019758E-3,-1.9430472E-2,7.261301E-2,9.530889E-3],"categories":[],"categories_nodes":[],"categories_segments":[],"categories_sizes":[],"default_left":[0,0,0,0,0,0,0,0,0,0,0,0,0,0,0,0,0,0,0,0,0,0,0,0,0,0,0,0,0],"id":31,"left_children":[1,3,5,7,9,11,13,15,17,19,-1,21,23,25,27,-1,-1,-1,-1,-1,-1,-1,-1,-1,-1,-1,-1,-1,-1],"loss_changes":[2.968889E2,2.9971558E1,1.9087914E2,7.885284E1,7.8171387E0,1.9299776E2,1.2149228E2,1.7804138E1,4.92324E1,2.7805756E1,0E0,9.276579E1,1.7791107E1,1.5466406E2,2.3235748E1,0E0,0E0,0E0,0E0,0E0,0E0,0E0,0E0,0E0,0E0,0E0,0E0,0E0,0E0],"parents":[2147483647,0,0,1,1,2,2,3,3,4,4,5,5,6,6,7,7,8,8,9,9,11,11,12,12,13,13,14,14],"right_children":[2,4,6,8,10,12,14,16,18,20,-1,22,24,26,28,-1,-1,-1,-1,-1,-1,-1,-1,-1,-1,-1,-1,-1,-1],"split_conditions":[4.324238E-3,4.6729498E-2,9.9999976E-1,8.1147E-1,5.916708E-2,2.297311E-1,1.7274632E1,6.560292E-2,2.0449979E-3,1.11489E0,-5.037543E-2,2.109654E0,5.069413E0,6.013791E2,3.0764108E2,-4.4788398E-2,5.884681E-2,1.5283707E-1,1.1475875E-2,-3.9474208E-2,6.4759985E-2,2.5086308E-2,-3.159177E-2,8.5084885E-2,3.361408E-2,7.019758E-3,-1.9430472E-2,7.261301E-2,9.530889E-3],"split_indices":[3,2,6,0,2,3,5,1,3,0,0,0,2,2,0,0,0,0,0,0,0,0,0,0,0,0,0,0,0],"split_type":[0,0,0,0,0,0,0,0,0,0,0,0,0,0,0,0,0,0,0,0,0,0,0,0,0,0,0,0,0],"sum_hessian":[3.472327E3,4.6430563E2,3.0080212E3,1.07316376E2,3.5698926E2,5.9838367E2,2.4096377E3,7.977308E1,2.75433E1,1.2816039E2,2.2882889E2,4.434678E2,1.5491583E2,2.327086E3,8.255168E1,7.623315E1,3.53993E0,8.15378E0,1.938952E1,1.2229283E2,5.86756E0,3.537379E2,8.9729904E1,1.3367615E2,2.123968E1,1.4260233E3,9.010626E2,6.3230686E1,1.9320997E1],"tree_param":{"num_deleted":"0","num_feature":"9","num_nodes":"29","size_leaf_vector":"1"}},{"base_weights":[-1.2135699E-2,-7.570763E-1,2.4437146E-1,-8.6444086E-1,-4.1109198E-1,3.0297044E-1,-8.929898E-1,-9.3943155E-1,-6.0126203E-1,5.267004E-1,-6.720677E-1,-1.1746299E-1,3.934503E-1,-1.0094631E0,6.388568E-2,-4.8130132E-2,-3.4966122E-2,-4.9926337E-2,-2.1145947E-2,1.5082134E-1,-4.0695038E-2,-4.534885E-2,-1.0265574E-2,-8.298824E-3,7.476001E-2,3.2462668E-2,1.1042303E-2,-5.0835837E-2,-1.0521087E-2],"categories":[],"categories_nodes":[],"categories_segments":[],"categories_sizes":[],"default_left":[0,0,0,0,0,0,0,0,0,0,0,0,0,0,0,0,0,0,0,0,0,0,0,0,0,0,0,0,0],"id":32,"left_children":[1,3,5,7,9,11,13,15,17,19,21,23,25,27,-1,-1,-1,-1,-1,-1,-1,-1,-1,-1,-1,-1,-1,-1,-1],"loss_changes":[6.605609E2,3.2535706E1,1.7165819E2,1.2753784E1,5.2141754E1,9.31044E1,3.320983E1,2.2388916E0,1.0377075E1,1.5808391E2,1.80122E1,3.4201897E1,8.8748505E1,4.8379517E-1,0E0,0E0,0E0,0E0,0E0,0E0,0E0,0E0,0E0,0E0,0E0,0E0,0E0,0E0,0E0],"parents":[2147483647,0,0,1,1,2,2,3,3,4,4,5,5,6,6,7,7,8,8,9,9,10,10,11,11,12,12,13,13],"right_children":[2,4,6,8,10,12,14,16,18,20,22,24,26,28,-1,-1,-1,-1,-1,-1,-1,-1,-1,-1,-1,-1,-1,-1,-1],"split_conditions":[1.1173592E-1,2.6034164E0,2.1705674E3,8.2157746E-2,-4.2261687E-1,7.615301E-2,3.96432E-1,2.2547886E0,-6.0161547E-4,1.13248146E2,8.8618515E1,6.3335495E0,5.069413E0,3.3907142E-1,6.388568E-2,-4.8130132E-2,-3.4966122E-2,-4.9926337E-2,-2.1145947E-2,1.5082134E-1,-4.0695038E-2,-4.534885E-2,-1.0265574E-2,-8.298824E-3,7.476001E-2,3.2462668E-2,1.1042303E-2,-5.0835837E-2,-1.0521087E-2],"split_indices":[7,1,2,7,5,2,7,1,5,2,2,7,2,7,0,0,0,0,0,0,0,0,0,0,0,0,0,0,0],"split_type":[0,0,0,0,0,0,0,0,0,0,0,0,0,0,0,0,0,0,0,0,0,0,0,0,0,0,0,0,0],"sum_hessian":[3.4549705E3,8.844436E2,2.5705269E3,6.7384125E2,2.1060236E2,2.4452754E3,1.2525152E2,5.224141E2,1.5142715E2,4.5627155E1,1.649752E2,4.329916E2,2.0122838E3,1.19380875E2,5.8706493E0,4.7369263E2,4.8721497E1,4.5492443E1,1.0593471E2,1.5531828E1,3.0095327E1,1.0911607E2,5.5859127E1,4.212173E2,1.177433E1,8.096315E2,1.2026523E3,1.1803691E2,1.3439572E0],"tree_param":{"num_deleted":"0","num_feature":"9","num_nodes":"29","size_leaf_vector":"1"}},{"base_weights":[-2.0953849E-2,2.225258E-1,-7.5494266E-1,2.801961E-1,-8.285152E-1,-5.7645446E-1,-9.561149E-1,-1.4850308E-1,3.7264055E-1,1.0945241E0,-5.086003E-2,-4.9569234E-2,-4.0786603E-1,-4.8842188E-2,-4.2159343E-1,6.758281E-2,-9.417406E-3,-1.3695436E-2,2.1602066E-2,-1.7674224E-2,6.899234E-2,1.8978734E-2,-3.9448332E-2,1.6814432E-1,-4.7661662E-2],"categories":[],"categories_nodes":[],"categories_segments":[],"categories_sizes":[],"default_left":[0,0,0,0,0,0,0,0,0,0,0,0,0,0,0,0,0,0,0,0,0,0,0,0,0],"id":33,"left_children":[1,3,5,7,9,11,13,15,17,19,-1,-1,21,-1,23,-1,-1,-1,-1,-1,-1,-1,-1,-1,-1],"loss_changes":[6.128619E2,1.5632394E2,3.0121063E1,9.6833206E1,4.9808647E1,3.1434128E1,4.0209656E0,2.619004E1,7.727847E1,5.640915E0,0E0,0E0,9.793346E1,0E0,3.6795383E1,0E0,0E0,0E0,0E0,0E0,0E0,0E0,0E0,0E0,0E0],"parents":[2147483647,0,0,1,1,2,2,3,3,4,4,5,5,6,6,7,7,8,8,9,9,12,12,14,14],"right_children":[2,4,6,8,10,12,14,16,18,20,-1,-1,22,-1,24,-1,-1,-1,-1,-1,-1,-1,-1,-1,-1],"split_conditions":[9.991413E-1,2.1593916E3,9.996442E-1,7.615301E-2,9.947941E-1,5.0522834E-3,1.0065029E1,9.512702E-1,-4.2740645E0,-1.3497866E0,-5.086003E-2,-4.9569234E-2,1.4758127E2,-4.8842188E-2,-4.54102E-1,6.758281E-2,-9.417406E-3,-1.3695436E-2,2.1602066E-2,-1.7674224E-2,6.899234E-2,1.8978734E-2,-3.9448332E-2,1.6814432E-1,-4.7661662E-2],"split_indices":[8,2,8,2,8,3,1,8,4,5,0,0,2,0,5,0,0,0,0,0,0,0,0,0,0],"split_type":[0,0,0,0,0,0,0,0,0,0,0,0,0,0,0,0,0,0,0,0,0,0,0,0,0],"sum_hessian":[3.4273997E3,2.5741848E3,8.532149E2,2.4409824E3,1.332025E2,4.5414465E2,3.9907022E2,4.328926E2,2.0080897E3,1.1472864E1,1.21729645E2,1.2980005E2,3.2434464E2,3.8337534E2,1.56948805E1,1.0348554E1,4.2254404E2,1.6866286E2,1.8394269E3,1.849217E0,9.623647E0,1.0578098E2,2.1856364E2,1.2772532E0,1.4417627E1],"tree_param":{"num_deleted":"0","num_feature":"9","num_nodes":"25","size_leaf_vector":"1"}},{"base_weights":[-2.681692E-2,2.0187129E-1,-7.427482E-1,-1.0599504E-1,3.4060895E-1,-5.5830604E-1,-9.420198E-1,5.995276E-2,-4.7017154E-1,1.164035E0,3.0185056E-1,-4.8993483E-2,-3.970765E-1,-9.676982E-1,-3.1541544E-1,-1.0685264E-2,3.119954E-2,-2.880283E-2,3.4970322E-3,-1.0383581E-2,7.577748E-2,1.99868E-2,-5.4111057E-3,-6.62143E-4,-4.476673E-2,-4.405156E-2,-5.022175E-2,1.7767766E-1,-4.761906E-2],"categories":[],"categories_nodes":[],"categories_segments":[],"categories_sizes":[],"default_left":[0,0,0,0,0,0,0,0,0,0,0,0,0,0,0,0,0,0,0,0,0,0,0,0,0,0,0,0,0],"id":34,"left_children":[1,3,5,7,9,11,13,15,17,19,21,-1,23,25,27,-1,-1,-1,-1,-1,-1,-1,-1,-1,-1,-1,-1,-1,-1],"loss_changes":[5.565482E2,1.10082115E2,2.9720612E1,4.844392E1,5.6338516E1,2.882576E1,6.0361633E0,8.521838E1,1.4388958E1,3.864811E1,6.819302E1,0E0,5.9772026E1,3.189392E-1,4.5275894E1,0E0,0E0,0E0,0E0,0E0,0E0,0E0,0E0,0E0,0E0,0E0,0E0,0E0,0E0],"parents":[2147483647,0,0,1,1,2,2,3,3,4,4,5,5,6,6,7,7,8,8,9,9,10,10,12,12,13,13,14,14],"right_children":[2,4,6,8,10,12,14,16,18,20,22,-1,24,26,28,-1,-1,-1,-1,-1,-1,-1,-1,-1,-1,-1,-1,-1,-1],"split_conditions":[9.991413E-1,3.3907142E-1,9.9963397E-1,1.1926306E1,8.397927E-1,5.0522834E-3,1.0065029E1,2.5138342E0,7.5997972E0,7.258915E0,2.5040354E1,-4.8993483E-2,1.1926306E1,-6.42568E-2,-4.54102E-1,-1.0685264E-2,3.119954E-2,-2.880283E-2,3.4970322E-3,-1.0383581E-2,7.577748E-2,1.99868E-2,-5.4111057E-3,-6.62143E-4,-4.476673E-2,-4.405156E-2,-5.022175E-2,1.7767766E-1,-4.761906E-2],"split_indices":[8,7,8,3,8,3,1,1,1,1,1,0,3,5,5,0,0,0,0,0,0,0,0,0,0,0,0,0,0],"split_type":[0,0,0,0,0,0,0,0,0,0,0,0,0,0,0,0,0,0,0,0,0,0,0,0,0,0,0,0,0],"sum_hessian":[3.39737E3,2.575426E3,8.219441E2,8.0013025E2,1.7752958E3,4.2882922E2,3.9311487E2,5.502348E2,2.498954E2,7.850101E1,1.6967948E3,1.17230774E2,3.1159845E2,3.7711618E2,1.599868E1,3.7090265E2,1.7933217E2,2.0887953E2,4.1015873E1,1.6096647E1,6.2404358E1,1.3698363E3,3.2695844E2,1.7658928E2,1.3500917E2,1.1970277E2,2.5741342E2,1.6143209E0,1.4384359E1],"tree_param":{"num_deleted":"0","num_feature":"9","num_nodes":"29","size_leaf_vector":"1"}},{"base_weights":[-1.531657E-2,2.0610705E-1,-7.350173E-1,2.5549927E-1,-8.496032E-1,-8.8960123E-1,-3.9799055E-1,-6.067648E-2,3.5387713E-1,-1.0053072E0,6.4218394E-2,-5.305679E-1,-9.6719044E-1,2.0163363E-1,-9.155288E-1,-4.7129705E-3,8.396241E-2,3.3856157E-2,8.815736E-3,-5.0658282E-2,-1.448526E-2,-1.1856908E-2,-4.2177152E-2,-4.457087E-2,-5.008304E-2,-3.641053E-2,4.2702746E-2,-5.02018E-2,9.545415E-2],"categories":[],"categories_nodes":[],"categories_segments":[],"categories_sizes":[],"default_left":[0,0,0,0,0,0,0,0,0,0,0,0,0,0,0,0,0,0,0,0,0,0,0,0,0,0,0,0,0],"id":35,"left_children":[1,3,5,7,9,11,13,15,17,19,-1,21,23,25,27,-1,-1,-1,-1,-1,-1,-1,-1,-1,-1,-1,-1,-1,-1],"loss_changes":[5.3734454E2,1.3467744E2,4.0977386E1,7.666838E1,3.9662415E1,1.4614868E1,7.815953E1,3.4377323E1,1.0775902E2,3.1489563E-1,0E0,8.865894E0,2.7026367E-1,7.173422E1,3.567772E1,0E0,0E0,0E0,0E0,0E0,0E0,0E0,0E0,0E0,0E0,0E0,0E0,0E0,0E0],"parents":[2147483647,0,0,1,1,2,2,3,3,4,4,5,5,6,6,7,7,8,8,9,9,11,11,12,12,13,13,14,14],"right_children":[2,4,6,8,10,12,14,16,18,20,-1,22,24,26,28,-1,-1,-1,-1,-1,-1,-1,-1,-1,-1,-1,-1,-1,-1],"split_conditions":[9.991413E-1,2.1705674E3,2.7400665E2,1.219308E0,4.3513694E-1,9.9930584E-1,1.2144137E1,6.3335495E0,6.3851307E1,3.654606E-1,6.4218394E-2,2.1524136E0,9.9959874E-1,4.244199E-2,1.9577612E3,-4.7129705E-3,8.396241E-2,3.3856157E-2,8.815736E-3,-5.0658282E-2,-1.448526E-2,-1.1856908E-2,-4.2177152E-2,-4.457087E-2,-5.008304E-2,-3.641053E-2,4.2702746E-2,-5.02018E-2,9.545415E-2],"split_indices":[8,2,0,0,7,8,3,7,0,7,0,1,8,7,2,0,0,0,0,0,0,0,0,0,0,0,0,0,0],"split_type":[0,0,0,0,0,0,0,0,0,0,0,0,0,0,0,0,0,0,0,0,0,0,0,0,0,0,0,0,0],"sum_hessian":[3.369967E3,2.5776418E3,7.923254E2,2.463159E3,1.1448282E2,5.420596E2,2.5026582E2,5.8462396E2,1.8785349E3,1.0719062E2,7.2922015E0,9.771853E1,4.4434106E2,1.1622127E2,1.3404456E2,5.744815E2,1.0142453E1,6.6504004E2,1.2134949E3,1.0561498E2,1.575635E0,5.134124E1,4.637729E1,1.4733307E2,2.97008E2,4.787404E1,6.834723E1,1.3059694E2,3.4476213E0],"tree_param":{"num_deleted":"0","num_feature":"9","num_nodes":"29","size_leaf_vector":"1"}},{"base_weights":[-1.4691675E-2,1.9447015E-1,-7.2166795E-1,2.4152008E-1,-8.657426E-1,-8.794106E-1,-3.884922E-1,-3.141292E-2,3.5554358E-1,-1.0035372E0,6.1756678E-2,-5.251557E-1,-9.574135E-1,1.6768362E-1,-9.09007E-1,1.801651E-2,-1.0793921E-2,3.968908E-2,8.466123E-3,-5.058081E-2,-1.6318541E-2,-1.5728205E-2,-4.623395E-2,-4.988789E-2,-4.2790152E-2,-4.640783E-2,3.3852078E-2,-5.00924E-2,7.989542E-2],"categories":[],"categories_nodes":[],"categories_segments":[],"categories_sizes":[],"default_left":[0,0,0,0,0,0,0,0,0,0,0,0,0,0,0,0,0,0,0,0,0,0,0,0,0,0,0,0,0],"id":36,"left_children":[1,3,5,7,9,11,13,15,17,19,-1,21,23,25,27,-1,-1,-1,-1,-1,-1,-1,-1,-1,-1,-1,-1,-1,-1],"loss_changes":[4.9715555E2,1.2963171E2,3.999936E1,7.734819E1,3.321795E1,1.3870422E1,7.207283E1,5.306005E1,1.4291638E2,2.3999786E-1,0E0,7.792782E0,8.8864136E-1,6.8137375E1,3.1505173E1,0E0,0E0,0E0,0E0,0E0,0E0,0E0,0E0,0E0,0E0,0E0,0E0,0E0,0E0],"parents":[2147483647,0,0,1,1,2,2,3,3,4,4,5,5,6,6,7,7,8,8,9,9,11,11,12,12,13,13,14,14],"right_children":[2,4,6,8,10,12,14,16,18,20,-1,22,24,26,28,-1,-1,-1,-1,-1,-1,-1,-1,-1,-1,-1,-1,-1,-1],"split_conditions":[9.991413E-1,2.1705674E3,2.7400665E2,1.52099E0,3.96432E-1,9.9930584E-1,1.2144137E1,-2.882346E-4,6.3851307E1,3.654606E-1,6.1756678E-2,7.1950803E0,5.5030305E-2,7.520897E1,1.9577612E3,1.801651E-2,-1.0793921E-2,3.968908E-2,8.466123E-3,-5.058081E-2,-1.6318541E-2,-1.5728205E-2,-4.623395E-2,-4.988789E-2,-4.2790152E-2,-4.640783E-2,3.3852078E-2,-5.00924E-2,7.989542E-2],"split_indices":[8,2,0,0,7,8,3,5,0,7,0,3,7,2,2,0,0,0,0,0,0,0,0,0,0,0,0,0,0],"split_type":[0,0,0,0,0,0,0,0,0,0,0,0,0,0,0,0,0,0,0,0,0,0,0,0,0,0,0,0,0],"sum_hessian":[3.3601074E3,2.5935269E3,7.665806E2,2.4840618E3,1.0946503E2,5.1914905E2,2.4743163E2,7.321857E2,1.7518761E3,1.03217415E2,6.2476125E0,9.507814E1,4.240709E2,1.1994593E2,1.2748569E2,2.3409428E2,4.9809146E2,5.2145734E2,1.2304188E3,1.0151241E2,1.705001E0,6.34307E1,3.1647438E1,2.972349E2,1.2683601E2,3.7800076E1,8.214585E1,1.23511925E2,3.9737647E0],"tree_param":{"num_deleted":"0","num_feature":"9","num_nodes":"29","size_leaf_vector":"1"}},{"base_weights":[-2.9569587E-2,1.6388005E-1,-6.987746E-1,2.1092775E-1,-8.149625E-1,-9.313096E-1,-5.049781E-1,-1.6885579E-1,2.936592E-1,-5.0635364E-2,1.0115405E0,-9.5532155E-1,-3.3854723E-1,-4.92395E-2,-3.2705903E-1,6.2330186E-2,-1.0452414E-2,2.0563686E-2,-5.171078E-4,-2.1540375E-2,6.5175824E-2,-5.0085325E-2,-4.203743E-2,-4.7088433E-2,1.5263692E-1,2.2600342E-2,-3.753544E-2],"categories":[],"categories_nodes":[],"categories_segments":[],"categories_sizes":[],"default_left":[0,0,0,0,0,0,0,0,0,0,0,0,0,0,0,0,0,0,0,0,0,0,0,0,0,0,0],"id":37,"left_children":[1,3,5,7,9,11,13,15,17,-1,19,21,23,-1,25,-1,-1,-1,-1,-1,-1,-1,-1,-1,-1,-1,-1],"loss_changes":[4.2872583E2,1.184889E2,3.29964E1,7.709647E1,4.365444E1,4.46463E0,3.4443443E1,2.5250463E1,7.201112E1,0E0,5.6279173E0,8.730774E-1,3.283482E1,0E0,9.888614E1,0E0,0E0,0E0,0E0,0E0,0E0,0E0,0E0,0E0,0E0,0E0,0E0],"parents":[2147483647,0,0,1,1,2,2,3,3,4,4,5,5,6,6,7,7,8,8,10,10,11,11,12,12,14,14],"right_children":[2,4,6,8,10,12,14,16,18,-1,20,22,24,-1,26,-1,-1,-1,-1,-1,-1,-1,-1,-1,-1,-1,-1],"split_conditions":[9.991413E-1,2.1593916E3,4.6314772E-2,7.7738784E-2,4.3513694E-1,1.0065029E1,5.0522834E-3,9.512702E-1,1.4599591E1,-5.0635364E-2,-1.3497866E0,8.8618515E1,9.521931E1,-4.92395E-2,1.4758127E2,6.2330186E-2,-1.0452414E-2,2.0563686E-2,-5.171078E-4,-2.1540375E-2,6.5175824E-2,-5.0085325E-2,-4.203743E-2,-4.7088433E-2,1.5263692E-1,2.2600342E-2,-3.753544E-2],"split_indices":[8,2,7,2,7,1,3,8,1,0,5,2,2,0,2,0,0,0,0,0,0,0,0,0,0,0,0],"split_type":[0,0,0,0,0,0,0,0,0,0,0,0,0,0,0,0,0,0,0,0,0,0,0,0,0,0,0],"sum_hessian":[3.3098276E3,2.5681873E3,7.4164056E2,2.4511577E3,1.1702948E2,3.3539584E2,4.0624472E2,4.382598E2,2.012898E3,1.0599913E2,1.1030353E1,3.2175052E2,1.3645307E1,1.0866419E2,2.9758054E2,1.1272161E1,4.2698764E2,1.4511229E3,5.6177496E2,1.7769258E0,9.253427E0,2.2351668E2,9.823385E1,1.2197912E1,1.4473937E0,1.0479748E2,1.9278305E2],"tree_param":{"num_deleted":"0","num_feature":"9","num_nodes":"27","size_leaf_vector":"1"}},{"base_weights":[-1.0297152E-2,1.813435E-1,-7.007181E-1,2.2315592E-1,-8.601793E-1,-9.3288636E-1,-5.1145464E-1,8.469361E-1,1.8418004E-1,-9.9936783E-1,5.938221E-2,-9.551428E-1,-3.7723085E-1,-4.866564E-2,-3.4458348E-1,-5.7789224E-4,6.0910203E-2,1.4405563E-2,-8.785221E-3,-5.0425798E-2,-1.3911331E-2,-5.0036777E-2,-4.208648E-2,-4.6706315E-2,1.1108625E-1,2.1040153E-2,-3.8232844E-2],"categories":[],"categories_nodes":[],"categories_segments":[],"categories_sizes":[],"default_left":[0,0,0,0,0,0,0,0,0,0,0,0,0,0,0,0,0,0,0,0,0,0,0,0,0,0,0],"id":38,"left_children":[1,3,5,7,9,11,13,15,17,19,-1,21,23,-1,25,-1,-1,-1,-1,-1,-1,-1,-1,-1,-1,-1,-1],"loss_changes":[4.3510812E2,1.1228842E2,3.0917236E1,6.0029312E1,2.9563202E1,3.592804E0,3.0170502E1,4.6326767E1,8.724493E1,3.3796692E-1,0E0,7.4346924E-1,2.2284775E1,0E0,9.4305046E1,0E0,0E0,0E0,0E0,0E0,0E0,0E0,0E0,0E0,0E0,0E0,0E0],"parents":[2147483647,0,0,1,1,2,2,3,3,4,4,5,5,6,6,7,7,8,8,9,9,11,11,12,12,14,14],"right_children":[2,4,6,8,10,12,14,16,18,20,-1,22,24,-1,26,-1,-1,-1,-1,-1,-1,-1,-1,-1,-1,-1,-1],"split_conditions":[9.991413E-1,2.1705674E3,4.6314772E-2,9.374354E-1,4.3513694E-1,1.0065029E1,5.0522834E-3,7.258915E0,3.8576653E1,3.654606E-1,5.938221E-2,8.8618515E1,9.209503E1,-4.866564E-2,1.4758127E2,-5.7789224E-4,6.0910203E-2,1.4405563E-2,-8.785221E-3,-5.0425798E-2,-1.3911331E-2,-5.0036777E-2,-4.208648E-2,-4.6706315E-2,1.1108625E-1,2.1040153E-2,-3.8232844E-2],"split_indices":[8,2,7,8,7,1,3,1,3,7,0,2,2,0,2,0,0,0,0,0,0,0,0,0,0,0,0],"split_type":[0,0,0,0,0,0,0,0,0,0,0,0,0,0,0,0,0,0,0,0,0,0,0,0,0,0,0],"sum_hessian":[3.2865225E3,2.5730552E3,7.134674E2,2.4745007E3,9.855426E1,3.1865112E2,3.948163E2,1.4430327E2,2.3301975E3,9.276135E1,5.7929125E0,3.0568805E2,1.2963071E1,1.0350563E2,2.9131067E2,4.385799E1,1.0044528E2,1.8082047E3,5.219928E2,9.120584E1,1.5555074E0,2.1245586E2,9.3232185E1,1.1203088E1,1.7599831E0,1.03226715E2,1.8808397E2],"tree_param":{"num_deleted":"0","num_feature":"9","num_nodes":"27","size_leaf_vector":"1"}},{"base_weights":[-9.1251265E-3,-7.5144345E-1,1.6234736E-1,-8.5291064E-1,-1.6504206E-1,5.426422E-3,4.2896384E-1,-4.1721466E-1,-9.254945E-1,4.6629262E-1,-4.9994975E-2,6.7020565E-2,-9.9553066E-1,3.8224956E-1,1.3219243E0,-3.184681E-2,1.1956287E-2,-4.8255593E-2,-3.500759E-2,-1.8754479E-2,1.0316934E-1,8.902333E-3,-2.2655157E-2,-5.0424945E-2,-1.1838755E-2,2.6959805E-2,4.4907914E-3,6.877292E-2,-2.1350067E-2],"categories":[],"categories_nodes":[],"categories_segments":[],"categories_sizes":[],"default_left":[0,0,0,0,0,0,0,0,0,0,0,0,0,0,0,0,0,0,0,0,0,0,0,0,0,0,0,0,0],"id":39,"left_children":[1,3,5,7,9,11,13,15,17,19,-1,21,23,25,27,-1,-1,-1,-1,-1,-1,-1,-1,-1,-1,-1,-1,-1,-1],"loss_changes":[4.1570145E2,3.632315E1,1.1099573E2,1.6128082E1,4.8766754E1,1.0309604E2,4.0497437E1,1.11689415E1,3.3131104E0,7.1807625E1,0E0,9.1043015E1,7.150192E-1,4.2887253E1,5.1243744E0,0E0,0E0,0E0,0E0,0E0,0E0,0E0,0E0,0E0,0E0,0E0,0E0,0E0,0E0],"parents":[2147483647,0,0,1,1,2,2,3,3,4,4,5,5,6,6,7,7,8,8,9,9,11,11,12,12,13,13,14,14],"right_children":[2,4,6,8,10,12,14,16,18,20,-1,22,24,26,28,-1,-1,-1,-1,-1,-1,-1,-1,-1,-1,-1,-1,-1,-1],"split_conditions":[1.0112499E-1,2.902556E2,1.2266917E0,9.99368E-1,1.4758127E2,2.1593916E3,1.8124945E3,2.737352E2,2.766025E2,7.0026064E0,-4.9994975E-2,4.1179466E1,3.654606E-1,2.6713498E2,1.5405441E1,-3.184681E-2,1.1956287E-2,-4.8255593E-2,-3.500759E-2,-1.8754479E-2,1.0316934E-1,8.902333E-3,-2.2655157E-2,-5.0424945E-2,-1.1838755E-2,2.6959805E-2,4.4907914E-3,6.877292E-2,-2.1350067E-2],"split_indices":[7,0,7,8,2,2,2,0,0,3,0,3,7,0,4,0,0,0,0,0,0,0,0,0,0,0,0,0,0],"split_type":[0,0,0,0,0,0,0,0,0,0,0,0,0,0,0,0,0,0,0,0,0,0,0,0,0,0,0,0,0],"sum_hessian":[3.2638965E3,6.118342E2,2.6520623E3,5.211954E2,9.063886E1,1.6701135E3,9.819488E2,7.539187E1,4.458035E2,5.1861618E1,3.877725E1,1.5741791E3,9.593446E1,9.3449E2,4.7458794E1,5.650529E1,1.888658E1,3.7635406E2,6.944944E1,3.44682E1,1.739342E1,1.2978059E3,2.763732E2,9.399873E1,1.9357346E0,6.075693E2,3.269207E2,4.6256443E1,1.2023519E0],"tree_param":{"num_deleted":"0","num_feature":"9","num_nodes":"29","size_leaf_vector":"1"}},{"base_weights":[-1.0662499E-2,-7.4850065E-1,1.4508124E-1,-8.364301E-1,-2.633937E-2,1.8058455E-1,-8.6134976E-1,-8.924638E-1,-3.723053E-1,7.850823E-1,-7.608345E-1,-1.3261954E-1,2.7430177E-1,-9.956932E-1,5.639199E-2,-4.784439E-2,-3.129624E-2,-3.2457024E-2,1.8358517E-2,-4.849314E-2,6.916946E-2,-4.931312E-2,-8.567401E-3,-3.273606E-2,-3.0202556E-3,2.8719246E-2,5.5773566E-3,-5.028295E-2,-1.3397455E-2],"categories":[],"categories_nodes":[],"categories_segments":[],"categories_sizes":[],"default_left":[0,0,0,0,0,0,0,0,0,0,0,0,0,0,0,0,0,0,0,0,0,0,0,0,0,0,0,0,0],"id":40,"left_children":[1,3,5,7,9,11,13,15,17,19,21,23,25,27,-1,-1,-1,-1,-1,-1,-1,-1,-1,-1,-1,-1,-1,-1,-1],"loss_changes":[3.7287747E2,3.58898E1,9.589331E1,1.2778412E1,3.7797844E1,7.602694E1,2.5567154E1,7.1128845E0,1.17069E1,3.2997414E1,4.252163E0,2.2466103E1,9.727248E1,3.5581207E-1,0E0,0E0,0E0,0E0,0E0,0E0,0E0,0E0,0E0,0E0,0E0,0E0,0E0,0E0,0E0],"parents":[2147483647,0,0,1,1,2,2,3,3,4,4,5,5,6,6,7,7,8,8,9,9,10,10,11,11,12,12,13,13],"right_children":[2,4,6,8,10,12,14,16,18,20,22,24,26,28,-1,-1,-1,-1,-1,-1,-1,-1,-1,-1,-1,-1,-1,-1,-1],"split_conditions":[9.626734E-2,2.9871945E2,2.1705674E3,8.2157746E-2,9.72755E1,1.219308E0,4.3513694E-1,2.766025E2,2.737352E2,7.520897E1,5.428312E0,1.7867075E-1,6.3851307E1,3.654606E-1,5.639199E-2,-4.784439E-2,-3.129624E-2,-3.2457024E-2,1.8358517E-2,-4.849314E-2,6.916946E-2,-4.931312E-2,-8.567401E-3,-3.273606E-2,-3.0202556E-3,2.8719246E-2,5.5773566E-3,-5.028295E-2,-1.3397455E-2],"split_indices":[7,0,2,7,2,0,7,0,0,2,1,7,0,7,0,0,0,0,0,0,0,0,0,0,0,0,0,0,0],"split_type":[0,0,0,0,0,0,0,0,0,0,0,0,0,0,0,0,0,0,0,0,0,0,0,0,0,0,0,0,0],"sum_hessian":[3.2429036E3,5.6454724E2,2.6783564E3,5.031287E2,6.141854E1,2.5878855E3,9.0470825E1,4.4810605E2,5.5022644E1,2.914842E1,3.2270123E1,5.959151E2,1.9919705E3,8.521512E1,5.2557073E0,3.5879358E2,8.931246E1,4.012379E1,1.4898854E1,7.253004E0,2.1895416E1,2.285642E1,9.413701E0,7.1428604E1,5.244865E2,6.995773E2,1.2923932E3,8.368721E1,1.5279083E0],"tree_param":{"num_deleted":"0","num_feature":"9","num_nodes":"29","size_leaf_vector":"1"}},{"base_weights":[-1.1912983E-2,1.5408689E-1,-6.707701E-1,1.8916497E-1,-8.5078347E-1,-8.4686756E-1,-3.2253012E-1,-5.4423727E-2,2.9595014E-1,-9.937856E-1,5.5162545E-2,-4.109057E-1,-9.4653475E-1,2.1194485E-1,-8.769646E-1,1.6045546E-2,-1.1709954E-2,3.4590505E-2,6.748634E-3,-5.0207328E-2,-1.5480054E-2,2.4499498E-2,-3.5124514E-2,-4.1226428E-2,-5.0022013E-2,-4.720075E-2,3.454306E-2,-4.981796E-2,8.979273E-2],"categories":[],"categories_nodes":[],"categories_segments":[],"categories_sizes":[],"default_left":[0,0,0,0,0,0,0,0,0,0,0,0,0,0,0,0,0,0,0,0,0,0,0,0,0,0,0,0,0],"id":41,"left_children":[1,3,5,7,9,11,13,15,17,19,-1,21,23,25,27,-1,-1,-1,-1,-1,-1,-1,-1,-1,-1,-1,-1,-1,-1],"loss_changes":[3.530693E2,9.105368E1,3.9566864E1,6.484856E1,2.545147E1,1.8332397E1,6.5320305E1,5.1389046E1,1.1033867E2,2.6856995E-1,0E0,2.1868656E1,1.476471E0,6.3055542E1,3.628031E1,0E0,0E0,0E0,0E0,0E0,0E0,0E0,0E0,0E0,0E0,0E0,0E0,0E0,0E0],"parents":[2147483647,0,0,1,1,2,2,3,3,4,4,5,5,6,6,7,7,8,8,9,9,11,11,12,12,13,13,14,14],"right_children":[2,4,6,8,10,12,14,16,18,20,-1,22,24,26,28,-1,-1,-1,-1,-1,-1,-1,-1,-1,-1,-1,-1,-1,-1],"split_conditions":[9.991413E-1,2.1705674E3,2.7400665E2,1.603188E0,4.3513694E-1,9.992927E-1,1.2144137E1,-2.882346E-4,6.3851307E1,3.654606E-1,5.5162545E-2,9.9999994E-1,9.995771E-1,7.520897E1,1.9577612E3,1.6045546E-2,-1.1709954E-2,3.4590505E-2,6.748634E-3,-5.0207328E-2,-1.5480054E-2,2.4499498E-2,-3.5124514E-2,-4.1226428E-2,-5.0022013E-2,-4.720075E-2,3.454306E-2,-4.981796E-2,8.979273E-2],"split_indices":[8,2,0,0,7,8,3,5,0,7,0,6,8,2,2,0,0,0,0,0,0,0,0,0,0,0,0,0,0],"split_type":[0,0,0,0,0,0,0,0,0,0,0,0,0,0,0,0,0,0,0,0,0,0,0,0,0,0,0,0,0],"sum_hessian":[3.226259E3,2.5775964E3,6.486625E2,2.491437E3,8.61595E1,4.2985977E2,2.188027E2,7.5947705E2,1.7319598E3,8.0741974E1,5.417524E0,8.093941E1,3.4892038E2,1.1172118E2,1.0708152E2,2.4570645E2,5.137706E2,4.997432E2,1.2322167E3,7.907681E1,1.6651592E0,1.9624876E1,6.1314526E1,1.119149E2,2.3700548E2,3.2442825E1,7.927836E1,1.03103134E2,3.978382E0],"tree_param":{"num_deleted":"0","num_feature":"9","num_nodes":"29","size_leaf_vector":"1"}},{"base_weights":[-1.4276546E-2,1.6646247E-1,-5.8240646E-1,4.041742E-1,4.078904E-2,-7.689235E-1,-1.4172903E-1,2.1255097E0,3.7824032E-1,1.2115481E-1,-7.306728E-1,3.3010733E-1,-8.1775945E-1,6.644121E-1,-9.8067856E-1,5.6326766E-2,1.2258686E-1,-1.8492142E-2,2.2741912E-2,-6.574832E-3,2.1116957E-2,6.474527E-2,-4.5450147E-2,1.680082E-1,2.142691E-3,-2.9893538E-2,-4.764567E-2,7.973354E-2,-4.231998E-3,-1.1885325E-2,-4.9449217E-2],"categories":[],"categories_nodes":[],"categories_segments":[],"categories_sizes":[],"default_left":[0,0,0,0,0,0,0,0,0,0,0,0,0,0,0,0,0,0,0,0,0,0,0,0,0,0,0,0,0,0,0],"id":42,"left_children":[1,3,5,7,9,11,13,15,17,19,21,23,25,27,29,-1,-1,-1,-1,-1,-1,-1,-1,-1,-1,-1,-1,-1,-1,-1,-1],"loss_changes":[3.304835E2,7.2928764E1,6.3736816E1,3.6888535E1,9.918866E1,2.955066E1,1.5770781E2,1.2516556E0,4.7902313E1,1.1027617E2,5.5701508E1,2.0678179E1,1.4962067E1,8.307242E1,4.6964264E-1,0E0,0E0,0E0,0E0,0E0,0E0,0E0,0E0,0E0,0E0,0E0,0E0,0E0,0E0,0E0,0E0],"parents":[2147483647,0,0,1,1,2,2,3,3,4,4,5,5,6,6,7,7,8,8,9,9,10,10,11,11,12,12,13,13,14,14],"right_children":[2,4,6,8,10,12,14,16,18,20,22,24,26,28,30,-1,-1,-1,-1,-1,-1,-1,-1,-1,-1,-1,-1,-1,-1,-1,-1],"split_conditions":[9.989812E-1,9.879938E-1,2.769174E2,5.758436E-3,1.903457E1,9.999987E-1,1.2144137E1,9.748748E-1,9.643E-1,2.097808E0,-9.029095E0,6.6847E-1,9.993881E-1,9.995371E-1,1.2669324E1,5.6326766E-2,1.2258686E-1,-1.8492142E-2,2.2741912E-2,-6.574832E-3,2.1116957E-2,6.474527E-2,-4.5450147E-2,1.680082E-1,2.142691E-3,-2.9893538E-2,-4.764567E-2,7.973354E-2,-4.231998E-3,-1.1885325E-2,-4.9449217E-2],"split_indices":[8,8,0,3,1,6,3,8,0,1,5,0,8,8,3,0,0,0,0,0,0,0,0,0,0,0,0,0,0,0,0],"split_type":[0,0,0,0,0,0,0,0,0,0,0,0,0,0,0,0,0,0,0,0,0,0,0,0,0,0,0,0,0,0,0],"sum_hessian":[3.2165312E3,2.4407598E3,7.7577124E2,8.43348E2,1.5974119E3,5.4454663E2,2.3122462E2,1.13157835E1,8.320322E2,1.4474673E3,1.4994456E2,2.2922693E1,5.2162396E2,1.18024086E2,1.1320053E2,3.881885E0,7.433899E0,7.692513E1,7.551071E2,7.874611E2,6.6000616E2,1.1626188E1,1.3831837E2,1.0586028E0,2.186409E1,2.0063094E2,3.20993E2,5.214077E1,6.5883316E1,1.578953E0,1.11621574E2],"tree_param":{"num_deleted":"0","num_feature":"9","num_nodes":"31","size_leaf_vector":"1"}},{"base_weights":[-2.1560254E-2,-7.1365505E-1,1.1688329E-1,-8.2698476E-1,-1.2320576E-1,-1.364082E-2,3.660566E-1,-9.074359E-1,-4.0445498E-1,1.0825348E0,-7.0454115E-1,6.2986344E-2,-7.2675675E-1,3.0421272E-1,1.0044618E0,-4.7710173E-2,-3.2792587E-2,-2.6190182E-2,5.649233E-2,7.1959444E-3,2.4533585E-1,-9.068563E-3,-4.9658168E-2,-6.0801483E-3,2.2062147E-2,2.9920924E-2,-4.6744946E-2,2.3886599E-2,-6.5374016E-3,6.501218E-2,-5.6942337E-4],"categories":[],"categories_nodes":[],"categories_segments":[],"categories_sizes":[],"default_left":[0,0,0,0,0,0,0,0,0,0,0,0,0,0,0,0,0,0,0,0,0,0,0,0,0,0,0,0,0,0,0],"id":43,"left_children":[1,3,5,7,9,11,13,15,17,19,21,23,25,27,29,-1,-1,-1,-1,-1,-1,-1,-1,-1,-1,-1,-1,-1,-1,-1,-1],"loss_changes":[3.0616782E2,3.5539703E1,8.660965E1,1.4817322E1,6.1706303E1,9.558799E1,3.5836433E1,3.7798157E0,1.4005437E1,1.0223038E2,8.769239E0,1.1035296E2,4.737464E1,6.315915E1,2.4176346E1,0E0,0E0,0E0,0E0,0E0,0E0,0E0,0E0,0E0,0E0,0E0,0E0,0E0,0E0,0E0,0E0],"parents":[2147483647,0,0,1,1,2,2,3,3,4,4,5,5,6,6,7,7,8,8,9,9,10,10,11,11,12,12,13,13,14,14],"right_children":[2,4,6,8,10,12,14,16,18,20,22,24,26,28,30,-1,-1,-1,-1,-1,-1,-1,-1,-1,-1,-1,-1,-1,-1,-1,-1],"split_conditions":[1.0112499E-1,2.902556E2,1.3617183E0,8.2157746E-2,-4.2261687E-1,1.59779625E1,1.7274632E1,2.766025E2,9.576008E-1,9.195636E0,2.1589255E-2,3.002245E0,-1.7417672E0,1.5180861E-2,3.0764108E2,-4.7710173E-2,-3.2792587E-2,-2.6190182E-2,5.649233E-2,7.1959444E-3,2.4533585E-1,-9.068563E-3,-4.9658168E-2,-6.0801483E-3,2.2062147E-2,2.9920924E-2,-4.6744946E-2,2.3886599E-2,-6.5374016E-3,6.501218E-2,-5.6942337E-4],"split_indices":[7,0,7,7,5,1,5,0,5,1,5,1,5,5,0,0,0,0,0,0,0,0,0,0,0,0,0,0,0,0,0],"split_type":[0,0,0,0,0,0,0,0,0,0,0,0,0,0,0,0,0,0,0,0,0,0,0,0,0,0,0,0,0,0,0],"sum_hessian":[3.1935002E3,5.316362E2,2.661864E3,4.456906E2,8.594559E1,1.7474467E3,9.1441736E2,3.7343893E2,7.225168E1,2.767762E1,5.8267963E1,1.5787186E3,1.6872797E2,8.350049E2,7.9412445E1,3.125462E2,6.0892727E1,6.764814E1,4.603541E0,2.305627E1,4.62135E0,2.129538E1,3.6972584E1,1.0614226E3,5.17296E2,2.2649666E1,1.4607831E2,5.968176E2,2.3818727E2,6.1287575E1,1.8124868E1],"tree_param":{"num_deleted":"0","num_feature":"9","num_nodes":"31","size_leaf_vector":"1"}},{"base_weights":[-1.0565161E-2,-5.6618416E-1,1.5570088E-1,-4.968902E-2,-4.1461074E-1,1.9132619E-1,-8.4300256E-1,-1.4512746E-1,-8.814852E-1,1.4600828E-1,1.2661343E0,-9.915412E-1,5.5203833E-2,-4.344296E-2,6.1278963E-3,-4.781386E-2,-2.7072525E-2,2.23693E-2,2.242565E-3,1.3497478E-1,2.6899694E-2,-5.014323E-2,-7.2677583E-3],"categories":[],"categories_nodes":[],"categories_segments":[],"categories_sizes":[],"default_left":[0,0,0,0,0,0,0,0,0,0,0,0,0,0,0,0,0,0,0,0,0,0,0],"id":44,"left_children":[1,3,5,-1,7,9,11,13,15,17,19,21,-1,-1,-1,-1,-1,-1,-1,-1,-1,-1,-1],"loss_changes":[2.908297E2,4.658255E1,8.637403E1,0E0,6.744008E1,1.1381545E2,2.5286133E1,6.630476E1,4.475601E0,6.848062E1,9.723944E1,6.039276E-1,0E0,0E0,0E0,0E0,0E0,0E0,0E0,0E0,0E0,0E0,0E0],"parents":[2147483647,0,0,1,1,2,2,4,4,5,5,6,6,7,7,8,8,9,9,10,10,11,11],"right_children":[2,4,6,-1,8,10,12,14,16,18,20,22,-1,-1,-1,-1,-1,-1,-1,-1,-1,-1,-1],"split_conditions":[1.303303E-1,5.0522834E-3,2.1705674E3,-4.968902E-2,1.1926306E1,1.925593E3,4.3513694E-1,4.1717816E-2,1.9431003E3,-1.589535E-2,1.1685362E1,3.654606E-1,5.5203833E-2,-4.344296E-2,6.1278963E-3,-4.781386E-2,-2.7072525E-2,2.23693E-2,2.242565E-3,1.3497478E-1,2.6899694E-2,-5.014323E-2,-7.2677583E-3],"split_indices":[7,3,2,0,3,2,7,7,2,5,3,7,0,0,0,0,0,0,0,0,0,0,0],"split_type":[0,0,0,0,0,0,0,0,0,0,0,0,0,0,0,0,0,0,0,0,0,0,0],"sum_hessian":[3.1462153E3,7.2408875E2,2.4221267E3,1.8804579E2,5.3604297E2,2.3394822E3,8.264458E1,3.406996E2,1.9534337E2,2.2459216E3,9.3560555E1,7.724265E1,5.401928E0,9.138345E1,2.4931612E2,1.5863803E2,3.6705338E1,5.635401E2,1.6823813E3,3.060551E1,6.2955048E1,7.603995E1,1.2026999E0],"tree_param":{"num_deleted":"0","num_feature":"9","num_nodes":"23","size_leaf_vector":"1"}},{"base_weights":[-1.5317119E-2,1.22422166E-1,-6.3929373E-1,1.5600133E-1,-7.8987825E-1,-9.036146E-1,-4.4847855E-1,1.1777013E-1,7.758419E-1,-9.936689E-1,1.0149522E0,-5.0080698E-2,-6.7565584E-1,-4.7932643E-2,-2.8761533E-1,2.1519858E-2,6.4819277E-4,-1.8410273E-2,7.9452775E-2,-5.0207354E-2,-1.2397872E-2,-5.4656104E-3,5.9209324E-2,6.5552644E-2,-4.5330074E-2,1.9507749E-2,-3.652715E-2],"categories":[],"categories_nodes":[],"categories_segments":[],"categories_sizes":[],"default_left":[0,0,0,0,0,0,0,0,0,0,0,0,0,0,0,0,0,0,0,0,0,0,0,0,0,0,0],"id":45,"left_children":[1,3,5,7,9,11,13,15,17,19,21,-1,23,-1,25,-1,-1,-1,-1,-1,-1,-1,-1,-1,-1,-1,-1],"loss_changes":[2.7047437E2,7.909989E1,2.829631E1,5.8852257E1,3.473164E1,4.6310883E0,2.7009575E1,7.679735E1,1.3485976E2,3.9868927E-1,1.993475E0,0E0,3.5373383E1,0E0,7.659617E1,0E0,0E0,0E0,0E0,0E0,0E0,0E0,0E0,0E0,0E0,0E0,0E0],"parents":[2147483647,0,0,1,1,2,2,3,3,4,4,5,5,6,6,7,7,8,8,9,9,10,10,12,12,14,14],"right_children":[2,4,6,8,10,12,14,16,18,20,22,-1,24,-1,26,-1,-1,-1,-1,-1,-1,-1,-1,-1,-1,-1,-1],"split_conditions":[9.991413E-1,2.1593916E3,4.6314772E-2,1.908038E3,3.96432E-1,8.8618515E1,5.0522834E-3,-1.589535E-2,-1.748999E-1,3.654606E-1,-1.3983462E0,-5.0080698E-2,9.521931E1,-4.7932643E-2,1.4758127E2,2.1519858E-2,6.4819277E-4,-1.8410273E-2,7.9452775E-2,-5.0207354E-2,-1.2397872E-2,-5.4656104E-3,5.9209324E-2,6.5552644E-2,-4.5330074E-2,1.9507749E-2,-3.652715E-2],"split_indices":[8,2,7,2,7,2,3,5,5,7,5,0,2,0,2,0,0,0,0,0,0,0,0,0,0,0,0],"split_type":[0,0,0,0,0,0,0,0,0,0,0,0,0,0,0,0,0,0,0,0,0,0,0,0,0,0,0],"sum_hessian":[3.1451128E3,2.577048E3,5.680649E2,2.486361E3,9.0686844E1,2.365943E2,3.314706E2,2.343035E3,1.4332628E2,8.188978E1,8.797068E0,1.630887E2,7.35056E1,7.8272285E1,2.5319832E2,5.874931E2,1.7555417E3,5.9777355E1,8.354892E1,8.0413315E1,1.4764619E0,1.1972857E0,7.5997815E0,7.1677914E0,6.633781E1,1.0011735E2,1.5308096E2],"tree_param":{"num_deleted":"0","num_feature":"9","num_nodes":"27","size_leaf_vector":"1"}},{"base_weights":[-9.712025E-3,1.4166193E-1,-5.436066E-1,1.7311811E-1,-8.3101267E-1,-7.229507E-1,-1.1985122E-1,1.310683E-1,1.1135976E0,5.3793408E-2,-9.877483E-1,-4.421396E-1,-9.224475E-1,6.094418E-1,-9.803973E-1,2.099752E-2,1.7755639E-3,2.9116701E-3,9.708727E-2,-1.0023408E-2,-5.0000787E-2,-5.3300494E-3,-4.3316662E-2,-4.6583947E-2,-1.7684253E-2,-4.4801682E-2,5.4850575E-2,-6.019849E-3,-4.95232E-2],"categories":[],"categories_nodes":[],"categories_segments":[],"categories_sizes":[],"default_left":[0,0,0,0,0,0,0,0,0,0,0,0,0,0,0,0,0,0,0,0,0,0,0,0,0,0,0,0,0],"id":46,"left_children":[1,3,5,7,9,11,13,15,17,-1,19,21,23,25,27,-1,-1,-1,-1,-1,-1,-1,-1,-1,-1,-1,-1,-1,-1],"loss_changes":[2.5207722E2,7.449789E1,5.2275467E1,9.298073E1,2.386718E1,2.6701141E1,1.2993451E2,6.2238922E1,8.785278E1,0E0,4.8550415E-1,2.8788887E1,1.1510925E0,8.331563E1,7.0249176E-1,0E0,0E0,0E0,0E0,0E0,0E0,0E0,0E0,0E0,0E0,0E0,0E0,0E0,0E0],"parents":[2147483647,0,0,1,1,2,2,3,3,4,4,5,5,6,6,7,7,8,8,10,10,11,11,12,12,13,13,14,14],"right_children":[2,4,6,8,10,12,14,16,18,-1,20,22,24,26,28,-1,-1,-1,-1,-1,-1,-1,-1,-1,-1,-1,-1,-1,-1],"split_conditions":[9.989982E-1,2.1705674E3,2.7748917E2,1.908038E3,9.947941E-1,9.99368E-1,1.2144137E1,-1.589535E-2,-1.8766584E-1,5.3793408E-2,9.9719673E-1,1.9704135E3,2.766025E2,7.520897E1,1.2669324E1,2.099752E-2,1.7755639E-3,2.9116701E-3,9.708727E-2,-1.0023408E-2,-5.0000787E-2,-5.3300494E-3,